-0.12025592
0.19179937
-0.3202175
0.18322545
-0.024406858
0.13226949
0.1129657
-0.023214946
0.17004025
-0.051712517
-0.064535126
0.116527386
-0.114155374
-0.5314042
0.37237674
0.12085297
0.4617437
0.32963037
0.190796
-0.021252638
0.040800363
-0.4455457
0.023435224
-0.039607123
-0.04829855
0.5049182
-0.24443561
-0.2722524
0.08327706
0.31512883
-0.21197087
-0.011088436
-0.018069832
0.18382551
-0.6372796
0.33084124
0.19778316
0.2826448
0.2274804
-0.021861311
0.1334034
0.31136823
-0.20868517
0.32913163
0.21058209
0.18307018
0.18004373
0.04666817
0.22293974
-0.14234255
0.29529023
-0.24541478
-0.05958791
-0.20501706
0.19999371
-0.41908318
-0.05012884
-0.5925384
-0.40512738
-0.25659004
0.15818606
0.04169528
0.13858443
0.012715604
-0.026341708
0.29757333
-0.17210461
-0.029568395
0.0879172
-0.21902834
0.32203686
0.36044917
-0.21291569
-0.069214486
-0.038448777
-0.035168786
0.044263832
0.18261573
0.23824926
-0.16859768
0.21516015
-0.75961494
0.03833883
0.030761862
0.025320457
-0.095975965
0.11737731
-0.180351
0.13898635
-0.23861867
0.17885362
0.27160373
-0.027678078
-0.02215255
0.26648143
-0.379016
-0.3676025
0.020517766
0.05018033
0.0049945647
0.5007082
0.14759941
0.26656288
0.13255253
0.08847872
0.11282288
-0.07097933
-0.3018887
0.2994038
0.0076128305
0.041791376
-0.05821961
0.024626642
-0.17054257
0.29172522
0.42254317
-0.7101119
0.59744173
0.1219341
-0.0036562392
-1.0197742
0.07680994
-0.13815767
0.13763416
-0.012216495
0.16221465
0.17126219
-0.21509512
0.13337694
0.46194568
-0.08034117
-0.044627022
0.2687632
0.042160016
0.20716831
-0.41337535
-0.4610256
-0.30381262
-0.0067503946
0.22762969
-0.0787054
0.1454206
0.08607028
0.008679031
0.0010421061
-6.76511e-05
0.012885667
-0.43422893
-0.18473965
0.4016954
-0.07386114
-0.083641954
-0.07847804
0.0568123
-0.47901192
0.36881578
0.13006994
0.14376526
-0.44445705
-0.081759766
-0.26649553
0.37624806
0.10115403
0.0926294
0.18873188
0.25773716
0.08012519
-0.22516625
-0.12473868
-0.0010162771
0.32789358
0.017085137
-0.02185734
0.062104687
0.09406375
-0.09250026
0.0733206
-0.101614594
0.34877434
-0.13214053
-0.42807648
0.30131844
-0.28622016
0.20985721
0.0037672368
0.033221778
0.07784185
0.29466835
0.079271
0.01749497
-0.40090722
0.12585992
-0.12728766
-0.24496378
0.2687963
0.17396705
-0.16153571
-0.092066474
0.07126895
-0.53194565
0.15141004
-0.030927159
0.18345386
-0.04782027
-0.017288899
0.09104156
0.12689148
-0.032623217
0.12096459
-0.036159918
-0.0038473643
0.038676668
-0.014856148
-0.30451536
0.1449946
0.085936144
-0.006414739
0.16346
-0.14543857
0.0023567926
0.14829645
0.13370156
0.12595467
0.20802543
0.4880489
0.010758389
0.17622069
0.022039557
-0.024478467
0.19119178
0.20025826
-0.034525555
-0.08983168
0.10086565
-0.11574727
-0.66930705
0.06719003
0.033567052
0.07689987
0.10236703
-0.011281224
0.33127356
0.16446637
-0.17721386
-0.020617794
0.052672517
0.10295244
-0.4547982
0.052995697
-0.035900597
-0.0044017225
-0.4206495
-0.10356142
-1.4982227
0.020948103
-0.09329196
-0.5278068
0.2016463
0.42627782
-0.40397823
0.06602135
0.26624542
0.17769675
-0.057290085
-0.06182591
-0.23374696
-0.1877097
0.06227316
-0.08220694
0.17171577
-0.20541914
-0.69062775
0.026773594
-0.10310171
-0.6397631
0.1314375
-0.1026557
-0.020492138
0.07496416
-0.035648614
0.07323157
0.115834005
-0.30208093
0.22114237
0.050862297
0.5097807
-0.22857182
0.24185047
0.025311517
-0.3365366
0.29095313
0.28345156
0.0041157845
-0.07638587
-1.8687255
-0.4079573
0.13867705
-0.07566769
-0.0666288
-0.10023491
0.18745844
0.08827652
-0.7713944
0.2201941
0.028236972
-0.16084453
0.008418986
-0.13266343
-0.22064877
0.15607318
-0.09140234
0.2263746
0.10730237
-0.5395772
0.05926042
-0.04155033
0.31599537
0.06340977
-0.033928357
0.36593962
0.208898
0.44224018
-0.05765714
-0.035158362
0.0023890478
-0.18960758
0.0045185536
-0.20683156
0.30315265
0.20909858
0.21913545
0.15241084
-0.07428602
0.1070537
0.12635246
0.10436328
0.005449802
-0.26102
-0.23170438
-0.017982166
-0.21322013
0.1737916
-0.01920561
0.3786313
-0.38775522
0.387138
0.24211128
0.095625386
-0.01819827
0.12187451
0.0930656
-0.035445727
-0.0036007555
0.13771707
-0.40269136
-0.18409695
0.13344409
0.27596173
-0.23337375
0.449361
0.28076828
0.20110367
-0.08815504
-0.07692071
-0.016078208
-0.18208729
-0.031079601
0.36196035
-0.06323881
-0.5668106
0.003965683
-0.5802556
-0.037469946
0.5121965
0.34406418
-0.2002132
-0.38314122
0.007764464
0.39314696
0.15389422
-0.31221768
0.095406756
0.6011973
-0.022673095
0.021328898
0.011876705
0.30600226
-0.26341394
-0.06460905
0.28315178
-0.68988407
-0.2832793
-0.08061148
0.21075203
0.15322015
-0.4768744
0.42954925
0.015032135
0.6531417
0.038973942
0.011999973
0.009882486
-0.34048447
0.17335346
-0.31396422
0.42907643
-0.081195146
-0.1799734
0.19304007
0.2542737
-0.022961125
0.17079718
-0.094773486
-0.1119245
-0.07318866
-0.2257681
0.34275898
-0.11401214
0.07233541
-0.18813501
-0.23829119
-0.14154083
-0.1690824
0.28940398
-0.00602494
0.010827271
-0.0779616
0.08672872
-0.2112205
-0.07609345
0.09528518
0.17125092
0.29294854
-0.13802819
-0.2109344
-0.24964596
0.38044775
0.32013828
0.26317152
0.081577286
0.082322694
0.18984956
-0.06199742
-0.06518523
-0.022638354
0.44142383
-0.25837305
0.09717144
-0.095610514
-0.119236045
-0.114709474
-0.5758852
-0.038569994
0.24796276
-0.5440111
0.15002471
0.09463877
-0.1466512
0.11910934
-0.033841833
-0.15953292
0.122424275
0.09867271
0.45386377
-0.36148503
-0.29172048
0.37902066
0.20049825
-0.034272682
-0.015577284
-0.06539279
0.07592573
-0.09552222
0.07092083
-0.10093289
-0.4419897
0.3261983
-0.02190215
-0.20872264
-0.17083679
-0.56980866
0.32200235
0.42339963
-1.3175303
-0.02877554
0.38048822
-0.00931606
-0.4538569
0.2663867
-0.22763266
-0.26825094
-0.018682647
0.6639172
-0.63571256
0.5039004
0.49417686
0.20669374
-0.38863945
0.39638484
-0.12549351
-0.08708564
-0.6693976
0.43614465
-0.06255643
-0.06864681
-0.18865491
-0.5526615
-0.09247738
0.8568589
0.42325097
-0.49941674
-0.29275858
0.022673268
0.3966181
0.5196799
-0.3115302
-0.37158206
-0.07176678
0.22098266
-0.048490167
-0.015509016
0.5982495
0.08140682
0.14690165
0.064981185
-0.40036458
0.222313
0.7858951
0.0052122213
-0.5140495
0.21603385
0.70051974
-0.032543886
0.17507885
0.40281537
-0.08339751
-0.19862391
-0.30305874
0.4870393
0.43625703
-0.28470892
0.08755262
-0.049376767
-0.3973332
-0.056560148
-0.25646335
0.36771905
-0.14189672
0.17552675
0.2595655
0.27737835
0.37050283
0.3289986
-0.0069236634
0.21842875
-0.29868564
0.18185733
0.27915832
0.08113946
-0.120115094
0.12594189
-0.8771867
-0.0110315485
-0.052029226
0.020169135
-0.5136547
-0.21086493
0.3004776
0.093186535
-0.24981655
0.20258975
0.1899537
-0.07974995
-0.19629687
0.0023141198
-0.010657178
0.6602976
-0.9512557
-0.1074988
-0.041377593
0.0033162509
0.3929816
0.34604248
0.006939466
0.14183013
-0.025936319
0.23102738
0.020101242
-0.043201398
-0.29133007
0.34754217
-0.06761852
-0.0022626715
0.27581355
0.4079244
-1.1379926
-0.0537602
-0.5702538
0.361777
0.25262862
0.313932
-0.11197165
0.14516227
0.16888349
0.01024518
0.23293273
0.23508728
-0.02931506
-0.06412337
0.0170116
0.28788444
-0.1678083
0.291824
0.22996682
0.089599974
0.027304044
0.02184523
0.09293489
0.071864635
0.20985052
-0.000879688
-0.62145776
-0.32985005
0.025332632
-0.013744828
-0.12905416
-0.17998646
-0.20946729
-0.13059188
0.13905604
-0.5015762
0.23876086
-0.07592188
0.1363593
-0.25383204
0.09416677
0.4906984
0.40275618
0.032080844
0.015647888
-0.1406897
-0.2955291
-0.2173559
-0.0016417985
-0.10811051
0.10932434
-0.20157215
0.09589504
-0.07893228
-0.11779989
-0.32140496
-0.2784064
-0.029675735
0.26301426
0.28040457
-0.0030584356
-0.1511476
-0.6329995
-0.28914818
0.009676839
0.18019341
-0.24361882
-0.075744085
0.026122415
-0.012344466
-0.37073985
0.26727447
-0.12024985
0.13505864
0.24613893
0.29279998
0.100769095
0.060832586
0.23558939
-0.032704238
0.20109388
0.041509166
0.15177038
-0.003914718
-0.17460364
0.12282779
-0.23315474
-0.11947429
0.003059961
-0.043690845
-0.34220326
0.07962623
0.3578772
0.29697266
-0.021161104
-0.12278255
0.07971948
-0.066989645
0.0120112775
0.099562064
0.0077761854
-0.08535996
0.05089958
0.055606104
-0.012396388
0.21207786
-0.018073184
0.13836367
-0.13246904
-0.10542755
-0.037732065
0.07635128
0.18297754
0.37775585
0.0043854434
-0.76140684
-0.04205742
-0.053525444
0.07224938
0.2889667
0.43025345
-0.25317147
0.042366847
-0.01418294
-0.039604183
-0.39134163
0.16439813
0.0130226845
-0.1946678
0.0170645
0.17813231
-0.40524194
-0.057252575
-0.057316132
-0.1577446
-0.3290366
-0.16658616
0.28936994
-0.027701227
-0.25034744
-0.037209745
-0.24283335
-0.41977736
0.11106386
-0.39406842
-0.16111983
0.14427775
0.13465604
-0.0488724
0.0031864673
0.0825379
0.12280247
0.026864363
-0.038173202
0.30798635
-0.022023305
0.021197999
0.033629585
0.21162458
-0.27524734
-0.6550276
0.20018817
0.20149578
0.09976461
-0.0303329
-0.081495956
0.5711959
0.08126303
-0.2283667
0.28012845
-0.06878473
-0.10638729
-0.095910914
0.1704838
-0.025584348
0.31887278
-0.005807028
0.003105911
0.13013339
0.033935986
-0.028523553
-0.059318803
-0.21663445
0.24796945
-0.10982819
0.051618375
-0.24257383
0.09193867
0.19239646
-0.05051379
0.028966019
0.022054316
0.41956365
0.21831575
-0.21472031
-0.08669865
-0.048339635
-0.12611228
-0.26383662
0.0832131
0.15774791
0.1302696
0.009664446
0.079250924
-0.18908523
-0.15367067
-0.27319077
0.10252547
-0.025867937
0.017761806
-0.07152466
-0.19927529
0.26188412
-0.0865204
-0.42234364
0.342123
0.0598496
-0.038452588
-0.10732075
-0.113523975
-0.12065764
-0.16949913
0.17213026
0.13835342
-0.026048385
0.10341082
0.27864477
0.09205615
-0.30297288
0.20369764
0.039477866
-0.03313727
0.03497462
0.085909136
0.11520203
-0.15994331
0.18371384
-0.06312588
0.045745756
-0.26520535
-0.15291774
-0.035446618
0.15542448
0.047723096
-0.0043331617
0.15054604
0.28097075
-0.02652874
-0.024982097
0.023855217
0.24531965
-0.6008717
0.034123313
0.11665771
-0.1772083
0.27642217
-0.255738
0.1842794
-0.47168827
-0.07851589
0.38135126
0.2630967
-0.07282839
0.04777281
-0.16027334
-0.44354138
0.12686284
0.023450365
-0.01933313
-0.008917069
-0.047037333
0.20395212
-0.15927896
0.05685773
-0.039805047
-0.1515021
0.101764165
-0.045160174
-0.30256674
0.16062824
-0.7342153
-0.1445392
-0.07308487
0.23489065
-0.06645854
-0.3287521
0.36355916
0.35411453
-0.26005045
0.41538128
0.6366352
-0.3772174
-0.13080962
0.094917975
-0.17473635
0.031511668
0.4197001
-0.005448642
0.10957987
-0.11737755
-0.14916833
0.104250856
-0.16321889
0.17681767
-0.20146179
0.19587214
-0.022052646
0.13931938
0.11094713
-0.009547438
-0.0062162974
0.1169274
0.25486344
-0.09591349
0.19405904
0.11116166
0.2508329
0.00073132134
-0.2468068
0.06926222
0.08702399
-0.15624252
-0.078494154
0.23570001
-0.034125112
0.09375391
0.119411744
0.090904
-0.00047455463
0.01659856
-0.45610318
0.214838
0.019552639
-0.080424845
0.1254805
0.14266536
-0.11717163
-0.049199965
0.21638581
0.15846953
-0.19773003
-0.16307981
-0.30283904
0.19349934
-0.04908537
0.1482392
-0.12062757
0.006741063
-0.39795253
-0.5903679
-0.26778257
-0.08090244
0.26239082
-0.0453477
0.40980694
0.05473953
-0.052098785
0.017947847
-0.038123753
-0.10462686
-0.039755374
0.30332687
0.09520554
0.32172903
0.06737137
0.5398519
-0.06314477
0.256097
-0.066509254
-0.0011291044
0.3761803
0.14469591
-0.52637565
0.17242923
-0.09454293
-0.063957565
-0.063497365
-0.48921344
-0.21496224
0.13751502
0.22501625
-0.1556298
0.16241787
-0.17225601
-0.015306216
0.61863524
-0.26262376
0.46523282
0.03458293
-0.0070401058
-0.23830405
-0.28137383
-0.20220703
-0.38963252
0.22495458
-0.8480347
-0.6948206
-0.029517137
-0.28916597
0.116441794
-0.36825123
-0.25729626
0.0092000775
0.09438592
0.02284256
-0.5326353
0.32118076
-0.2941299
0.40633583
0.20346399
-0.005026012
-0.41786778
-0.15741509
-0.13868612
0.062087726
0.043042745
0.1435539
0.029431643
-0.33886924
-0.08427712
-0.48783922
0.2621257
0.048386276
0.36389172
-0.51212853
0.35607943
-0.1592384
0.08069632
0.09800149
-0.04028393
0.019629654
0.07839902
-0.04920878
-0.14421384
-0.094566144
0.21493055
-0.033454586
0.043747634
0.34308538
0.11352593
0.0881016
0.062013734
0.5541409
-0.0200236
0.14554673
0.0014062333
-0.20168228
-0.052696224
0.028247647
0.018658148
-0.00670888
0.19710933
-0.13784589
0.014010833
0.0006729948
0.1618153
-0.052927338
-0.046736676
0.2659864
-0.018246792
0.009745552
-0.09824225
-0.4562202
0.22814079
-0.06868322
-0.025721904
-0.25648615
-0.014876379
-0.07884157
-0.50540954
-0.21523593
-0.04059706
-0.020301672
-0.09310581
-0.035318352
-0.043753244
-0.14708984
-0.0001525778
-0.10766464
0.22554576
-0.74305135
0.17537075
0.2750845
0.12901331
0.22807223
0.7258562
-0.4280955
-0.31262916
-0.3580011
0.011899817
0.15722063
-0.32682684
0.07444811
-0.1682275
-1.3249692
0.26510492
0.050038252
-0.0050122016
-0.051569417
-0.39374208
0.30570194
0.32128713
-0.7341763
-0.17912593
0.13479969
-0.23501706
-0.21406801
0.39371577
-0.022780977
-0.016259607
0.53873366
-0.58552796
-0.38072973
0.08891723
0.36215988
-0.33547914
-0.38888046
-0.018517816
-0.10142599
-0.12705548
0.47066012
-0.0031429874
-0.3361508
0.15934055
-0.03360825
-0.30519432
-0.39652318
0.19858795
-0.14087956
0.19972585
1.009388
0.050838143
0.22566678
-0.047110505
-1.6666832
0.04975558
0.3234749
-0.020861961
0.19610864
0.12009839
0.32719287
0.008607416
-0.52008086
0.20081793
-0.44737503
-0.24565634
-0.050977137
0.11197231
-0.3772907
-0.004645821
-0.049298532
0.3795033
0.30915648
0.50974655
0.1344217
0.21948375
-0.03297925
0.32421207
0.5080186
0.20588733
-0.08296665
-0.016656876
-0.055405263
0.19411582
0.11668953
0.18177019
-0.65966016
0.21524295
0.0070356145
-0.06305066
-0.3902195
0.0469453
0.21956591
0.15042958
-0.22608525
0.1022474
0.34925827
-0.0014047599
-0.39612195
0.19318536
-0.100312114
0.30584034
0.13045874
-0.02638846
-0.0242897
0.25569654
-0.0177866
0.3769246
-0.13877994
0.3634351
-0.47369635
0.27103704
0.0021940588
-0.08256052
-0.18064027
0.0053869346
0.17971368
-0.032920036
0.054047
-0.1630278
-0.88329685
-0.32217804
-0.057163913
-0.10459369
0.11939303
-0.09218015
0.27103016
-0.062674575
0.112674296
-0.023246594
0.6452117
-0.1960625
0.0055168383
0.09363321
-0.1973015
0.2966255
-0.27296767
0.04742747
-0.025595155
-0.21653219
-0.03545876
-0.23547333
-0.102939606
-0.7112735
0.59881556
0.09258373
-0.30193952
0.028060397
-0.035694584
-0.06690087
-0.18529102
-0.16416758
-0.046639677
-0.65467566
-0.05912759
0.23200953
0.23872112
-0.061218247
-0.19047478
-0.17157951
-0.25494316
0.7929593
0.5402562
0.6651545
-0.012748517
-0.06833272
-0.22424756
-0.16651578
0.50628775
-0.59792745
0.33390963
0.26169452
-0.26226258
-0.26351714
0.16391435
0.13882302
-0.024679381
-0.10321449
0.33976468
0.4775349
0.39833024
-0.033598397
-0.005073868
-0.10891974
-0.0956801
0.24387366
0.013115038
0.1080707
-0.07175848
-0.061221916
-0.57133603
0.018255815
0.14709409
0.018187081
0.06919617
0.18346979
0.0108329905
0.10719678
-0.05291896
-0.14797376
0.21757142
0.045438882
0.3439212
0.019863388
-0.64536494
0.008152869
0.50908273
-0.08762762
-0.005114017
-0.07029497
0.17784122
0.38745028
0.46481365
0.24969931
-0.043638326
-0.06164285
0.0486014
-0.003893978
-0.27019298
-0.0057764845
-0.123146534
-0.12696984
-0.13831069
-0.2796338
-0.01332826
0.14003421
-0.08800888
0.06555425
-0.14603324
-0.0959723
-0.20194215
-0.22818947
-0.0787731
0.61499804
-0.12791929
-0.78883076
0.08733586
-0.052553214
0.1571682
-0.11578534
0.55607414
0.25108173
0.0052736974
0.19102557
0.03316917
0.056075614
0.22446288
0.19627477
-0.12211968
0.0061754035
0.42383265
-1.5644959
-0.021834994
0.20102257
0.16982485
0.06306675
-0.72652155
-0.3158454
-0.3953931
-0.21709436
-0.37713465
-0.16144101
-0.08266152
-0.3395626
-0.22532956
0.12820786
0.023909373
0.061347574
0.016784413
-0.037459277
0.50100857
-0.10160548
-0.326973
-0.16053787
0.07856582
0.1958005
0.46640757
-0.052214116
-0.0070148236
0.15759324
0.2548878
-0.9365816
-0.15398797
0.258521
-0.05370879
0.23095655
0.06357191
0.050337784
0.04171727
-0.07091401
0.18546484
0.1264125
-0.15085423
0.04174799
-0.13799234
0.2270053
-0.03135386
0.030346118
0.24123141
0.0014003537
-0.09004547
-0.13097526
0.064242594
0.01224042
0.25117633
0.17175071
-0.24495071
0.4023893
0.16225734
-0.024435893
-0.024208153
-0.39035892
0.12013299
0.1874294
0.13610406
0.021038039
-0.24740992
-0.037169907
-0.07230898
-0.00064500346
0.0111503685
0.105774835
0.040641703
-0.46690387
0.37311104
-0.083060525
0.30802742
0.09448501
-0.047869474
-0.030716557
-0.120430596
0.049280185
0.24753307
0.13393573
0.013649341
-0.04470204
0.1349366
-0.06046819
-0.102032654
0.3100931
-0.076865435
-0.16542366
0.2893551
-0.22260042
-0.047382306
0.089062296
-0.008602723
0.038672205
-0.007799399
0.0766337
-0.20017141
-0.16933909
0.15007445
-0.020938521
0.04929937
-0.06216274
0.032921143
0.0146135995
-0.08501262
-0.340729
-0.28216612
-0.5048657
0.03399894
0.08977243
0.14301524
-0.097202316
0.008824184
-0.042128235
0.23139192
-0.017843587
0.18221918
-0.14625144
-0.5546001
0.21502621
-0.3469925
-0.20016985
0.06517135
-0.04842858
-0.08035786
-0.5576845
-0.3711235
-0.103238635
0.24427272
-0.567154
-0.17546616
0.14516138
0.36722246
0.2551207
0.022858372
-0.074007206
-0.47337663
0.2306344
0.052472085
-0.14576757
0.26251212
0.040131204
0.09833243
0.028276118
0.14425524
0.17997707
0.23823258
-0.22904988
0.18945189
0.16911073
-0.03395647
0.22982971
0.21664354
0.35047433
-0.25693128
0.26060128
0.12347127
-0.042791564
-0.34377137
0.2773358
-0.14413227
-0.10436688
0.40128532
0.031313565
0.3503708
0.17745735
0.038014725
-0.034032773
-0.09299187
-0.18154092
-0.12923168
0.087673016
-0.26063544
0.10065056
0.13213424
-0.057719402
-0.34921104
-0.23415267
-0.13963273
0.3045769
0.3844536
0.06067403
0.071933724
0.12400713
-0.21861432
-0.15227063
-0.12746966
-0.17719054
0.06272055
-0.5216733
-0.11652077
-0.17683513
0.1988505
-0.13148881
-0.06252261
-0.05268076
0.03473162
0.1033781
0.063617684
-0.3127436
-0.034324598
0.2032249
-0.30868623
0.0012322603
0.026670257
0.1855772
0.10453699
0.004852814
0.42604044
-0.03175641
-0.03626379
0.19479696
-0.21972123
0.16375479
0.016895374
-0.07353514
0.17661746
0.016606439
0.0826899
-0.23785819
0.41564432
0.47984833
0.006610981
-0.06360904
-0.11812576
0.022787292
-0.49910486
0.22359988
0.033307273
0.16707373
-0.08092727
-0.19538404
-0.058464766
0.14807768
-0.26401535
-0.06259788
0.34996644
0.086310096
0.07285692
0.32228434
-0.3130388
-0.058345877
-0.51399213
-0.22017914
0.084288724
0.018277444
-0.20338728
-0.14680043
0.23411219
0.09304736
0.009968769
0.23257613
0.15381634
0.08204849
-0.011464059
-0.0418053
-0.2370211
0.012388198
-0.11443873
-0.32602167
0.036303774
0.24350694
0.005652897
-0.025946194
0.4246035
0.061440594
0.44937775
-0.549825
-0.03796882
0.2036653
0.02664199
-0.1417962
0.40187994
-0.10298276
-0.47245443
0.13751477
0.094563164
-0.29002532
-0.12955914
0.54146135
-0.30065316
-0.10152733
-0.08714562
-0.09108211
-0.33016738
0.19156286
0.23664412
0.040998448
0.22513781
-0.46808848
-0.54160875
0.017658032
0.16424298
0.18165019
0.31728807
0.046871305
0.065612905
0.044160344
-0.19385834
0.19272147
-0.16850202
0.14826755
0.05506003
0.20431633
-0.11003641
0.35442427
-0.039713923
-0.13516243
0.029356569
0.22777623
0.08721429
-0.57369626
-0.7427871
0.13641888
-0.03879888
-0.03896277
-0.046481885
-0.16724189
0.091562405
0.10465351
-0.02705465
0.31898993
0.25577855
-0.060467158
0.3411288
0.2302802
-0.068259895
0.04015781
0.11651356
-0.035224777
0.017567417
-0.078382075
-0.40725356
-0.15367842
-0.062460173
0.12423313
-0.34161314
0.13272361
-0.3026363
-0.19788244
-0.0047785942
0.18506616
-0.14626195
0.018408922
-0.18993531
0.16597098
-0.40283307
0.19222537
0.13818252
0.047273394
0.19912486
0.45507485
-1.114379
-0.074618764
-0.38421065
0.040860094
0.37852803
-0.3678744
-0.01377272
-0.06385482
-0.10752222
0.69888794
0.1216086
-0.13407974
0.017279308
0.15998228
0.7803858
-0.16388124
0.34003702
-0.19030698
0.01770112
-0.16984767
0.2976923
-0.24902324
0.022481777
-0.04749218
0.093475945
0.16981494
0.038922925
0.0011399341
-0.01409037
-0.056960773
-0.4219144
0.02488779
0.017179137
-0.024738183
0.2428177
-0.34013593
0.4402718
0.5303457
0.04347533
-0.06786823
-0.5279674
0.071668915
0.104135215
0.03687014
0.5080137
-0.43690965
0.25840887
-0.13242975
0.7087855
0.15053478
-0.23550387
-0.08776794
-0.17465322
-0.3872017
-0.19445139
0.5912408
-0.28453097
-0.668165
-0.13016921
-0.0039896904
-0.030834114
0.16997814
-0.71630853
-0.04038575
-0.14018153
0.31243998
0.05339029
0.3011746
-0.11233577
-0.02864219
-0.097602636
-0.0990467
0.12560996
0.20359038
-0.011079538
0.051900655
-0.38974735
0.21110134
0.23124002
-0.5554628
-0.20608695
-0.10975346
0.016551197
0.009541965
-0.006574204
0.16442542
0.40899372
0.34496057
0.062719055
-0.14689027
0.42671353
-0.029043712
-0.13255472
0.2789926
0.2687411
0.43135
0.5502728
-0.09402283
0.035759725
0.11267221
-0.10022655
0.14506659
0.066276945
0.24811457
0.00831465
0.45135176
0.13954188
0.14707087
-0.19425857
0.30452693
-0.08330482
-0.0049009724
0.29512492
-0.016534988
-0.07879259
-0.14807728
0.52009237
-0.25151125
0.30208626
0.34425932
-0.107291885
-0.013552505
0.37293708
-0.07770313
0.57522017
0.13109569
0.1547644
-0.00727795
-0.08708415
0.07683918
0.14097075
0.64454055
-0.5577952
-0.06403722
-0.03441894
0.17358923
0.050956015
-0.26881805
0.22328953
-0.03382433
-0.11081108
0.16364743
-0.015261143
-0.028724486
-0.067281716
0.32434353
-0.16530362
-0.26240844
0.2162165
-0.011318362
-0.20966533
-0.048196632
0.3416512
-0.2220903
0.010112977
-0.026738659
0.21301861
0.67207986
0.042474974
-0.14863835
-0.02007058
-0.017475795
1.0201937
-0.08517834
0.12268531
-0.14855295
0.011652562
0.014756249
0.2267798
0.595487
0.04455094
-0.09508506
-0.23254609
0.2414223
0.2668594
0.16895324
-0.21286133
-0.050478432
0.11034641
-0.09226819
0.23642278
0.446392
0.14029126
-0.037210546
-0.15197287
0.16608351
-0.24174215
0.2667503
0.12878062
-0.15928033
0.072994575
-0.7016249
0.04650049
-0.12910369
0.15995233
0.16383554
0.3371923
0.29789484
-1.2576956
0.11345959
-0.21735837
0.17632304
-0.0760029
0.036846127
0.38639286
0.13228711
-0.18334402
-0.19986749
-0.26561803
-0.2516791
-0.016214669
-0.047845665
-0.5219937
0.11711486
-0.018191166
0.31341034
-0.64158076
-0.72051746
-0.05750573
0.059366036
-0.8523645
0.3177042
-0.908074
0.26738155
-0.17289308
-0.13057196
0.1213032
-0.09535572
-0.5682168
-0.39360583
0.068558246
-0.023750478
-0.19067296
0.07307741
0.09983225
0.07771122
0.22578977
0.21337102
0.4715012
0.020081013
0.09507852
0.22989036
0.21393724
-0.038980164
0.229696
-0.63086677
0.15055823
-0.36199817
0.011580053
-0.9355545
0.54741985
0.07043233
0.29792428
-0.10033432
-0.14226662
-0.1034688
0.09802481
0.2749146
0.19086191
-0.32528132
0.35233536
-0.19707976
-0.021865332
-0.08101852
-0.22271465
-0.5680003
0.04263657
0.2702893
0.17413357
-0.2207227
0.13522482
-0.059212293
0.442379
0.12756428
0.17263922
0.18502258
0.3111484
-0.020276548
-0.064389594
-0.54097944
-0.45737454
0.16126528
-0.44961876
-0.30258226
-0.18796217
0.01267558
-0.84863436
-0.7712445
0.026487103
-0.11689352
0.24644664
0.018918926
0.6126367
0.27051425
-0.5977948
0.062551506
-0.25739664
0.12770978
0.25654814
-0.34315562
0.17840129
-0.123441115
-0.17784648
-0.029722644
0.15170825
0.004250848
-0.043681018
0.29308105
0.15866415
-0.24627414
0.1266322
0.14459927
-0.31330907
0.3925512
-0.3618348
0.19097148
-0.20369148
-0.40601018
-0.092604406
0.25692692
0.06295399
-0.06530579
0.012251747
0.025816694
-0.19065358
-0.13197975
-0.13700029
0.51572114
0.36170316
0.27789325
0.11563665
0.00516697
-0.21552075
0.028025055
0.09714407
-0.35401538
0.26381856
-0.15959442
-0.02550869
-0.06972075
-0.14608528
0.15909165
-0.6825889
-0.35039642
-0.021658977
0.18841793
-0.37353095
-0.16830947
0.38375044
-0.25615522
-0.36319864
0.006993382
0.040303074
0.035490263
-0.18950142
-0.33965176
-0.24171428
0.11087291
0.29322112
-0.21252044
0.32202724
0.5151922
-0.059405338
-0.027128298
-0.038809925
0.3229549
-0.34573716
-0.31613168
-0.42462623
0.26673433
0.15779528
-0.19161575
0.35958278
-0.31623378
0.5824431
-0.27866063
-0.027003037
-0.2304441
-0.08812425
0.34344795
0.33843347
0.8580388
-0.02017645
-0.008351924
0.5234224
-0.5000255
-0.23531003
-0.04919249
0.3007245
-0.431022
0.19882376
-0.045447793
0.05622781
0.027011212
0.32782906
0.12861943
-0.14850579
-0.041259997
-0.06966915
-0.068672165
0.08385951
-0.21814086
-0.9571836
-0.055650704
0.019169314
0.16719842
-0.1905999
0.23336978
-0.39065608
-0.35001326
-0.03295721
-0.07682168
0.3759735
0.38054794
-0.14570357
-0.18283658
0.08817711
-0.074814685
0.3105231
-0.17861111
-0.08571364
0.0056926766
0.10470647
-0.058141556
-0.3983466
0.08111097
-0.02158793
-0.003472284
0.35305238
-0.39148125
0.29807505
0.12906969
0.17905629
0.2008226
-0.160751
0.35059527
0.10075364
-0.5061977
0.23673846
-0.48453054
0.163884
-0.19938785
-0.03803837
-0.021511557
0.11222771
-0.07326513
-0.11675852
0.33120772
-0.09681384
0.056011677
-0.15860747
-0.05641873
-0.055436987
-0.055859253
-0.038440652
-0.182773
-0.023048155
0.23136717
-0.042783234
0.3367327
-0.06392737
0.20894371
-0.0032137688
0.32334077
0.485072
-0.5326202
0.6763759
0.04118903
0.35878786
-0.07978389
0.5543212
-0.067997634
0.20558842
-0.11640521
-0.12326401
-0.2976835
-0.11971892
-0.38553244
-0.022055708
0.07966403
0.21328823
-0.14163741
-0.4870232
0.030435544
0.18846187
0.042326186
0.123106524
-0.4732807
-1.2796438
-0.23737073
-0.12502714
-0.21555193
0.29219696
-0.60068905
0.4556684
-0.03741025
-0.4755626
-0.043699376
-0.013704533
0.33203056
0.2322207
-0.048426684
0.031032862
-0.024494678
0.14640741
-0.20466481
-0.059047174
0.24466485
0.3898682
-0.7471266
0.09101059
0.01096609
0.117432885
0.1159289
0.51032394
-0.23335154
0.024817865
0.44363764
-0.029202985
0.12392961
0.13345316
0.47913185
-0.06832176
0.29408282
0.25070807
-0.3216989
0.41572353
0.6474206
-0.120926246
-0.3370298
0.050725136
-0.07739101
0.033525627
0.018138032
-0.017767813
0.04345346
-0.23876992
-0.32838657
-0.27601522
0.18175685
-0.049178246
0.10903757
0.3484345
0.0378629
0.0171782
0.06131597
0.16258092
0.06539564
-0.30245578
0.093075655
-0.15399103
0.4940777
0.2645412
0.24863188
-0.32560512
0.30019996
0.14400439
-0.545647
0.22237495
-0.55964774
-0.2880427
-0.07014018
-0.07639794
-0.042996462
0.118400194
0.18394843
-0.16709624
0.4014401
-0.27288184
0.014484801
0.10603218
0.008553045
0.33797055
-0.03654754
0.08345774
0.10299934
0.14632428
-0.071674906
-0.06080492
-0.009332459
-0.23755781
0.1096732
-0.1366198
0.5799478
-0.29693136
-0.111130305
-0.2060888
-0.36987263
-0.02416156
0.2269836
-0.08396785
-0.06674886
0.28753668
-0.19428575
0.009602531
-0.15424295
-0.049317125
-0.12894249
0.3088485
0.5350878
-0.7718573
0.33083633
-0.11664594
-0.011914838
0.045913946
-0.1197506
0.2299862
-0.22292355
-0.11981631
-0.82688445
-0.3911046
0.35555145
-0.47897103
0.54810697
0.2748218
-0.025990924
0.19045842
0.03140852
0.10474436
0.2023907
0.14047034
0.15889977
-0.09302796
0.010369312
0.17519398
0.54982984
0.26937038
-0.084957145
0.26344845
0.10996162
-0.5077463
-0.07619311
-0.3085217
0.16006927
0.1533421
-0.36016148
0.21580692
-0.9580121
-0.0456218
-0.046415556
-0.52630717
0.52611864
0.40505606
0.41055295
-0.34170547
-0.040733647
-0.26769432
0.3914424
0.24115188
0.029370919
-0.13611245
0.006134931
-0.032760803
-0.6905506
0.41361383
0.077149004
0.11592715
-0.89692247
-0.62494004
0.12843974
-0.31334096
-0.080437444
-0.2746919
-0.022431431
-0.056369055
0.2588261
0.1204921
-0.2766761
-1.2747244
-0.35110474
0.23418477
-0.14484958
0.091021545
0.24561575
0.47978377
0.06826679
0.17651658
-0.31135055
0.3439023
0.39825442
0.00704192
0.017762465
0.015035253
0.0103028165
-0.12344759
0.28636682
0.38268402
0.5015959
-0.11857761
-0.324021
0.28758553
-0.03617846
-0.3236314
0.14644928
0.024989495
0.45138553
0.07823167
-0.27578846
0.024871992
0.28262523
-0.49087724
0.1930918
-0.30412778
0.21395093
-0.16214998
0.5189053
0.2526605
-0.30528262
-0.3564295
0.20938778
-0.7856757
-0.0060452814
-0.092762366
-0.14279516
-0.36971542
0.051782697
0.19926974
-0.10959257
0.15850861
-0.10032236
-0.07730856
0.0510204
0.09993117
-0.042453207
0.38967997
-0.105421275
0.15637945
0.0947752
0.57401705
-0.490906
-0.33092436
0.30622157
0.37413743
-0.3065361
0.03945704
0.27812412
0.058884554
-0.16926588
0.23214534
0.2600681
0.49298277
0.29609424
-0.0847204
-0.052425846
0.18692611
0.16723546
0.3607203
-0.059357658
0.46286452
0.032184638
-0.133246
0.007364635
0.36164245
-0.17527905
0.048141547
0.039256167
-0.22595207
-0.16369618
-0.020033399
0.057728007
0.208266
-0.7025672
0.7851601
0.3483394
0.14132327
0.22482167
0.31363598
0.4276123
-0.046094168
-0.41486466
0.00072204
-0.039888043
-0.36262918
0.24056354
-0.18798223
-0.52761817
-0.34235832
-0.15739156
-0.21431586
-0.11850987
0.5278988
0.14266741
0.22388163
0.042672195
-0.25193927
0.29393518
-0.49723178
-0.4830254
0.28416178
0.4810451
0.3436236
-1.7348388
0.6503915
0.032903478
-0.1000073
-0.17029488
0.28944588
-0.314255
-2.1705093
0.22715446
-0.08680632
0.29616836
-0.077319875
-0.051381115
0.46007115
0.2934667
-0.5460731
-0.09358732
-0.2879657
0.3024836
-0.9539777
-0.07200946
0.06508286
0.1553702
0.3881509
0.41845465
-0.08663393
-0.5922653
-0.036808368
0.058204595
0.6638436
-0.099973835
-1.2283118
-0.13375306
-0.22275057
0.62337035
0.10444112
0.62497264
-1.136672
-0.10414114
-0.098541975
-0.008725957
-0.10690277
0.089275815
0.15330009
0.6446721
0.41285375
0.058028977
-0.046638988
-0.18100083
0.6144039
-0.26576725
0.16189584
0.013063533
0.3261535
-0.40446123
-0.3556071
-0.77833104
0.040054876
-0.45122445
-0.017186476
-0.09715466
0.053595815
-0.33422363
-0.5148021
-0.3335686
-0.39241004
0.2313294
0.22172931
0.43602735
-0.086769804
0.23311117
-0.07322743
0.017062593
-0.48170182
0.12950025
0.4325498
-0.23740081
0.33586633
-0.1578608
-0.45913276
-0.017732006
-0.23894739
0.09177137
-0.14684826
0.26337788
-0.07172774
-0.3302848
-0.023563573
0.12103555
-0.3494394
-0.6214123
0.61890227
0.09263404
0.23286127
-0.45524102
-0.09177354
-0.10396696
-0.08557121
-0.006768301
0.2895159
-0.06528607
0.24267487
0.34271437
-0.15853879
0.014942589
-0.5481612
0.15923807
0.07997175
-0.04531139
-0.04839483
0.17444465
0.1640689
-0.049724806
-0.05111828
0.29632893
0.42964038
-0.17389175
0.17266792
-0.18275632
-0.07700637
-0.3187145
0.5046725
0.47169578
0.109730944
0.26879385
-0.4034589
0.3624153
-0.5633272
0.1562152
-0.13437808
-0.27542296
-0.084284514
0.03514923
0.18778661
0.087476514
0.42618996
0.036356956
-0.20136331
0.5139295
-0.014047281
-0.051737316
-0.18487902
-0.09836691
0.27815706
0.085902125
0.042422473
-0.55266756
0.032835297
-0.3836023
0.09533887
-0.1454779
-0.39566115
0.20927876
0.26966605
0.21657874
-0.1801721
-0.76892656
0.0023417755
-0.026759952
-0.6593915
-0.09755231
-0.3647897
0.065615736
-0.01093136
-0.80409336
0.40078962
0.1328809
-0.06445007
-0.07495749
0.58586806
-0.326719
-0.7345178
-0.02621756
-0.5246612
-0.26753214
-0.3527554
-1.365734
-0.2568067
0.43010858
-0.061387904
-0.048112296
0.31901646
-0.80615276
-0.3669579
-0.082766026
-0.18242438
0.3495842
0.023272874
0.40800363
0.3639067
0.26500157
-0.04368227
0.02058992
-0.06439073
-0.17389774
0.07264829
-0.142876
0.50477445
-0.17218441
-0.19752751
-0.08018691
0.4352354
0.64414597
-0.4034585
0.31357116
-0.39816943
0.348783
0.009009956
0.0028020097
-0.56163234
-0.41052732
0.24483006
-0.32337892
-0.3255924
-0.0047953865
-0.5199332
0.044259556
-1.1262267
-0.2456604
0.47554177
0.02329635
-0.4131826
0.1761623
0.586597
0.12657559
-0.06892173
-0.19574112
0.25976798
0.023276536
-0.2513111
0.07675788
0.1767457
-0.03686937
-0.2262342
0.07139706
0.59069043
-0.312666
-0.59664756
0.21819614
-0.09707251
0.0559464
0.3871356
-0.017018484
-0.6302668
0.08183239
-0.16793971
0.58950573
0.34756717
-0.78836846
0.032606043
-0.7022825
0.029527301
-0.039161343
0.33940285
-0.04864867
-0.028268982
-0.08642097
0.24391636
-0.21421935
0.016289439
-0.0040734336
-0.50366956
-0.27645653
-0.028606845
0.19058977
-0.37633693
0.4278722
0.024133196
-0.15058498
-0.25193736
-0.17248672
0.215802
-0.12922592
0.25837368
-0.20490225
-0.014443675
-0.22720724
0.35389942
0.15886799
0.30804765
-0.11759145
-0.19526488
-0.17276572
-0.026738483
-0.010675993
0.5760826
-0.024213027
-0.31087685
0.44830748
0.79910904
-0.19883487
-0.5983333
-0.028483845
0.216909
0.4444149
-0.09450651
-0.425183
-0.6218435
0.13835533
0.2806841
-0.9061778
0.39620334
-0.98225105
0.15900224
0.18074842
-0.7604791
0.019829553
-0.13484202
0.059862465
-0.19043772
-0.29152265
0.012372222
-0.048324328
0.08146012
0.023510588
-0.033817273
-0.32402664
-0.069673724
-0.14588554
0.12037858
-0.040032294
-0.2658869
0.11657919
0.08972991
0.34312788
-0.021482952
0.03205387
0.025338
-0.2887959
-0.35128245
0.18219425
0.70623076
-0.05962655
-0.41221094
-0.51985496
0.087557435
0.0021329774
-1.1945056
-0.074692585
0.3438689
-0.014543091
0.33296505
-0.5117048
0.47204566
0.4074311
-0.09169415
0.10901343
-0.8358432
0.21055439
-0.021833401
0.056820754
-0.2304987
-0.027298318
-0.33751166
0.33130315
0.022705706
0.0012229995
-1.9399481
0.32021144
0.12261081
0.21835999
0.07196423
-0.20719436
-0.11501314
0.28848782
-0.5801823
0.075108685
0.17487368
0.32893324
0.03414243
-0.06092476
-0.08439056
-0.030151283
-0.042939898
0.025740158
0.042221352
-0.06502301
-0.06159594
-0.574074
0.18010448
-0.07331838
0.25944394
-0.31419504
-0.117969334
0.4552759
-0.4242478
0.043382153
-0.037043523
0.28050116
0.079946525
0.06399179
-0.71915543
0.038854603
-0.27058318
-0.20041029
0.031324763
0.07046746
0.5737137
0.43143785
-0.42769837
0.02397562
-0.033076134
-0.41602325
0.30892685
0.104441494
0.37551397
-0.041656397
-0.08860108
0.33003184
-0.55115587
-0.2543103
-0.63508075
-0.05086378
0.41685757
0.0693449
-0.08466291
-1.316137
-1.0044111
-0.27692145
0.17745708
-0.43871403
-0.3511272
-0.868134
0.59479326
0.16438729
-0.43233365
0.19708836
0.32277226
0.56405777
0.08881538
0.06755438
-0.008868678
-0.06823861
0.2175812
0.19120593
0.16503568
-0.28705442
0.12950477
-0.1907106
0.15843947
-0.012571377
-0.5491975
0.3087994
-0.650982
0.03720331
-0.17594486
0.2813787
0.016583582
0.36431623
-0.37152722
0.068784975
-0.38611257
0.55183184
-1.1192625
-0.18230139
0.58565634
-0.3172259
-0.6522312
-0.59111
0.0610958
-0.0019049232
0.22403423
-0.88346773
0.19594763
-0.1598723
0.36536506
-0.16158019
-0.67996424
0.33214596
0.10956751
-0.4719471
-0.37375474
-0.07399172
-0.23071824
0.09267104
-0.051479794
-1.1459842
-2.6056893
0.07031027
-0.09439182
-0.20665997
0.5961698
-0.58388907
0.26948506
0.114448525
-0.27740923
-0.054941814
0.29928294
0.109373465
0.3159191
-0.43864226
-0.05299603
-0.041931055
0.62092793
-0.07980637
-0.093541585
-0.31243014
-0.40501818
0.32207432
-0.051682245
0.02352195
-1.1307979
-0.13683574
-0.14448187
0.12684602
-0.19308075
-0.11979967
-0.04930042
0.16454048
-0.3834678
-0.32658696
-1.6949276
-0.27986807
-0.14866735
0.48427862
0.045767087
-0.3301788
-0.49204576
0.267487
0.17453389
-0.0067184046
-0.10047923
0.16022637
-0.0044821594
0.25884685
0.16917236
1.0531371
0.015947517
