-0.085116185
-0.43016446
0.73432666
-0.45727515
-0.14920163
-0.08784276
0.15598486
-0.33524483
0.56329834
-0.923181
-0.6180371
0.23785976
0.1232655
-0.28775084
-0.6626935
-0.22204839
-0.064615436
0.39981243
0.5168428
-0.3625587
-0.43882143
0.6934121
0.342919
0.17813632
-0.23241013
-0.17215823
0.23202257
-0.35562018
-0.23683262
0.38659176
-0.5824403
-0.3989086
-0.27225423
0.20335968
-0.22263801
-0.088062644
-0.507553
0.39613733
-0.106778346
0.7782447
-0.041550435
-0.26997077
-0.24827746
0.15003967
-0.29014334
0.2692988
-0.13563007
0.013877895
0.053538118
0.28193954
0.5395721
0.205688
-0.04936261
0.41127765
-0.26113236
-1.0000911
0.028299397
0.23183022
-0.33519965
0.2698998
-0.20389862
-0.3017632
-0.8468644
0.06539075
0.34759855
0.34483993
0.14770073
-0.020191628
-0.4868047
0.06598538
-3.1475344
-0.11004226
0.012612391
0.013011251
0.23790208
0.08386857
-0.6034279
-0.04256139
0.16974342
-0.0791617
-1.0932802
-0.50265676
0.623621
0.21601056
-0.40967515
-0.44992223
0.06472844
-0.7287846
0.5255336
0.11325649
0.54490703
0.62214655
0.7486537
0.37231332
-0.770514
-1.4380008
-0.2636199
-0.03425621
-0.6180532
-0.2739449
-1.2534722
0.3588003
-0.23889035
-0.52185494
-0.15449634
0.06790037
0.6463452
-0.7081691
0.3046189
0.13153906
0.11144095
-0.804493
-0.17181239
0.088340096
0.09179558
0.2944982
0.46715364
0.28387898
-0.2788716
0.056199368
-1.7747889
-0.44193846
0.3249157
0.5439186
-0.18777423
-0.55886626
-0.3405226
-0.30682668
-0.12609057
0.47846434
-2.3845859
-0.4026163
0.6513201
0.59476304
0.20119756
-0.2577433
-0.38372615
-0.89210767
-0.28166327
-0.18487418
-3.2978282
0.26134375
0.1750348
0.1030713
0.026382886
0.01375102
-0.29888305
-0.33076155
0.32016286
-0.99248904
0.45070332
0.094484456
0.5708208
0.5738621
-0.4405419
-0.18966122
-0.112790644
-0.9008926
-0.20503083
0.73094547
1.4647374
-0.44812676
-0.20895472
0.18423484
0.29427803
0.24856515
-0.33526552
0.10985516
-0.72987074
-0.1576062
-1.8218735
0.361408
-0.12053658
0.010770535
0.32952112
0.32397956
-0.11554645
-0.1051322
-0.18449415
-0.86111015
0.07968247
0.06898578
-0.17251047
-0.28825936
-0.54497355
-0.4171605
0.3503588
0.1069145
0.42037684
0.85533696
-0.17765692
0.5708364
0.13582064
-0.022850163
-0.054540798
0.21211365
-1.2775273
0.52520394
-0.07621365
0.6385145
0.6404252
0.27366158
0.11434647
-0.21347047
-0.63148093
0.13069932
0.31781867
0.38174862
-0.15477574
0.5639445
0.1915935
0.7108867
-0.5353235
-0.4348343
-0.18454051
-2.119042
0.5687945
-0.36631298
0.31620473
-0.9618794
0.6730169
-0.0007199251
-0.08228565
-0.5182172
0.17752358
-0.491731
0.01974823
-0.032373436
0.09407212
0.104140125
0.20441659
-0.29085502
-0.019331727
-0.05880716
0.15980901
0.08052356
-0.23299679
-0.15277092
-0.17458321
-0.094057575
0.2475567
-0.2869832
-0.07900822
0.03284368
-0.19277689
-0.20543393
-0.057719767
-0.25664008
-0.1457656
0.05502473
0.245539
-0.6914321
-0.20511456
-0.1211569
0.16036712
-0.29488426
0.6793948
-1.1193736
0.4301042
0.5232065
-0.06790534
0.13699067
-0.40802467
-0.151006
0.16559604
0.030285027
-0.513578
0.16708912
-0.13114235
-0.15901305
0.0014139209
-1.0538846
-0.32761335
-0.012598885
0.22696772
-0.0060425038
0.6610444
-0.0050599035
0.05911543
0.39292535
-1.7106658
-0.9871009
0.27709666
0.27191362
0.14527558
0.07816026
0.60033214
-0.03180677
0.22180347
-0.30889127
0.9005408
0.06273087
-0.23440053
-0.2977172
-0.65730935
0.06318255
-0.07213482
0.0049388143
-0.07954877
0.0010568883
-0.58180267
-0.5502196
0.085192166
0.0032802823
-0.21914499
0.41933233
0.18466319
-0.13694073
-0.76200664
-0.07927803
-0.46875787
0.77566034
-0.64363354
-0.041234918
0.30592617
0.2601915
0.1495635
-0.17732221
-0.6439236
-0.6532022
0.04566597
0.20322745
-0.21582125
0.0032725742
-0.03220119
0.25193685
-0.12983038
-0.083390616
0.15490833
0.06763119
0.39186665
-0.20864494
0.37440544
0.009835686
0.16327952
-0.9672687
0.5761431
-0.43622363
-0.010187503
-0.041756704
-1.1993071
0.15204996
-0.566629
-0.033019066
0.45886832
0.3475121
0.26984945
0.2645278
0.053604364
0.73744595
0.58079
-0.8132146
-0.4823574
-0.5296113
0.07369956
0.3505878
-0.21929134
0.069703646
0.20652658
0.2197986
-0.17642714
-0.84520334
0.010418418
-0.056804854
0.24182196
0.3793806
-0.021363365
0.44567898
-0.6203817
-0.83314025
0.18963407
0.28824058
-0.48118082
-0.58055985
-0.22327645
-0.11613595
0.34528616
-0.37250274
0.38124618
0.39924687
0.49405438
-0.21579629
-0.094304346
0.025280396
-0.6869436
-0.5582623
0.37579945
0.6640595
0.39096904
0.47544643
0.14883606
0.01639181
0.26112515
0.29039568
0.19406141
-0.052831672
-0.2887706
-0.11982211
-0.21778503
-0.024155451
-0.8951241
0.3462841
-0.21607003
0.028118059
0.12580529
0.07308423
0.4087782
0.32333243
-0.49023822
0.11268199
-1.0638344
-0.16494593
0.073428676
-0.057723664
0.46209088
0.8242144
0.53574806
-1.3075442
0.0015514714
-0.09495071
0.896892
-0.37746948
-0.1464068
0.08178983
0.43192467
0.28197402
-0.0089521315
0.16861618
0.13036753
-0.83426046
-2.3212419
0.28455544
0.623417
0.7751539
0.22920893
-1.6317623
-0.5903177
-0.814546
0.4951792
-0.29519543
0.04836039
0.9887165
0.01059153
-0.49841222
-0.6727219
-0.55209327
0.4759387
0.06614557
0.54738474
-0.5644709
0.5395976
0.15222901
0.27051157
-0.22337936
0.16724244
-1.8464607
0.15253861
-0.5287383
0.15734057
0.009598104
-2.387234
0.11030834
0.39233017
-0.28798342
0.02654305
0.012540416
0.30047882
0.05784472
-0.2865547
-0.65981936
-1.4365873
-0.4457794
-0.17055456
0.29674175
-0.07257103
-0.24270219
-0.21582058
0.47068933
0.45069227
-0.57202667
0.16142787
0.38667122
0.42628938
-0.3907492
-0.054484285
-0.15520428
-1.0329485
0.47665715
0.040052347
0.23898013
-1.1767229
1.0043758
0.935257
0.287498
0.03245148
-1.0420779
-0.004342555
-0.6404734
-0.4432419
-0.23288527
-0.10044229
0.21580234
-0.42822155
0.01228702
0.13891982
0.12289924
-0.38066068
0.34701383
-0.51019865
0.74166316
0.3780064
0.14901379
0.22651005
-0.5486601
0.11551401
1.1010002
-0.08952574
-0.7349865
-0.05428559
-0.2449604
0.13641836
-0.20239563
0.1633209
-0.046120424
-0.058735743
0.16532573
0.20757514
0.2723069
-0.18542115
0.2033748
-0.19795045
-0.67950535
0.06732094
0.08067696
-0.01005358
0.27895236
-0.28548336
0.1819106
0.052879933
0.04765107
-0.10581307
-0.06801739
0.08831293
0.5860503
0.17468028
-0.23741591
-0.48390177
-0.80566883
0.6455276
-1.129628
-4.0003324
0.3419381
-1.1553572
0.101226404
0.17497574
-0.52101815
-0.51606286
-0.014972304
0.47672623
0.35536233
0.19823925
0.6354509
0.28048927
0.24063152
-0.37371555
-0.45278844
0.26519343
-0.54063416
-0.3681305
0.089729585
-1.7432439
-1.6980317
0.50613284
0.41514927
0.05787766
0.3815235
-0.51960427
0.42954755
0.1873219
-1.2697695
-1.0024546
0.22277099
-0.36187348
-0.355319
0.0591797
0.18550873
-0.071457595
-0.17929232
0.40379068
-0.55849385
-0.57026666
-0.07657972
0.26983985
0.16506451
0.18213451
0.22619614
-1.0512726
0.28487757
0.06080272
-0.44877443
