0.13073038
-0.3698934
0.3190524
-0.2143465
-0.13296193
-0.12201579
-0.18788533
-0.36484328
0.21361777
0.473527
0.023216965
0.048645895
-0.13904138
0.1218379
-0.09237954
-0.20973271
0.37380588
0.45272896
-0.08422687
0.26233765
-0.15304425
0.075262085
1.3529202
0.14781703
-0.23886499
-0.07597973
-0.877389
0.0034857527
0.27258977
-0.100631125
-0.123223126
0.7378473
-0.2649846
0.0045108767
-0.007882899
-0.24493067
0.046219576
-0.110600196
0.07244905
-0.41799158
0.037958253
0.00084905454
-0.44427803
0.7523524
-0.21178266
0.103289045
-0.15936984
-0.05340718
-0.19708735
-0.044581585
-0.04701183
-0.032238897
0.21889502
-0.5320814
0.17469159
-0.45355096
-0.48828152
-0.3125463
0.037813824
0.4005997
-0.33959663
0.46867788
-0.4080793
0.40503612
-0.8481466
0.14160727
0.32326326
0.0075937053
0.35191977
-0.37082526
0.31671095
0.051025197
0.09388592
0.09240553
-0.013014674
-0.15592556
0.35526958
-0.31830627
-0.05387358
0.44739246
0.06580118
-1.7464781
-0.0346115
-0.107087
-0.09702118
0.24552885
-0.7766869
-0.344223
0.11543758
-0.13996732
-0.21034743
0.15225157
-0.14777693
0.04980705
-0.015606273
0.17807913
-0.5927342
-0.11812098
-0.28773373
-0.18290997
0.1564396
-0.11044214
-0.41817105
-0.06656455
0.10534761
-0.024630355
-0.022699883
0.09452346
0.017660309
0.032022543
-0.06706932
0.1987883
-0.01621476
-0.14184299
-0.29822072
0.31840852
-0.13821454
0.07196057
0.42222008
0.3187612
-0.05145598
-0.022956856
0.12420931
0.39373836
0.0071968175
-0.27164823
-0.07601422
0.20415692
0.28394625
0.19031283
-0.2637388
0.120765954
-0.48869795
-0.1943295
0.00941622
0.3140376
0.39732412
0.5155269
0.00446517
0.12576117
-0.047261175
-0.25707227
-0.08303034
-0.943897
0.12933986
0.3225862
-0.5846302
0.48940814
0.02606246
0.034214612
0.4690474
-0.07290758
0.17873386
-0.7104775
-0.02300232
0.011786286
0.18322197
-0.15004544
0.5498431
0.3296313
0.01408095
-0.052254498
-0.4704039
-0.02630067
-0.066214964
0.008209072
-0.593311
-0.039623506
0.086289525
-0.052978642
0.25707316
-0.08446398
0.2938491
0.48146573
0.03369542
-0.059580896
-0.099082865
-0.17103681
0.60940534
-0.15303424
-0.164266
-0.021541832
0.12624054
-0.010178566
-1.1982622
-0.028347299
0.0668282
-0.5043673
0.025079422
-0.081212595
0.01597168
-0.12836024
0.20639478
-0.0038324478
-0.0368173
0.38693562
-0.018099612
-0.4629558
-0.08777079
0.24941957
-0.031979833
-0.21998683
-0.08999622
-0.08977539
-0.21770486
0.5009873
-0.17859612
0.061064854
0.25720388
0.16423334
0.13967367
-0.22122985
-0.046521783
0.020447575
-0.04649104
0.029934762
-0.115794115
0.4882644
-0.7957318
0.3272763
0.32686442
0.42561638
0.2683219
0.021390362
0.19685529
0.16305512
0.33849946
0.11457019
0.07000619
-0.060988735
0.2084517
-0.15084812
0.057487007
-0.23521051
0.10320379
0.14169273
0.084275156
0.17868924
-0.12901765
-0.3505754
-0.21314503
0.059187744
0.3047692
0.24469183
0.881821
0.34933197
-0.13819343
0.20273547
0.24105535
0.35273898
-0.8061331
-0.068666
-0.17323895
0.030258432
-0.03862973
0.3115631
0.13090101
0.47700924
-0.073532894
0.3257038
0.67187166
-0.2748593
0.3386059
0.29969966
-0.2822901
0.19942516
-0.19026172
0.42909986
0.14857124
-0.25746182
0.38496646
0.25685292
0.0812783
0.28975093
-0.027365917
0.053021166
0.8279353
0.22781074
0.4097652
0.16933721
0.30327633
0.262088
-0.24587321
-0.24384859
0.17065309
-0.024521768
-0.17130691
-0.48499507
-0.003932163
-0.07100115
0.4204512
0.3480674
-0.25971547
-0.04096267
-0.13861428
-0.02411121
-0.18435507
0.35728386
-0.7397943
0.40980715
0.046570417
0.06696912
0.0697969
-0.19728422
-0.22392142
-0.31366804
-0.22478536
0.021472633
0.078979455
0.031899057
-0.550412
0.29366046
0.29037225
0.027786117
-0.01835738
-0.4449509
-0.3562417
-0.15559068
-0.05898554
0.27614588
-0.46849534
0.11647164
-0.037267067
0.29467538
0.04594359
-0.44336927
-0.52139276
0.3080475
-0.10242555
0.19668016
0.33701608
0.0673624
0.31161845
0.15414977
-0.037547063
0.15218854
0.037236482
-0.089189276
-0.91851026
0.09000785
0.2537094
-0.022550045
0.20017757
0.17185941
0.001673854
0.19347435
0.19882022
0.18438461
-0.032943718
-0.057036754
0.11627341
-0.2097218
0.22910358
-0.22275388
0.098925196
-0.10873433
0.31546935
0.15578575
0.25166428
0.08083008
-0.38307327
-1.1801761
-0.04395961
-0.1373011
0.29639843
-0.9730194
0.15220961
0.095638424
-0.36890045
-0.2600226
-0.12773223
-0.2443557
0.086004905
-0.3033434
-0.040553164
0.17075767
0.34154433
-0.14810674
0.03930809
-0.26652053
0.523633
0.25301862
0.10279275
0.043354742
-0.47291285
-0.19648418
-0.17501798
-0.22601202
0.53619176
0.5705847
0.27703685
0.19580087
-0.26747596
0.18784495
-0.06665748
0.3819385
0.16623843
0.09799532
0.22327973
-0.14253105
0.5319757
0.4610288
0.2548836
0.122282475
0.12751795
-0.3444278
-0.18047816
-0.23006307
-0.24331848
0.013659483
0.09422212
0.38175356
0.015959255
-0.2264227
-0.11730218
0.17634632
-0.059287786
-0.7657728
0.48088944
0.23233046
-0.32052884
-0.39194906
0.11901773
0.0010208223
-0.02270271
-0.7468221
-0.08642984
0.29641783
0.033253767
0.008283899
-0.053660903
-0.48902613
-0.062123105
0.17276548
0.0155572435
-0.19681607
0.079505
-0.3109305
-0.095857285
-0.21451564
0.037558123
-0.08508385
-0.24613574
0.32438764
-0.08992055
0.07559732
-0.70602804
-0.24880219
-0.017283535
0.058547918
0.011581767
0.011921985
0.35923404
-0.015614682
0.03169467
-0.0024073937
0.061147746
-0.23179565
-0.53767294
-0.5123036
-0.075031124
-0.35725737
0.40858746
0.32306907
0.43159503
0.18587139
0.20638548
0.12369482
-0.14623612
0.0017759502
-0.0942116
-0.7544643
0.21810493
-0.0754151
0.5184309
-0.3593371
0.018808087
0.019108547
-1.3167757
0.2735744
-1.3286881
-1.2334894
-0.054070815
-0.26738086
-0.18047996
-0.064898916
0.15438987
0.13394639
0.25524157
-0.024014184
0.5844553
-0.6845943
-0.36056936
-0.49497846
-0.05798641
0.56111836
-0.13498503
0.20897524
-0.07911824
-0.06447451
0.22540694
0.43260515
0.76158476
0.12100403
-0.84695864
0.5883528
-0.14993522
-0.9433581
0.84898615
0.50892663
0.06751663
0.38342428
-0.22007123
-0.5381715
0.0060559823
0.14182626
0.2398237
-1.0853534
-0.06876066
-1.569779
-0.99738044
0.46447715
0.11174754
0.37038922
0.4892369
-0.13956064
-0.45447633
0.114479706
0.147252
-0.04228782
0.25124305
-0.60448503
-0.6440175
-0.78062165
0.41777727
0.14178619
-0.7131611
-0.10026973
0.26319832
0.5628736
-0.25401562
-0.23695455
0.09781292
-0.012720107
0.025281882
0.2880739
-0.0053741205
-0.2697483
0.703277
-0.09586256
-1.7757291
0.12624413
-0.060920212
0.40492153
0.003049487
-0.50839895
-0.3260466
0.38486466
-0.012172492
0.24592328
-0.07678063
0.25657022
0.5021288
0.5901135
-0.36349183
0.29556322
-0.5868838
0.3916604
0.18537328
-0.3496255
-0.27135
0.43940377
-0.5336957
-0.6290249
-0.03172715
0.0085014785
0.10797063
-1.3653144
0.37206182
-0.65404797
-0.61551666
-0.3933516
-0.18306106
0.35275245
0.1627056
0.0694015
0.2271917
0.41627392
-0.1059852
0.06154362
0.35089123
-0.46290112
-0.77164423
-0.24291311
0.061830945
-0.007585372
0.2524117
0.11784998
-2.6177406
0.4949217
-0.09458697
-0.08980566
0.40705338
0.15097533
0.08127191
0.19397865
0.08457435
0.44033736
-0.04163286
0.12588038
0.18262419
0.19799192
0.12220764
-0.18955338
-0.002532496
0.10469009
-0.04497336
0.010268549
-0.04979391
-0.37515905
-0.46730354
0.2025548
0.24386635
-0.3064926
0.17143838
0.058193944
-0.07228052
0.05097761
0.11182217
0.24917477
-0.19845654
0.14608131
-0.5247272
-0.2061976
-0.04399558
0.22857866
0.7561057
0.15601045
-0.3969995
0.1720699
-0.15472628
-0.42335227
-0.13731638
0.26630896
-0.32934025
0.073353454
-0.06582655
0.14076889
0.07845534
0.0003708195
0.0052779745
-0.019114317
0.29488263
-0.1979409
-0.09264347
-0.13212572
0.21052608
0.0012646774
0.069076434
0.16920154
0.21373971
-0.24209873
0.06931277
0.19370168
-0.37871796
-0.012503075
-0.12789929
-0.02204343
0.1869529
-0.058828153
-0.14168146
-0.032650113
0.21602342
0.2662628
-0.0064612483
-0.16658303
0.26437566
-0.104725294
-0.09468421
-0.011820551
-0.12991773
-0.43328193
-0.28926226
-0.5371771
0.13085794
-0.037069798
-0.11783784
-0.06876647
-0.03067734
-0.12431753
-0.2041902
0.07279107
0.2713025
-0.052681528
0.043723054
0.18745346
0.002496074
-0.16788282
-0.06916968
-0.27643633
-0.05288295
-0.07338436
-0.13511956
-0.2905274
-0.23064236
-0.06906467
0.15016587
0.055637732
-0.10960117
-0.009738095
-0.12231953
-0.16743474
0.3074322
-0.156218
0.28779563
0.09474194
-0.10099538
0.29065183
0.28476715
0.103248216
-0.2206627
0.109836236
0.22885907
-0.12685211
0.009173235
0.031732466
0.10621453
-0.29974648
0.50489926
0.21707778
0.020483127
0.06965551
-0.19100992
0.12956804
0.033701573
0.20805094
0.36383057
0.41514334
0.009494881
-0.13965647
-0.21384497
0.074983515
0.39157325
-0.53033936
0.19826382
0.22376569
-0.32053205
-0.2538477
0.61358917
-0.36255935
0.1808234
-0.28942257
0.5708166
-0.6369665
0.028886255
0.27566746
0.12637262
0.31758332
0.44399023
0.58876646
-0.06458482
-0.067325845
-0.2813923
0.035318553
0.13694397
-0.29906082
-0.112876266
0.08637613
0.023817433
0.0096102785
-0.060156234
0.18432444
-0.27633527
0.20817293
0.28646958
-0.35065934
-0.25640795
-0.13201775
0.46868557
0.25428727
-0.090187706
-0.04371746
-0.0056641125
0.18538217
-0.46721557
0.23860493
-0.026069222
-0.26614803
0.13537131
-0.0062314905
0.28236935
-0.13329963
0.2921
0.31770244
-0.019096345
0.22228466
-0.0560199
0.07735138
0.019711453
0.1403805
-0.07933579
0.10044489
-0.06213468
-0.25441492
0.21267398
0.320759
-0.034567937
0.33482283
-0.17681333
0.09180648
-0.062270697
-0.17575921
-0.18178432
-0.07648698
-0.047797203
0.057100184
0.2796171
0.23894627
0.05168142
0.15601034
-0.17399934
-0.26292866
-0.10708274
-0.13019851
-0.40893847
0.09521774
0.25783163
0.14991537
-0.013089585
-0.035259455
-0.09589678
0.1810151
0.3169027
0.20937493
-0.16469131
0.09063744
0.032915812
0.22152422
-0.19071189
-0.24733776
0.33973727
-0.10754355
-0.07383335
0.29473358
0.58175516
-0.03175005
-0.15053011
-0.22494696
-0.7724896
-0.19137724
0.06890925
-0.12564462
-0.27914253
-0.3552675
-0.05122713
0.069815755
0.71069115
-0.6199048
0.05659781
0.14302766
-0.23916489
-0.040757958
-0.08594227
0.13604467
-0.046252333
-0.23259951
-0.19485278
-0.037619017
-0.34118035
-0.4601845
0.15420151
0.010470782
-0.5355812
0.1838383
-0.03625775
0.5792722
0.24962054
-0.11397507
0.18952836
0.32808986
0.4352815
0.019820655
0.1762781
0.6040175
0.12006494
-0.13249598
-0.017111344
-0.26393196
0.265698
-0.051664196
-0.020903427
-0.35685977
-0.22062185
0.06365905
-0.23143503
0.11283798
0.12467064
-0.10311084
-0.4101947
0.15648885
0.2698798
0.3834631
-0.20372638
0.02433305
-0.06774616
-0.24932602
-0.29311126
-0.0049968353
0.06453027
0.07550378
-0.6943579
0.37136042
0.1429512
0.298872
-0.023769895
-0.031181643
-0.22995871
0.10915169
-0.049869116
-0.005819939
-0.23211506
0.17198083
-0.070184015
-0.03265689
0.2908666
-0.2726233
-0.35802534
0.17407295
-0.0938288
0.007581727
0.23267442
0.09513323
0.11803168
0.32764006
0.016805967
-0.08634583
0.1728963
0.24810441
-0.33774596
0.07077714
0.3363252
-0.46812078
0.013029234
-0.12420203
0.20599559
-0.050120875
0.036644902
0.027853388
0.10716763
0.032809623
-0.020639632
0.13630666
0.12236243
0.18232065
0.005344583
-0.030467622
0.11084318
0.12769456
0.08166537
0.06404304
-0.32242972
-0.30043724
0.48820594
-0.1365763
-0.14793397
-0.35641536
-0.70265704
0.25000215
0.06261899
-0.27098322
0.6282058
0.089545116
-0.68484265
-0.16623785
-0.053793978
0.12864558
0.08768722
-0.3509778
0.005385419
0.21003185
-0.28667805
-0.13074368
0.02543533
-0.55162376
-0.4547958
-2.1974604
0.13363424
0.41920957
0.52021265
0.066018716
0.6072117
-0.7850753
0.045572232
0.28735575
-0.052601308
0.05436211
-0.55255103
0.4326989
-0.34989005
0.32046443
0.04416823
-0.39276907
0.49206096
-0.43864864
0.35393617
-0.090803236
-0.00023639535
-0.5585875
-0.22329697
0.051113807
0.004228664
-0.17125595
-0.2368272
-0.6038589
0.60357827
-0.43095994
0.0074858638
0.002576542
-0.19274601
0.050232552
-0.13455977
-0.3394101
0.038467024
-0.07036843
0.066821605
-0.30499846
0.072662234
0.11765203
-0.38251325
-0.33948046
-0.29688144
-0.42182797
-0.25780213
0.2596498
0.023698071
-0.08970578
-0.053460162
0.16901311
-0.056094132
-0.13753286
0.096821606
-0.05217924
-0.074875936
0.07466528
0.12195531
0.0055919797
0.34765437
0.11139042
0.1601397
0.10467749
-0.12436526
-0.093694665
-0.017979445
0.3026483
0.038019042
-0.10025532
0.16007014
-0.2833936
-0.2474568
-0.052514397
-0.00038133003
-1.209168
0.3752477
-0.032295525
0.048438344
0.12635632
0.010415393
0.0798253
0.11871209
-0.0364575
0.19735736
-0.023117656
0.27041745
0.40247968
-0.18173093
-0.22919963
0.16301446
0.058483895
-1.0132998
0.21918097
0.2751895
-0.5946455
0.06983366
-7.422207e-05
0.19927219
-0.05773401
-0.36207834
-0.1764646
-0.40132204
0.009893733
0.81560606
-0.061279442
-0.7121695
0.1585581
-0.04404946
0.05597445
-0.09253884
0.028152473
-0.012213748
0.67593384
-0.62386
0.080012955
-0.32505777
0.39258626
-0.0003290541
-0.5791656
0.3837691
0.30215114
0.13326722
0.10031157
0.71967554
0.18385604
-0.0038387738
-0.27155426
0.0059643383
0.27388957
0.1547264
0.59433323
0.26799008
1.1422861
-0.89750874
-0.39919668
0.291527
-0.24695492
-0.12664358
-0.8230831
-0.7621696
-0.41982356
0.12165396
-0.0687583
0.15183248
-0.6546551
-0.096475415
0.3191984
-0.09454324
0.5667934
-0.43104637
0.26004493
-0.81498736
0.043115806
-0.61993283
-0.12719378
-0.18848678
0.14996882
-0.35435733
-0.58748716
-0.3015148
-0.13371056
0.2970115
0.21927221
-1.873206
-0.23488416
0.043800335
0.15109655
-0.0056874463
-0.3298212
-0.38377655
0.24314463
0.006014965
-0.21199714
0.098672576
0.5238657
0.23015891
-0.12573846
0.008696383
-0.20060793
0.01972491
0.21860828
-0.32833627
-0.28448093
-0.17493604
0.35054925
-0.54519886
0.1201591
-0.06886492
-0.2488863
0.15693606
-0.32192203
-0.66451323
-0.081935346
-0.2031474
0.2337494
-0.115440495
-0.13085784
-0.36178505
0.061459772
0.31835854
0.8482689
-0.036189698
-0.017649565
-0.035570666
0.19676879
-0.1864408
0.50456214
-0.071075775
0.18614012
0.13600853
0.10963844
-0.26310405
0.19478461
-0.28130537
0.348501
0.43835178
0.0509719
-0.5261745
0.023834711
-0.0025737414
0.17490618
-0.26208493
0.014848817
0.11008033
0.09901362
0.027316997
-0.23954424
-0.07787458
0.073569216
-0.39642137
-0.28946063
-0.04175061
0.18306267
0.3339701
-1.1108063
-0.81450796
-0.25963768
-0.25043666
0.5860517
-0.11313859
0.32111263
-0.07203997
-0.36932802
-0.52869713
0.12960286
-0.8942029
-0.33809364
-0.030590273
0.15005553
-0.94164926
0.025950892
-0.21003494
0.33261833
0.5624712
-0.64887565
0.023094144
0.3387838
-0.51781964
0.13600801
-0.07643442
-0.15970872
0.14563769
-0.016425341
0.3707975
0.29289225
-0.09194812
0.067121275
-0.10481989
0.22892044
0.20579398
0.51306623
0.4211873
0.29662696
-0.03482007
-0.009086563
-0.022377873
0.33040747
0.27971312
-0.032485656
-0.0030502828
0.25481004
0.079793416
-0.056186296
-0.1654377
-0.1238536
0.31787062
0.11692954
-0.028340857
-0.006948751
-0.034996435
0.112572335
-0.0074610393
-0.08488498
0.009341792
-0.5922757
-0.47322437
-0.41138825
-0.03782394
-0.019809617
-0.09468203
-0.07757066
0.09873097
-0.67324954
-0.24854748
0.09598985
-0.17384106
0.041273132
-0.043348916
0.085734464
-0.49504519
-0.21042211
0.2322072
-0.22510867
-0.34618446
-0.10907928
0.24189544
-0.38939744
-0.16795297
-0.09893811
0.1311959
0.321225
-0.020354815
0.009354271
0.22727334
-0.023123426
-0.14745812
-0.04428913
0.23668522
-0.11092094
0.22071059
0.1245014
0.19581461
-0.23227964
0.40504017
0.34492263
0.26682463
0.06590168
0.1909916
0.15400213
-0.09610692
-0.17718013
-0.4088176
-0.7352578
0.23511924
-0.1374863
-0.54578745
0.10293819
-0.048698436
0.73102856
0.111556485
-0.23625124
-0.031492088
0.08816488
0.34410864
0.21252124
-0.08888662
-0.3658432
-0.17870088
-0.09519286
-0.069845445
0.32307455
0.26619035
-0.07350115
-0.105374016
0.11894937
-0.17124617
-0.41541475
0.009877422
-0.18074246
-0.2336269
0.32621458
-0.10191286
0.29971227
-0.5433651
-0.9783628
0.25199756
0.15636672
0.05009047
-0.010022797
0.007778561
-0.18396315
-0.15549159
0.006222218
0.34162527
0.09467812
0.16518757
-0.37535366
-0.038678546
0.4671591
0.09422849
-0.018685482
0.045314062
0.005269826
-0.062036447
-0.027397081
0.032948468
-0.16878575
-0.13294092
0.11095095
0.17452
-0.39828154
-0.04239643
-0.24863704
0.37094414
0.018601144
0.08593891
0.036012977
-0.011146235
0.23344
0.0094053615
0.09734732
-0.011509985
0.0052873925
-0.10800815
-0.23216008
-0.00983332
-0.07800976
0.25037944
0.18174227
-0.20758781
-0.023058616
-0.041538965
-0.27956966
0.16836399
-0.44427142
0.046231024
0.09605544
-0.022895351
-0.014952402
-0.3489974
0.24886426
0.3234634
-0.07872004
-0.09615158
-0.3262564
-0.029518696
-0.22849824
-0.33989775
0.16074088
0.13880262
0.15544967
0.0748135
-0.0018377043
0.05640844
0.13867614
0.2328151
0.16857128
0.13987923
0.20785022
0.0964845
0.17863627
-0.14758484
-0.11694666
0.4999734
0.108755834
0.21551113
-0.02432974
0.05583981
-0.026891464
0.13476045
-0.20927273
-0.5014022
-0.08608935
-0.113103986
-0.21972594
-0.06654885
-0.111104205
0.04550269
0.47892958
0.7588307
-0.6964575
-0.025167093
0.37736157
-0.06718817
-0.251081
-0.38537994
0.21411839
-0.20679468
-0.37937963
-0.24307297
-0.607315
-0.06868827
0.16232674
0.5318857
0.09634061
-0.16641931
-0.038455307
-0.066056915
0.12354883
0.1459549
0.0007018158
0.10194515
-0.030493207
0.7871866
-0.24885501
-0.21005528
0.084801115
0.04630842
-0.37067875
-0.10990005
-0.3336909
0.18618898
0.030465402
-0.04989369
-0.24136613
-0.2593295
0.032160528
-0.5125645
-0.24789223
0.015296898
-0.19358355
0.47752926
-0.31550708
0.1292967
0.43160668
-0.30525136
0.10056704
0.23117077
0.048245907
0.07675654
-0.067039534
0.037313577
0.14679451
-0.2233939
0.39899367
0.10477173
0.10284078
-0.07975022
0.034379262
-0.18064545
0.22826643
-0.015566682
0.07920022
0.17716457
0.17050974
-0.13565752
0.25828737
0.13802613
-0.13285585
-0.3777163
-0.20705824
0.06487855
0.25683695
-0.05863468
0.12612632
0.14571823
0.07826648
-0.069382764
0.015381694
0.043935675
0.22564282
0.034117006
0.043229166
0.06631528
0.0062808045
0.063954085
0.05214263
0.16915576
0.27804187
0.017604958
0.20946933
0.3435261
-0.013850425
0.2109161
0.21163999
-0.02594782
-0.0341696
-0.034994546
0.06810528
0.16893284
0.02929797
-0.2651784
-0.0970735
0.12152865
-0.25685954
0.6221723
0.53810537
0.2037428
0.44655657
0.4236933
0.05034237
-0.08867453
0.016786294
-0.9152531
0.3369379
-0.019715881
-0.27224097
-0.03170063
0.29572237
0.2063433
-0.06056004
-0.0008763472
0.04779271
-0.33148274
-0.09970808
0.31622043
0.39695075
-0.17256601
-0.64317757
-0.049581967
0.03923264
0.23182765
-0.031202631
0.1499311
0.34852725
0.1076488
-0.23454839
0.0060718474
0.2674392
-7.584604e-05
0.114861734
0.19743253
0.017906252
-0.114404485
-0.45442408
0.25933796
-0.45365798
0.024889987
-0.0037623593
-0.7613351
0.0064854305
0.21188143
-0.064284556
0.32919955
-0.31741643
-0.30169326
0.1815666
-1.1003565
-0.04664004
0.08798237
-0.51198804
0.51331687
-0.12928736
0.32146725
0.07089416
-0.09749249
-0.28016075
-0.14325243
0.02611635
0.068488486
0.42820448
-0.380036
0.010608933
-0.4043781
-0.31021768
0.0040110806
0.1472196
-0.022510104
-0.23630492
-0.0075929114
0.31140387
-0.095479846
-0.24016616
0.07676547
0.46136215
-0.061460894
0.25340652
0.09474455
0.05295099
0.10276718
-0.09765445
0.24662617
-0.06725107
-0.262864
0.066970885
0.11852857
0.3487658
0.009945246
-0.09088567
0.013687541
-0.10936123
0.06620848
0.02611828
0.20962103
-0.13882978
-0.065935
0.16104431
-0.059216313
0.10716695
-0.015103157
-0.27547976
-0.16476816
-0.057298537
0.07293617
0.15201344
0.25589988
0.24398233
-0.12971576
0.07448197
0.12621704
-0.22638029
-0.6570179
0.2712465
-0.16003844
-0.40188086
0.50522447
0.14466612
0.14753221
0.008080936
0.39232904
-0.018722313
-1.1400917
-0.41883177
0.15044029
0.037724897
-0.05663863
-0.63769567
-0.023423873
0.13468127
0.2873471
-0.21196169
-0.016075047
-0.11661275
0.10464424
-0.54352427
-0.32272756
-0.5949899
-0.06048606
0.19290306
-0.45505878
0.47199494
0.7170967
0.43602324
0.48673508
-0.29193166
-0.07973739
-0.10280508
0.005336641
0.4000063
0.5755518
0.7799939
0.28542644
0.12003069
-1.0184317
-0.76589745
-0.2061415
0.0034330992
-0.026277756
-0.3417021
-0.3737517
-0.27455705
0.09588517
0.04104445
-0.07875182
-0.7653084
-0.41457555
0.61072314
-0.18503425
0.5546998
-0.5326066
-0.16668914
-0.50560594
0.22157797
0.073424764
0.022745224
-0.032649703
0.43665668
-0.13903067
-0.0126192095
-0.19346124
0.14359713
0.17372173
0.64115274
-0.11021317
-0.48908195
0.028883208
0.33833954
-0.040523108
0.15885237
-0.41980997
0.0985452
-0.06077063
-0.12041588
-0.054632705
0.11683163
0.26857802
-0.16373722
0.35980135
0.34149405
0.078105874
-1.5976821
-0.42358077
0.04760638
-0.3698215
-0.20716427
0.16511238
0.2995434
-0.03879456
-0.33310947
0.44084525
-0.1816177
0.23012006
0.00029873726
-0.37034258
0.034648404
0.25604224
-0.33016014
-0.06404278
-0.07186146
-0.00065787236
0.32798937
-0.15509066
-0.049879454
-0.06113379
0.2574302
-0.21335375
-0.09781691
-0.32932553
0.110758916
0.22191279
0.15760049
0.13378736
-0.3652691
-0.10124029
0.08414374
-0.40823424
-0.07649718
0.23817533
-0.0048854174
-0.15821137
0.7451981
0.700813
0.47524285
-0.21520582
0.050651345
0.121318035
0.031207535
-0.016487373
0.49806282
0.2522327
-0.5815102
-0.04839031
0.71322846
-0.008025865
0.10108741
-0.57819784
-0.015257173
0.22866946
0.18657029
0.1048627
0.30604413
0.034178264
0.025137637
0.340348
0.3975641
-0.60571355
0.2713874
-0.019201849
-0.23524682
0.12748568
0.09815324
-0.16032289
-0.23606794
-0.33828375
-0.46835417
-0.13596001
0.04689533
-0.080960535
0.20709863
-0.3443279
-0.08113534
-0.278047
-0.059515145
0.316532
-0.14029206
-0.19793217
0.45986915
0.4911238
-0.1148262
0.056050695
-0.20395017
-0.057430968
0.5058655
-0.2652225
-0.20552656
0.107088305
0.25376874
0.3749973
0.012333831
-0.06961579
0.44508675
0.19665258
-0.27245155
0.090500765
-0.26854068
0.288254
-0.04000695
-0.073236026
0.08214506
-0.12720259
0.09647897
-0.0805696
-0.6017632
-0.103049815
-0.70366615
-0.75255895
-0.07166729
-0.059618957
-0.15593006
-0.1192963
-0.2539257
0.15760694
-0.7424215
-0.6506514
-0.10830035
-0.88673234
-0.008216436
-0.0017104957
-0.12462383
-1.3590184
-0.4508403
0.5177906
-0.12226952
-0.16381022
0.08488845
0.4199337
0.47446033
0.33169225
0.28898117
0.12933181
0.12357278
0.060544595
0.036517784
0.33824456
0.13789111
-0.30641893
0.1740905
0.16555156
-0.40055922
0.16319852
-0.29987139
0.13316083
0.110147424
0.1086368
0.04658267
0.6665108
0.3403879
0.107369296
0.22915141
0.10463437
0.2583483
-0.20535067
0.066412464
0.0034091016
0.2371104
0.05379055
0.03362753
-0.04635333
0.57717645
0.03769319
-0.0324066
0.013386544
-0.6414161
-0.044534247
0.22295697
-0.19085056
0.11008115
-0.30926353
-0.15073736
0.17144834
-0.14594094
-0.58073616
-0.12032478
-0.014374766
0.06620938
-0.5096322
-0.06678261
-0.026753953
0.29102725
-0.22335446
-0.090195
-0.019140352
0.280815
0.26903412
-0.2651488
0.0331772
0.45487812
-0.4432078
0.058818776
-0.6310039
-0.20531215
-0.25351205
-0.011256667
-0.10856604
0.13146219
0.6664793
-0.43762398
-0.13892768
0.38186267
0.0023109529
0.06522502
-0.18959685
0.45894197
-0.022450155
0.07247552
0.25459355
-0.33529252
-0.1939398
0.31956786
0.014997291
-0.7971109
-0.12111025
-0.16035269
0.23333804
-0.07817561
0.18741332
-0.032904252
0.031270802
0.33623174
0.20206171
0.19012286
-0.053680494
-0.4769378
-0.004186665
-0.12320001
-0.030483115
0.12399653
-0.13423216
0.02194421
-0.3033299
0.052812982
0.16322578
0.020610709
-0.14850527
0.062418833
0.08564684
-0.15271302
0.017692542
0.033948645
-0.6354995
0.13099945
0.36364222
-0.2592317
-0.21094024
0.38843912
-0.020198474
-0.21029304
-0.023679446
-0.0056189285
0.20708196
-0.12711334
-0.12952074
-0.014914514
0.08514257
0.18133228
-0.14444365
-0.028043432
-0.0015432691
0.16664548
0.119517505
0.14343202
0.14172116
0.0028235523
0.2860008
0.119012274
0.03221526
0.17785816
0.44556355
-0.072287075
0.02955182
-0.16645305
-0.06204019
-0.25005051
-0.2633536
-0.1877083
-0.27642348
-0.28676906
0.009362649
0.06927918
0.5092056
-0.094980754
0.022338293
-0.2404153
0.21096277
-0.42819664
-0.43996447
0.27040613
-0.34446013
-0.2584093
-0.15456794
-0.189746
0.062804945
-0.096383765
0.20275216
0.30436885
-0.36848825
0.02396171
-0.07134739
0.115027204
0.039399207
0.1639412
-0.12925228
-0.17775768
0.3965786
0.16589594
0.39761832
-0.046155743
0.035356406
0.005587272
0.16020395
-0.7224175
0.3965195
0.009956741
-0.28866202
-0.29159987
0.54438907
0.14941417
0.25012666
-0.39479712
-0.38915974
-0.30428088
0.3092797
-0.4528794
0.3803169
0.17436895
-0.13819428
-0.38059554
0.15345483
0.25507182
0.31063643
0.11768282
-0.025968196
-0.21864375
0.19087152
0.29741192
-0.28718
-0.06852565
-0.060728952
0.103043236
0.17420952
-0.011273163
-0.01513788
0.18812932
0.40566117
0.41464335
0.016178263
0.32109836
-0.008788599
0.18973598
0.107389614
0.14012812
0.001285284
0.26575044
-0.106738664
0.07442547
0.19411822
-0.051063184
0.04275269
0.017933246
-0.32166812
0.015635354
0.118063524
0.31594884
-0.07803101
-0.00592068
-0.21403146
0.10961708
0.19939075
0.34040898
-0.060234107
0.0636542
0.24971747
-0.037613563
0.04415806
0.16614693
-0.21733332
-0.29788134
0.09682594
0.15804107
0.04251214
0.35077563
-0.15226562
0.06293606
-0.095649466
-0.6582689
0.55629617
-0.37649113
0.5045634
-0.1488611
-0.00949899
0.21021864
-0.82003856
-0.25859758
0.15294906
0.41751084
-0.50181454
0.058706976
0.0047722817
0.43818203
0.55627793
0.16129918
-0.018165994
-0.39367357
-0.29634574
-0.48912457
0.04153699
-0.17562678
0.19555704
-0.37223297
0.039966706
0.33631518
0.7724744
-0.31176275
-0.16756204
0.940712
-0.027080601
-0.16946076
0.016902607
-0.029495686
-0.27287707
-0.32714707
-0.04248296
-0.62266797
0.31539747
-0.1792388
-0.22374682
-0.24265502
0.01513213
-0.8673564
0.1814924
-0.4950107
-0.036969766
-0.07244637
-0.157157
-0.3744367
0.044402212
0.50196767
-0.006573056
0.12839733
-0.5418327
-1.3722866
0.04382614
-0.5800654
-0.034754198
0.08681704
-0.14794311
-0.20783706
-0.33793962
0.19672686
0.32672822
0.63826525
0.007291926
0.11945607
-0.42898384
-0.19606473
0.08736872
-0.08038979
-0.020641219
-0.1893445
-0.11929145
0.32740104
-0.07573372
-0.020003244
0.33871663
0.262762
0.010283485
0.026121289
0.23481104
-0.11706718
0.044223893
-0.61677766
-0.0035100365
0.21615438
-0.29311457
-0.27969345
0.2935222
0.35596544
-0.010748936
-0.08654668
-0.22611782
-0.17235808
0.15258777
-0.13635689
0.23756357
0.07891128
0.008695287
0.37220043
0.2539647
0.025310172
0.07062164
-0.35619646
0.12856533
-0.00578507
0.07435504
0.06731972
-0.28892142
-0.14494938
-0.09332301
0.08893173
0.30043387
-0.010940266
0.13748878
0.030873159
0.0544126
-0.20956084
0.49484193
0.7261984
0.25606295
0.25391173
0.104147114
0.1826634
0.22138457
-0.09517944
0.41207862
0.46949908
0.0016251266
-0.15045059
-0.074471064
0.40629563
-0.08584066
-0.27297896
-0.08115264
-0.11887355
0.58437526
-0.6194554
-0.40538216
-0.26947796
-0.2851458
-0.4305196
0.10434816
-0.046980485
0.3589908
0.35481402
0.3064718
0.17304869
0.0461738
-0.69749224
0.034967657
0.2535619
-0.59238136
-0.005970674
-0.042063683
0.0030568456
-1.063982
0.074434265
-0.08982947
-0.27057424
-0.23766437
0.39389926
-0.33509395
-0.85720026
-0.1688113
0.04377248
-0.27012447
0.1407503
-0.08803364
0.7349346
0.27653325
0.49975893
-0.37715414
-0.09196338
0.27627304
0.24330257
-0.0049251015
-0.21086523
-0.263935
-0.04756773
-0.074254826
0.52496743
0.14446987
-0.16341592
0.2242409
0.2861628
-0.49358758
-0.80532736
0.24118893
-0.14760394
-0.018523479
0.08756735
-0.4040344
-0.116177596
0.002798311
0.06338856
-0.1553637
0.022658912
0.23013936
-0.3386214
0.47817802
0.25757584
0.43264505
-0.604405
-0.092274465
0.13422589
-0.43786666
-0.16958109
0.30364606
0.044336043
-0.020314874
-0.010541703
0.13042544
-0.17125316
0.4810395
0.021673193
-0.24306686
0.3320192
0.17060456
0.05976239
-0.5717143
0.11805561
0.108497426
-0.28005472
0.09220524
-0.030691085
-0.1735253
-0.3793301
-0.04058243
-0.745457
0.14537403
0.11416491
0.1865837
0.28267363
0.2820683
-0.46478182
0.32472506
0.35990295
-0.39471316
-0.044944018
0.10451308
-0.021322064
0.21351747
0.5536412
-0.8614017
0.8905576
0.31103495
-0.6497109
0.34457082
0.052536275
-0.036697455
-0.23079446
0.4335195
-0.55835086
0.035311252
-0.07766576
0.006755954
0.3964566
0.5913753
-0.4936342
-0.5304699
-0.48419413
0.669461
-0.36583096
0.45263305
-0.57236826
0.47954124
0.2810378
-0.8678959
-0.11362096
0.00973928
-0.06025541
0.916834
0.00024259664
-0.48262456
-0.047560006
0.054967783
0.0069929864
0.5469339
-0.43427566
-0.6038971
-0.13014254
-0.02046649
0.3793848
-0.08060987
0.021564923
0.1600652
-0.17092766
-0.047819637
0.40192032
-0.05218903
-0.2767061
0.12301982
-0.7967081
-0.18425678
-0.5190917
-0.14760739
-0.17801659
-0.029414017
-0.38064677
0.076770484
0.03867232
-0.0038404884
0.12498282
-0.19279094
0.35731998
-0.11651639
-0.5679218
0.465732
-0.1552899
0.0056463797
-0.5228279
-0.13538249
-0.23774384
0.0066911755
-2.8903623
0.16381547
-0.33184645
-0.23183817
0.66021967
0.40383875
-0.28043306
0.47592935
-0.061492898
0.0021537654
-0.17336647
0.044479646
0.08319858
-4.0313625
0.078534536
-0.03285337
0.047128662
0.46032357
-0.15699606
0.19506873
0.09856646
-0.055175636
0.3733687
-0.33100733
0.34167197
0.008820373
0.036784127
0.019459024
-0.5958447
0.120273076
-0.03992957
-0.045243252
-0.2014044
-0.2322856
0.5249239
0.2483255
0.30202597
0.18766502
-0.94524837
-0.11539163
-0.82722384
0.10188657
-0.16430193
0.41010183
-0.6715288
0.095039494
0.20083472
0.18228194
0.037597436
-0.8545594
0.4538675
-0.16331068
0.49943176
0.12771451
-0.29467607
-0.072108574
0.3381402
-0.30696812
-0.21657547
-0.07746716
0.60806113
0.11883872
0.17214577
-0.02617293
-0.46099383
-0.31319946
-0.35597947
-0.16858579
0.38239488
-0.64279455
0.21587856
0.25769585
0.22022735
-1.2193545
-0.26211536
-0.038973194
-0.10309261
0.096075475
-0.48779553
-0.32983375
-0.21434306
-0.0918559
-0.09039756
-0.73702365
-0.4298465
-0.07047995
-0.9212931
-0.22921224
0.21753493
-0.13581097
0.0014824725
-0.034187466
-0.2730391
-0.045126595
0.21814002
0.404165
-0.7403331
0.1848138
-0.46631104
-0.023049483
-0.3208969
0.120831095
-0.06986388
0.37924764
-0.19376211
-0.036645226
0.18044055
0.08882134
-1.085928
-0.15729785
-0.21790402
0.29342848
-0.06144512
0.015402704
0.16830023
-0.039001785
-0.10132932
0.038606144
0.11483873
0.026840167
-0.69951904
0.14394854
0.1235719
0.09446461
0.11265037
0.11590425
-0.062832475
0.41755626
0.14976121
-0.1983917
-0.08565455
-0.008628188
-0.034262106
-0.51782346
-0.28137255
0.047920756
-0.16342476
-0.36999443
-0.2728063
0.014895542
-0.05312044
-0.17533809
0.36495158
-0.29548904
-0.068573296
-0.034377456
0.099671066
0.026634345
-0.008449263
0.12189795
-0.03578777
0.09140798
0.0827536
-0.06486833
-0.016404063
0.123447776
-0.35606095
0.13368647
-0.042640455
0.04144487
-0.24986963
0.5888349
-0.31942672
-0.3480305
0.20951174
0.3519815
-1.0388154
0.4342509
-0.44101936
0.17879707
0.2843843
-0.002171873
-0.08207253
-0.36142033
-0.015557282
-0.03431027
0.34909883
0.31559527
-0.42864987
-0.06268526
-0.4584073
0.12891032
0.019410219
0.10491822
-0.1912404
-0.2027148
-0.4710127
0.3096438
-0.12241297
-1.0388367
-0.049780224
0.41854915
0.6008177
-0.15338187
0.63675725
-0.05780549
0.6768648
0.06741769
-0.22585076
-0.46096185
0.8289284
-0.049804717
0.2406477
-0.4132964
-0.10779354
-0.17141618
-0.8596654
-0.13288474
0.4931722
-0.0010518723
0.041523825
-0.54444975
-0.5791297
0.83395594
0.173976
-1.1625175
-0.68059343
-0.3303922
-0.58310777
-0.2361844
0.06158149
0.14840253
-0.017320393
-0.19069438
0.10324392
0.17877217
0.11289113
0.16090612
0.14419582
-0.2164987
-0.103314206
0.4544689
0.36068416
-0.060820166
0.006786926
-0.006169016
-0.108736366
-0.008223594
-0.22959238
-0.011415536
0.23703144
0.26326585
0.4632045
0.3980871
-0.1172025
0.035795502
-0.17981528
0.5182926
0.13076812
-0.07186579
0.2020075
0.16546662
-0.016075684
-0.17074868
0.24729292
0.0069494615
-0.035010874
-0.2827415
0.09550782
-0.026964879
0.053719733
-0.015796056
0.15484361
-0.11147407
-0.5700193
0.39421135
0.089301914
-0.02087103
0.068390846
0.28533292
0.012166474
-0.07096997
0.110610075
-0.07597357
-0.18564065
-0.3258429
-0.10349795
-0.15475845
-0.14541806
-0.05330486
-0.10396638
0.23225027
-0.5306432
0.24962582
0.33825946
0.05264911
-0.25828245
0.18945841
0.12363899
0.18081947
0.5866661
-0.2418591
0.29074404
0.18963087
-0.012785403
-0.06858257
-0.062110156
-0.10241311
-0.33361068
0.028659385
-0.065874405
0.01336922
-0.5519035
0.2743332
-0.5877719
-0.41613546
0.8788826
-0.123191185
0.99991924
0.3833993
-0.34410635
0.33726704
-0.053920664
0.37434983
-0.36529562
0.0115664555
0.33050647
0.42476314
0.085638545
-0.12515494
-0.3320353
-0.22192633
0.032307643
-0.052777022
-0.41090184
-0.5856013
-0.3548193
0.14361055
-0.6178859
0.3179351
-0.04505457
0.17137292
-0.059273846
0.321849
0.7420588
-0.993335
-0.2489778
-0.22360933
-1.0763891
-0.1337262
0.7754537
-0.25658128
0.3798824
-0.29570267
-0.38916105
-0.14324656
-0.30450717
0.09785966
0.11422345
-0.20700522
0.27294624
0.08997819
0.16889147
-0.0590044
-0.2986566
-0.025880966
-0.43442893
-0.20653036
-0.13309917
-0.034403857
0.20819408
0.19889161
-0.017652469
0.4168258
-0.19240583
0.15071288
-0.26289338
0.33858415
0.01648397
-0.40956038
0.019570127
0.14980403
-0.7130349
0.19393812
-0.14466071
-0.041535232
-0.09393907
-0.36105934
0.36587185
0.031088063
-0.09030145
-0.17289753
0.34270585
0.054959483
0.028443666
0.47528413
-0.3099466
0.30500445
-0.33616972
0.008511971
0.0047204033
-0.09893626
-0.20707014
-0.029394887
-0.31857896
0.19318523
0.3161226
0.31989366
-0.0367127
0.107869945
-0.4171535
-0.07713259
-0.13926409
0.8233329
-0.42859423
0.3695511
0.16957949
-0.21827249
-0.11906008
0.40031943
0.5088932
-0.09295584
-0.15282953
-0.4621123
0.29886
-0.06254496
-0.22958042
0.595146
0.03211533
-0.0159234
-0.11592393
0.03575524
-0.12645414
0.15634182
0.6356265
-0.34838313
0.017657518
0.47651112
-0.16899008
0.028517561
-0.076926306
0.065868534
0.16965452
0.21280876
-0.21759906
-0.029711282
0.38978463
-0.4579469
-0.35904923
-0.1047849
0.97141767
0.0449207
0.11280447
0.5118036
-0.33731252
-0.2049159
-0.046483453
0.44128016
-0.7723413
-0.11653189
0.026685664
-0.77355134
0.50510937
-0.68811816
-0.14246868
-0.16284117
-0.29788637
-0.66044366
0.037352428
0.1759539
0.3369204
-1.0180727
0.26988608
-0.6020822
-0.052680835
-0.031074144
0.01877403
0.31171605
-0.15396875
-0.05556868
0.39530382
-0.38346413
0.26597604
0.22100297
-0.06803809
-0.04431129
-0.4083941
-0.07226522
-0.28981242
-0.08355884
0.23116434
0.046354048
-0.50250995
0.09125382
-0.26180872
0.17260513
-0.28639817
0.43230334
-0.77564895
0.015478131
0.54275167
-0.14759523
-0.26914206
0.19317174
0.1460656
0.021238096
0.15795109
-0.07025392
0.18754461
0.45148546
-0.16933325
0.01170965
0.32769004
0.16015397
0.21756375
-0.35118717
0.11344053
0.30914393
-0.40695408
-0.08763879
-0.029034672
-0.5252081
0.15745331
-0.20002258
-0.7724236
-0.5835178
-0.056322854
0.060178656
-0.07291708
0.12660451
-0.736406
