-0.121934704
-0.16504268
-0.03115652
0.08806266
0.019055683
-0.008616192
0.068248555
-0.22131468
-0.1469566
0.19944625
0.098579586
-0.06526841
0.010549486
-0.07222075
0.08002354
0.5140422
0.07898259
0.22115777
-0.03674378
-0.036291838
0.011332784
-0.061245542
-0.07989348
0.12869725
0.03242741
0.012981068
-0.36876404
-0.12413176
0.084371105
0.2501941
0.0801912
-0.06215984
0.038638387
-0.09718015
0.07397859
0.0031053787
0.15360129
0.06945994
-0.05865122
-0.09604643
0.14250311
0.005120581
0.0038950804
0.20704885
0.1286281
-0.053583615
0.09690873
-0.08870658
-0.014848895
0.17326722
0.13334584
0.17808318
-0.02779734
0.091752194
0.06671725
0.16577882
-0.08470671
3.0127854e-05
-0.31298453
0.19310068
0.2864471
-0.18959776
-0.31165192
-0.42738402
0.010301338
0.005092556
0.095908426
0.23498423
-0.5233133
-0.053721625
0.17017156
-0.065637425
-0.084917545
-0.05939689
0.12652937
0.50892365
0.30363795
0.004640522
-0.04795349
-0.2709247
0.053119857
-0.16761108
-0.19998085
0.20415418
0.04421908
0.016680982
0.08546113
-0.01747803
0.062336262
0.3911977
-0.2506996
-0.028519467
0.030970896
0.073158376
-0.30631328
-0.35176456
-0.04136569
-0.18742499
0.035959836
0.26285988
-0.14304002
-0.007562077
0.028376305
0.111858815
0.16673638
-0.051727418
0.12111304
0.026599552
-0.059375014
-0.018684518
0.21740384
0.37780508
0.14746934
-0.20432852
0.16869996
0.05558399
-0.12824483
0.024170097
-0.37469846
0.07630263
-0.13155234
0.068137646
0.4028253
0.08005018
0.025941407
-0.044213742
0.16772643
-0.03811048
0.22269206
-0.061617702
-0.050657608
-0.05657304
0.13009787
0.17592312
-0.29092872
0.3497607
0.18252765
0.061287668
0.04489355
0.2880808
-0.05819847
0.09212579
0.17188099
0.035665147
0.121638924
-0.06776892
-0.0001756656
-0.07837182
0.18819705
-0.03747324
0.037024286
-0.05106657
-0.06808238
-0.10731859
0.32616955
-0.23264396
0.17043379
0.03898707
0.061831955
-0.16658476
0.13317178
0.00850537
0.0010638718
-0.18731871
-0.019903624
-0.0074053146
0.0059133945
-0.021937743
0.017112713
0.11620264
0.052898347
0.13627398
-0.023072802
0.01240939
-0.29508156
0.0678523
0.054116536
0.033525296
0.12138678
0.1284
0.027888184
0.1215123
-0.08687871
-0.14061601
0.04511166
0.0004662989
0.085651994
0.09251371
-0.3147413
-0.05933841
0.101457186
0.05517804
0.22361442
-0.08726081
0.024160635
0.3629075
0.0487727
0.058905736
0.088876456
0.10780737
0.20442359
-0.08607123
-0.19236623
-0.10821076
-0.22842366
-0.04958493
-0.14187971
-0.20171733
-0.05046362
0.062039174
0.108638965
-0.059176248
-0.03459166
-0.17423697
-0.0053395
0.073387675
0.0730436
0.101374626
0.010907611
-0.051908646
-0.15927576
-0.03089131
0.03728286
0.01162296
-0.0076659727
-0.0020940742
-0.09206531
-0.26018804
0.0020445185
-0.14807048
0.05695808
0.0970906
-0.09304731
0.31031707
0.14383422
0.043078262
0.26570854
-0.0632933
-0.07535833
0.10999927
-0.15950458
0.23797204
0.048701584
0.30422238
-0.04891964
-0.012703422
-0.19179899
-0.0289216
-0.02443938
0.16515952
-0.011484217
-0.055202913
-0.10397796
0.12833436
-0.2904801
0.022898449
-0.06512409
-0.10895993
0.030441945
0.14057183
-0.118836895
0.16453488
0.0771696
-0.12439338
0.1279227
0.0201768
-0.024585383
-0.12308109
-0.0045216475
-0.12774575
-0.01355471
0.014276249
-0.028804215
-0.032295384
-0.029832462
0.07043455
-0.18550715
0.0078062816
0.041638914
-0.2652925
0.21656305
-0.07098002
-0.026336648
-0.043742478
-0.18250851
0.023550764
0.097078316
0.35086685
-0.004704479
0.13618042
-0.123802304
0.02420607
-0.03995023
0.040343266
-0.03320131
-0.122816175
0.22459039
0.035150558
0.08918492
-0.0040271706
-0.14321251
0.07252118
-0.2568389
-0.092176095
0.001446093
-0.029212968
0.051108703
0.3114674
0.27114165
-0.102710135
-0.13127156
-0.032751158
0.08012744
0.21429071
-0.17060566
0.30815113
-0.1173906
-0.0674019
0.0992474
0.19850524
0.15847138
0.043278396
0.04738077
0.007443136
0.012761914
-0.07203053
0.011759183
0.14944792
-0.009895213
-0.15533881
0.34008154
-0.0386157
0.03295125
-0.12830025
0.030326135
0.07697426
0.057258613
0.12526065
-0.014381277
-0.28387833
0.103961416
0.047628008
0.032948237
0.066911384
-0.25283828
0.019967556
-0.12636128
-0.266933
0.020502204
0.04350561
0.017326966
-0.21641237
0.043441135
0.20408927
-0.019134639
-0.07399615
0.014521754
-0.03688795
0.08142942
0.034949884
-0.017158305
0.01194561
0.037737567
-0.021288652
0.0012593928
0.043770917
0.1826369
0.07532186
0.16224341
-0.09652741
-0.2579392
0.027109196
0.0058060796
0.052064605
-0.041523974
-0.46190497
-0.120295174
-0.12296866
0.3003331
0.29694226
0.079834945
0.38346544
0.2207958
0.16474503
0.017743906
-0.01722491
-0.0044540945
0.12703513
0.11371903
-0.37671757
0.36731556
0.047277346
0.033471256
-0.21510132
-0.007317556
0.09492847
-0.02908483
0.17254551
-0.005829237
-0.2778598
-0.06295253
-0.011176667
-0.06073461
-0.014652775
0.46777862
0.012481514
-0.07671049
0.0704966
-0.0025657213
-0.13781607
-0.12039618
4.985428e-06
0.15723869
-0.21986337
-0.2693026
-0.05775547
-0.03307303
0.022523412
0.32029992
-0.042992305
-0.18467055
0.17942722
-0.0077098715
0.32478213
-0.030802652
-0.0034483424
-0.32793036
-0.04590232
-0.0025597492
-0.048918694
-0.022313468
-0.016791705
-0.14061865
0.11329231
-0.4204376
0.16597478
-0.28185287
-0.080798045
0.1619044
0.4625715
0.19354388
-0.108992085
0.27632335
-0.19865948
0.23341207
-0.058043193
-0.08012041
-0.15404792
-0.13948771
-0.01818661
0.096062176
-0.053092156
-0.024757754
0.22005895
-0.13442756
0.13102417
0.14901221
0.152287
-0.0047117397
0.1631927
0.24134898
-0.013649893
0.024275009
0.028443273
-0.42341164
-0.041394882
0.19120234
-0.18676218
0.050203916
0.07220694
-0.014190621
-0.16255459
-0.26142937
0.07487996
-0.12446942
0.062606096
0.18441583
0.0044312766
0.25386906
-0.032165106
0.10129117
-0.45562664
-0.0378311
0.03129455
-0.05361732
0.010620162
-0.26804352
0.42351332
0.0627004
0.5608891
-0.2705125
0.0269596
-0.08690672
-0.07197213
0.31193033
-0.07114119
0.26790568
-0.24763654
-0.22242987
-0.48954707
-0.32029745
0.5039548
-0.41059974
0.054946553
0.092868134
-0.0858686
-0.061219238
0.34942293
-0.04025364
-0.06319001
0.32846543
0.0014162128
0.03596127
0.19454336
0.28463355
0.57995456
-0.4227105
0.02102714
-0.02509783
-0.4151467
-0.22012874
-0.00420757
-0.040518407
0.32470724
0.22908048
0.0071598273
-0.033870384
-0.25177777
-0.056956436
0.16036488
-0.18203008
0.1268287
0.17119211
-0.009323307
-0.18632929
-0.09683523
0.07910992
-0.010457676
0.5996488
0.112496994
-0.093303256
-0.04171655
-0.14930335
0.18743216
0.032105785
-0.015683623
-0.5191126
0.2947841
-0.093869425
-0.12836882
-0.08184183
0.045064095
-0.32445377
-0.14132759
-0.4721648
0.14332253
-0.19268553
-0.03189609
0.094851695
0.13693127
0.11147574
0.08792494
0.2184183
-0.0039726486
0.15641584
-0.027342305
-0.3539887
0.19377145
0.02633785
0.10790117
0.030951668
-0.018270416
-0.061179373
0.39790243
-0.30223474
0.14685707
-0.27507943
-0.28944963
-0.027192801
0.25337255
0.06512424
-0.04460696
-0.053204946
0.11634674
-0.6444416
-0.004719239
-0.10361443
-0.22889382
-0.018808346
-0.09548513
0.074879825
-0.075905755
-0.13320422
0.3334928
0.17945392
-0.06374032
0.090353824
0.03441408
0.18913683
0.019015156
-0.03991225
-0.071097195
0.17557792
0.104053825
-0.0672693
-0.021774612
0.028270118
0.025563007
0.18490791
0.28984126
-0.09713459
-0.01353875
0.019881323
-0.012004452
0.15748677
0.31506217
0.062107556
0.113739006
-0.06908767
-0.03881334
0.033964146
0.21116364
-0.03247197
0.107960664
-0.07282921
-0.089332834
-0.26699308
0.15555248
0.08000164
-0.042453386
0.2288797
0.032095395
-0.056865275
-0.12665658
0.14095366
-0.029237213
-0.087575026
0.034073424
-0.00076538563
-0.15220256
0.28904495
-0.00312696
-0.020223068
0.114383206
0.0724488
-0.03029123
0.10101905
-0.3163256
0.027820015
0.14962398
-0.16189685
0.08119508
0.02100119
0.06020626
-0.17134601
-0.061348412
0.051523313
0.0508399
0.12692285
0.019223686
0.03833716
-0.05859016
-0.13917026
-0.044939883
-0.017951183
-0.0061392295
0.24291572
0.14143161
-0.09483109
-0.116699256
0.046990506
0.04374559
0.07548446
0.07538374
-0.045199595
0.31385764
0.13693173
0.06679118
0.053304072
0.012081357
0.014523876
-0.03514303
-0.07692867
0.13095348
0.24244617
-0.011916991
0.032377876
0.026608007
0.14688732
0.0261738
-0.08075295
-0.03597276
-0.027143812
0.17367741
-0.0937602
-0.15118064
0.047957953
-0.040428676
-0.060801357
0.32549772
0.03257077
0.009966372
0.03005894
-0.03674735
0.12943006
0.032248102
0.09014825
-0.007121984
0.03994576
0.05137914
0.10542401
0.21293736
0.14361753
-0.23106375
0.027692238
0.15926641
-0.1731389
0.0036550278
-0.18678385
0.098445624
0.15827173
0.07873799
0.10089313
-0.11540559
0.011640582
-0.02512978
-0.05841578
0.07756213
0.40032783
0.07705144
-0.028284159
0.021177357
-0.013548199
0.1889452
-0.20658754
-0.026433235
-0.0008171207
-0.12422983
-0.11464653
-0.016880015
0.052118056
0.14796384
-0.07972657
-0.2551163
0.08240396
0.022939315
-0.1848141
0.058557484
-0.03343864
-0.09378451
0.042762946
-0.026539767
0.008415656
-0.19908352
0.3220872
0.07843392
-0.17249948
0.17348674
0.0023785357
-0.41398805
0.012448219
-0.023909906
-0.05190374
-0.15115984
0.022058548
0.04655337
0.09974309
0.09683687
-0.01354098
0.24122453
-0.04863141
-0.14525624
-0.096981555
-0.07469773
-0.31203154
-0.006830593
0.105616175
-0.06073289
0.18126702
-0.10154053
0.043322783
0.16932794
0.086816765
0.006028748
-0.049292848
-0.025235482
-0.010636466
0.117052905
-0.18063362
-0.31425074
0.019081177
-0.0404768
0.262064
0.03958546
0.053336844
0.114053145
0.08347959
0.10743803
0.23942618
0.27912268
0.13477647
-0.20543349
0.038507417
-0.027670493
0.048934482
-0.08062398
0.0814278
-0.1369654
0.048395585
-0.024800401
-0.09509701
-0.032912936
-0.02871583
-0.061016575
0.00073896785
0.042685904
0.20067316
0.14768142
-0.011929222
0.08688042
-0.08799149
-0.012363911
-0.046784393
-0.13356614
-0.016044445
0.013833412
-0.015814353
-0.023004182
-0.069062255
-0.12535366
0.07783962
0.08882228
0.002217838
0.052956056
0.0047291485
-0.059065055
0.078580216
-0.06613442
0.020467745
0.006361185
0.054166064
0.037986685
-0.07927787
0.06821105
0.045208506
-0.007563886
-0.44994727
-0.16903313
-0.10239527
-0.06769039
-0.10820609
0.002589907
-0.35751206
0.2385773
-0.06936796
-0.009501411
-0.22279014
-0.22735791
-0.08720086
0.03178884
-0.06581745
0.0942374
0.074165344
0.10151912
-0.100962654
-0.037773255
0.17169546
-0.012718004
0.031162098
0.055157445
-0.18198314
-0.0214605
0.031398054
-0.010304058
0.11542734
0.18304412
-0.13809018
-0.017159201
-0.008321901
-0.041517228
0.001969297
0.020549951
-0.011116905
0.22734776
0.13258618
0.02572197
0.14043203
0.3455791
0.001503904
0.08757842
0.1194735
0.23572403
0.015803782
-0.33255714
-0.12091871
-0.018525822
0.1179024
0.007997481
0.10992729
-0.09590536
0.083287165
-0.09370874
0.07702658
-0.090712324
0.035061378
-0.03432484
0.114889376
0.27418464
0.050429255
-0.18442331
-0.080900565
-0.06799624
0.1498663
-0.036992613
-0.02384869
-0.13402328
0.26708323
-0.10159602
0.09050778
-0.044694792
0.14678675
0.1651197
0.109994955
0.15136604
-0.048794243
-0.0045456775
0.09823741
0.101100974
0.073311575
-0.15394065
0.058138564
0.042533558
-0.021120032
-0.23967792
0.0368453
-0.046997543
-0.040025648
-0.0043464014
-0.004018435
-0.08921626
-0.12906821
-0.003802284
0.004426129
-0.031892404
0.07652229
-0.02640386
-0.3168085
-0.2297806
-0.010538728
-0.19236265
0.063166894
0.21205363
0.21164201
0.15766579
-0.012525093
0.09202853
0.13450377
-0.032097805
-0.014487144
0.25218222
0.264237
-0.12139614
0.16712435
0.3132028
-0.0070110722
0.020252017
0.04111608
-0.103294104
-0.19745088
-0.28284597
0.041539572
-0.05856649
0.0342648
-0.08711821
0.020324664
-0.60941035
0.0417553
-0.04039156
-0.16918111
-0.16049308
-0.25746363
-0.009530976
0.05982711
0.055565633
-0.2979086
-0.062289413
-0.28622794
0.05067728
-0.024542421
0.016276626
-0.06948903
-0.056778256
-0.0033385532
-0.058528878
-0.031438477
0.039797023
-0.00319567
-0.125344
-0.07014477
0.10052333
-0.21505831
-0.0083579905
0.05484949
0.08144832
0.10909423
-0.046067055
-0.043208662
0.06794949
-0.0024480638
-0.1254464
0.1443012
0.13914186
0.20917644
-0.20573217
0.096864715
-0.021324098
-0.17352562
-0.052756928
0.3739395
0.04608111
0.114396244
-0.14882484
0.12966016
0.17303269
0.021692751
-0.015524377
-0.13835132
0.21960829
-0.015829613
-0.16879497
-0.04946178
-0.0012903055
0.07184913
-0.0038886599
-0.004072573
-0.18261215
0.0771588
-0.14300157
0.08284562
-0.016762692
-0.08606367
0.14660841
0.28784254
0.059778623
0.036905967
0.014655048
0.06299676
0.09471749
0.078760505
-0.014375016
0.06576246
-0.021352705
-0.033090964
-0.044078276
0.01465423
-0.04165321
0.009622094
-0.06258594
-0.069863185
-0.07292549
-0.051752687
0.04383942
-0.055540442
-0.052040566
-0.12762268
-0.043822177
-0.20777321
-0.20572986
-0.04956186
-0.024336506
0.0619205
0.012326782
0.19736934
0.211584
-0.09917426
0.13212949
0.11848791
0.027939213
0.10216859
0.19632944
-0.24387614
-0.03672819
0.059222803
-0.099339165
-0.013267198
0.010442615
-0.081311546
0.19578472
-0.06429254
0.0054166806
-0.16095331
0.037766583
0.102826566
-0.3274549
0.7797076
-0.1609509
0.2686729
0.044908326
0.07523144
-0.45702934
-0.3666452
0.20149423
-0.26652426
0.29916528
0.21729833
-0.06909768
-0.1892212
0.380454
0.36539835
-0.03027383
0.19173396
-0.04701899
-0.018980721
0.25844246
-0.17986166
0.0784316
-0.61419725
-0.24119358
0.022325285
0.12656659
0.055304803
-0.0316161
-0.027628709
0.19981031
-0.057950083
-0.051478263
-0.25143918
0.09509225
0.032659482
-0.38582653
-0.344127
0.19973809
0.43730786
0.09994095
0.17976987
-0.0034730535
0.018831685
-0.05006968
-0.15633179
0.120684884
0.014647152
-0.16261402
-0.019894771
0.23002346
0.0117290495
0.03482634
-0.8139957
0.24743721
-0.06801926
-0.114226095
-0.008772782
-0.037771475
-0.08036861
-0.13857923
-0.06470565
-0.39517903
0.108692355
0.11508069
-0.086242825
0.0410176
-0.20376758
0.07781737
0.10663905
-0.0327134
0.21067601
0.0012816163
-0.1990139
0.061168958
0.009120086
0.07434059
0.0020295165
-0.025424382
0.019690946
0.30894732
-0.17546248
0.190136
-0.10125652
-0.15645553
-0.05037785
0.045552485
0.19760884
0.011352409
-0.034631297
0.10077788
-0.17585987
-0.042818595
-0.30913615
-0.22906697
0.031707607
-0.023564994
-0.010757583
0.02645951
-0.041784458
0.2638711
0.15801068
-0.04085082
0.07871166
-0.039854273
0.10598212
0.07847776
-0.071547806
0.11346136
0.090699494
0.24858098
-0.03595498
-0.0521025
0.04582564
-0.13855249
-0.04668044
0.057368953
-0.15325738
-0.034639575
0.05601273
-0.16570796
0.1231081
0.21450233
-0.36775944
-0.4074292
-0.15422556
-0.11119618
-0.19128703
0.10530125
-0.075432815
-0.013700454
0.04523748
0.015162796
0.25470218
0.17261715
0.18958195
-0.21273895
-0.1818911
-0.042375714
0.041080523
-0.02381168
0.22586668
-0.04226959
-0.07474336
0.0383712
-0.019744968
-0.12946647
-0.026882596
0.022219611
-2.1533557e-05
-0.05936821
-0.021894438
-0.06661062
0.011794871
-0.03567214
0.005700617
0.008783662
-0.08470926
-0.0027138693
-0.07889789
0.2632715
-0.05538495
-0.17312342
0.21020302
0.050713096
0.2565025
-0.051666223
0.046902772
0.045267075
-0.03288801
0.030898111
0.0035283307
-0.01762802
0.19983898
-0.032064393
0.014954016
0.110585764
0.17351739
-0.015825251
0.074738026
-0.029830342
0.056584813
0.17860462
0.07930323
0.10650309
0.12507537
-0.07970467
-0.03463273
0.05347545
-0.16950233
-0.03105725
0.104575545
-0.065071456
-0.0067179166
-0.03173099
0.031894807
-0.061957013
0.016072271
-0.05411812
-0.039771106
0.15097739
-0.00757366
0.0022920826
0.06123502
-0.106947005
-0.036601983
0.022224452
0.21427609
-0.06468636
-0.03991336
0.014517929
0.028229572
0.024489965
0.06365052
0.15750706
0.028764317
0.01331827
-0.051369343
-0.05303647
-0.026473725
-0.16052102
0.0754316
0.066180035
-0.09810533
-0.041160665
0.14367372
0.009699084
0.14755836
0.19889839
-0.027579175
-0.18628514
-0.05481036
-0.00059430447
-0.15425855
-0.13012646
-0.009787835
0.23489225
0.029385345
0.019810548
0.099641286
0.1011931
-0.056620985
-0.18544513
-0.09754592
-0.23756325
-0.15096617
-0.13580662
0.070297085
0.118858166
-0.074201636
-0.06114914
-0.28355175
0.028327359
0.07699301
-0.28444904
0.015499856
-0.24063686
-0.05397139
-0.024825662
-0.058757104
0.000841246
0.3121586
-0.058297426
-0.12716235
-0.013766495
0.03562897
-0.13261801
-0.46461377
-0.02292238
-0.057057794
-0.39662668
0.08470523
-0.013900014
0.04628426
0.078142665
-0.034412377
-0.07441265
-0.18614718
0.085647665
0.08789303
-0.10523308
0.091299854
-0.23971482
-0.09868444
-0.068613015
0.24435502
-0.16487525
-0.090266265
0.02805008
0.06515954
0.11667952
-0.06665507
0.009297667
0.17093708
-0.043154933
0.14659037
-0.031142145
0.0140998885
-0.03107761
-0.08981965
0.011361013
0.17626928
0.11082179
-0.16893712
-0.08607196
0.06877654
0.11530017
0.0064802757
-0.049300484
0.0061571025
-0.095905274
0.006419653
0.02115076
-0.06674266
0.041880954
0.0017020386
0.10912192
-0.030963076
-0.033319738
-0.042653415
0.05498256
-0.06586439
0.29301348
0.03909585
0.22401787
-0.039372984
0.1871637
-0.13535672
-0.013837066
-0.06946003
0.122278936
0.04639941
-0.019911135
0.14739797
0.095910296
-0.03458855
0.051194757
0.08419706
-0.0904831
-0.06853931
-0.06109858
-0.018887963
0.063618
0.17951964
-0.06216462
-0.053432714
0.03891948
0.04277276
0.04307896
0.20817275
0.1448024
0.062152397
-0.059815265
0.09321167
-0.16960439
0.3769096
0.05340226
0.021347318
0.051155694
-0.00795779
0.16596675
0.101031795
0.12683152
-0.11432197
-0.3838892
0.042288944
-0.07526418
-0.10806392
0.13461058
0.15652138
-0.0055781486
-0.1368464
0.020427138
-0.07486705
0.07475751
-0.09947517
-0.13146189
0.0841179
-0.06855729
0.014339916
-0.023031775
0.076206915
-0.078377575
-0.25044626
-0.093885355
-0.051899742
0.1017027
-0.2905238
-0.032315157
0.022348408
-0.12334053
-0.07622254
0.035753112
-0.04066272
0.46463716
-0.016082399
0.015390803
-0.30274355
-0.12485652
0.006405578
-0.32400075
-0.08210817
0.045814108
-0.119059235
-0.053886533
0.290195
0.098233484
-0.019563846
0.09158129
0.32708296
0.093802005
-0.038681567
-0.036643155
0.05907563
-0.17673261
0.14503226
-0.11966476
-0.0050741993
-0.03222099
0.088799626
0.028426016
0.06826239
-0.3710917
0.10692864
-0.014609022
0.093125686
0.1163339
-0.0014348882
-0.049090542
0.086925
0.054045435
0.017857933
-0.007445413
0.11499905
-0.05357844
-0.04669017
-0.04759592
-0.043981876
-0.009534198
-0.040542353
0.02152127
-0.03440015
-0.07472924
0.04224697
0.071617715
0.004550086
0.12305247
-0.13481097
0.049143024
-0.043130483
-0.011976095
0.073614076
0.020955397
-0.076133795
-0.04268712
-0.027610306
-0.19277696
0.057286847
0.097100876
-0.05365387
0.021754125
0.04197781
0.008853206
-0.16526371
-0.035991155
0.1902631
0.027104324
0.06130153
0.116817795
0.35234332
0.25677332
-0.05741699
-0.01074083
-0.38261172
-0.24878162
0.1858346
0.11297462
0.07234488
-0.0137785
-0.06132053
-0.23977028
0.26868358
-0.34127206
0.07530366
-0.028218754
-0.04910553
0.052005738
-0.34961414
-0.08358289
-0.058717437
-0.026810084
-0.087544575
-0.039333683
-0.17071372
-0.16934803
0.041766882
-0.011168962
-0.23357019
-0.010358672
-0.013605276
-0.015071303
0.29309103
-0.1692096
0.0030635898
0.055885706
-0.04389102
0.117198735
-0.02486601
-0.037917703
0.021503532
-0.014696633
0.2121577
-0.048417635
0.21322441
0.19695374
-0.0398031
0.18898118
-0.058388088
0.36817235
-0.11821607
-0.18765356
-0.10580028
-0.024877673
-0.414086
-0.020818638
0.08391658
-0.030215679
0.022003371
-0.1566496
-0.006749742
0.008298664
0.021633241
0.034477916
0.031232592
0.27164674
-0.035866167
-0.18246074
-0.059594687
0.002449539
0.015889434
0.018506614
0.11707052
-0.47398183
0.107211575
-0.03139104
0.11024578
0.008279715
0.11995336
-0.09368408
0.20517063
0.18152936
-0.09769526
0.05123233
0.01224653
0.26884866
0.02476033
0.11449908
0.015805788
0.057676844
-0.07065314
0.015903022
-0.23968752
0.12242388
0.08108843
0.084979646
0.029243797
0.17486255
-0.12548606
-0.06164857
-0.05544186
0.21467507
0.08236118
-0.034893047
-0.22787665
-0.21565622
0.03261236
0.0027047805
0.1141839
-0.0890917
0.16099404
0.13000156
0.002476434
0.047402967
-0.13654402
0.009424228
0.03730252
0.0073525794
0.070054
-0.13363962
-0.12220446
-0.61942846
0.050315186
0.02082438
0.30590254
0.34064817
0.35341334
0.2469852
-0.29141846
0.037064385
-0.41752458
-0.4924786
0.54227227
-0.18087243
0.07399395
-0.021559162
0.12277869
0.014331991
-0.21536672
0.08672032
-0.33357126
-0.028358176
-0.1591086
0.03554217
-0.29860556
0.38457063
-0.057426125
-0.05034902
0.05109342
-0.06775002
0.037401397
-0.04694098
-0.1171498
0.30902818
-0.44854778
0.08410289
-0.02427189
0.18509348
0.120056294
-0.061989963
0.051839896
0.47737288
0.29173273
-0.022988778
-0.05322608
-0.07227003
-0.0023565001
-0.18463644
0.062669605
-0.33005798
-0.040029988
0.2876938
-0.11706496
-0.140584
-0.4945378
-0.06999701
-0.118007354
-0.22180703
0.12565751
-0.22745807
0.06422374
0.090895094
-0.02702969
-0.06168083
-0.15384303
0.28624442
-0.1738416
-0.24553457
-0.026774537
0.0540062
-0.0013674702
-0.13857824
0.19852634
-0.58272165
0.027914729
-0.027704844
-0.015915519
-0.067767866
-0.17478968
-0.0007511356
0.08769501
0.0035022818
0.09116202
-0.044525255
-0.076088905
0.2094339
-0.016259372
0.20959167
-0.06516378
0.025029972
0.038660664
0.16868153
-0.15016824
0.08721957
-0.10699617
-0.13139486
0.035424028
0.24742745
0.010822704
0.01162867
-0.00069199566
0.117287785
-0.09054273
0.044889342
-0.23824596
-0.30840683
-0.049051788
0.026968097
0.070999004
-0.06857742
0.16105495
0.23106599
0.030808255
0.051339794
-0.0141854985
0.0013684072
0.049870864
0.10689586
0.0009860309
-0.058321
-0.068068735
0.06207762
0.025106946
-0.037250888
-0.020395678
-0.060081307
-0.08989261
0.1531528
0.09263076
0.025265113
0.030816795
-0.26475763
0.10865065
-0.034593534
-0.15959395
-0.2626173
0.014640168
-0.02410404
-0.16210374
-0.056909174
-0.15018475
0.00912716
0.05855543
-0.0027674418
0.09049946
0.040694
0.11095425
0.019329663
-0.12665476
-0.06736767
0.030548057
0.08117414
-0.1762545
0.16216655
0.10159324
0.06754781
-0.053322334
0.082354285
-0.1520532
-0.065536864
0.022215514
0.12412655
-0.009542655
0.031532478
-0.093259245
-0.010542789
0.022105642
-0.13756427
-0.06134224
-0.05909632
-0.23450871
0.20793134
0.16857146
-0.05210508
0.13187012
0.037326593
0.13716747
-0.011562642
0.10127505
0.03164826
-0.16956152
0.030130971
-0.0091626635
-0.06483866
0.067663126
-0.08433979
-0.028634775
0.19879073
0.031288613
-0.054129705
0.08477187
0.050859686
0.060397718
0.05079148
-0.055673555
0.15722288
0.16118307
0.02365201
0.027217956
0.016070731
-0.013513415
0.05948776
-0.02684486
0.031649865
0.057995316
-0.0252017
-0.04362955
-0.18812165
0.034244075
0.0057622287
-0.05067039
-0.08373419
-0.04251727
-0.082351774
0.11457606
-0.09997805
0.01447828
-0.038045775
0.16902459
0.019316163
-0.058569796
0.08331211
0.06392194
-0.034074005
0.0025616728
0.06827299
-0.02180518
0.028651992
-0.13655487
-0.08679348
0.0473007
-0.07021063
0.097307675
-0.12808873
-0.13896441
0.04335198
0.09368322
-0.21002918
0.07165259
0.14386827
0.1626794
-0.15611586
-0.039468024
-0.03167815
-0.14601628
-0.13186115
0.052372057
0.0673304
0.04108982
0.009647382
-0.120997235
-0.032174565
-0.21055362
0.03574861
-0.09895931
-0.049010083
-0.09249598
-0.047076058
-0.11942009
0.042886272
0.0092746625
-0.03443172
0.030398956
0.019710377
0.20705095
-0.020179437
-0.09653657
-0.02592677
0.02437677
-0.049205754
-0.04880786
0.08621629
0.05311665
0.052311122
0.046971552
-0.055860534
-0.063159965
0.068692625
-0.34040555
-0.0034971207
-0.005327147
-0.12635362
-0.004951237
0.010598246
0.071057186
0.022573039
-0.05661245
0.017252829
0.013453786
-0.119477056
-0.22762859
0.04142878
0.091422915
-0.08120877
0.062115677
-0.03345453
0.011590416
-0.105480656
0.15876594
-0.020454863
-0.041196663
-0.02168157
0.009663654
-0.032098625
0.1433339
0.02739178
0.039122075
0.133452
0.006712316
-0.06171947
-0.10564783
0.06627958
0.07375342
-0.030762
0.06395275
-0.0073591233
0.078793585
-0.02663589
-0.08093005
0.06974668
0.06557562
0.09176852
-0.08749254
-0.045391772
-0.0046893116
-0.011975188
0.09510867
-0.039480936
-0.029023703
0.013227196
-0.06104297
-0.07929108
0.16090395
-0.02334163
-0.05516338
0.037619043
-0.021375049
0.04176441
-0.06136703
0.0010188352
-0.043301743
-0.048424892
0.14357215
-0.04407648
0.08148662
0.10649348
-0.051576115
0.07203526
0.11140774
0.020901792
0.1022731
-0.1553628
-0.07935918
0.11371635
0.024985472
0.015273756
-0.1323278
0.14236777
0.20488682
-0.14825603
0.19785203
0.21651612
-0.048356492
0.05319803
0.020180976
-0.032779932
0.2922504
0.15810852
0.13086821
0.038986783
-0.071951136
-0.055449735
-0.051167987
-0.2341893
0.08959846
-0.037988186
-0.0618246
-0.065044984
-0.25082695
0.14043975
-0.04105574
-0.10691126
0.0010694735
-0.0135405995
-0.32510093
-0.05412309
-0.124268346
0.049511697
0.18902822
0.037484072
0.019277621
0.05060223
0.06230767
-0.088133216
-0.19783328
0.023993462
-0.035331298
0.009137446
-0.12369138
-0.036865443
0.03225678
-0.036973555
0.017923981
0.013268062
0.02723853
0.28665584
-0.046504598
0.07580857
-0.0782682
-0.04196453
-0.10499563
0.07895062
-0.12133472
0.2035991
-0.3009086
0.032961525
-0.06708926
0.040643178
0.15619616
-0.20826837
0.08858685
-0.06823027
-0.057644214
-0.018679272
-0.0028411828
-0.11219233
0.066283256
0.15291134
0.07682948
0.022094771
-0.11377386
0.031750385
0.059324965
-0.12841609
0.03297157
0.058587532
0.0039496375
-0.123039946
-0.082470186
-0.056712653
-0.21746331
0.0944696
-0.06091949
-0.042466596
0.14963864
-0.085236095
-0.14508076
0.10766611
-0.046382256
0.02836722
0.012247582
0.026746558
0.23636146
-0.09066409
-0.0697663
-0.030708723
0.040985342
0.112268955
0.004939848
-0.012021977
0.03909125
0.071742706
0.18938024
0.046273146
0.14851283
-0.02139457
-0.034702342
-0.065644
0.0470304
0.20057337
0.04768898
-0.14750338
0.008482115
0.014471892
-0.22503261
-0.004757913
0.016383175
0.105843306
0.08204596
-0.08411819
0.052580327
-0.08215175
-0.013166239
0.007130257
0.17410327
-0.2829642
-0.053853758
0.19995283
0.15397097
-0.006495981
-0.12600614
-0.121031135
0.26318035
-0.00040287932
0.17546299
0.14094982
-0.08417513
-0.0681129
-0.29315498
0.08234134
-0.09289718
0.031231156
0.1007294
-0.041124903
-0.17363329
-0.0985125
-0.02966932
0.16029444
0.004152169
0.0226198
-0.020108502
-0.04243516
0.30504343
-0.14602539
-0.10628448
0.03274671
-0.029071817
0.16900231
0.1742571
0.009192593
-0.043405563
-0.119623855
0.22341327
-0.06777673
0.209026
0.029568512
-0.028895767
-0.07447492
0.10069452
0.3107011
-0.035159357
-0.10309131
-0.15876396
0.16248046
-0.02929962
0.00500889
-0.20535941
0.045003314
-0.0838345
0.04905887
0.07556903
0.07862351
-0.022130845
-0.041591555
0.14500211
-0.11062104
0.06347133
-0.14097485
0.020862779
-0.015654424
-0.17009984
0.035381205
-0.117267795
-0.5161279
-0.045773063
0.13187814
0.07884452
0.075659305
0.09659114
-0.111031316
0.15425189
0.016794039
-0.010084893
-0.026022479
0.0010994355
0.033561517
0.0107947625
0.12824869
-0.1242072
0.041857585
-0.043186113
0.15271026
-0.24038237
0.07884925
0.14099683
-0.004890763
0.039161492
0.23709437
0.038365606
0.0045841956
-0.02010948
0.18929113
0.013010856
-0.057768185
-0.021685107
-0.083040476
0.012026598
0.0052221925
0.2079614
-0.123389326
-0.1364543
0.2092138
0.15468575
-0.066457234
-0.17793088
-0.008891338
0.043869358
0.015787216
0.16008279
0.11070311
0.065694146
-0.20228727
-0.042152148
-0.06409934
-0.5917464
-0.2960627
-0.05862731
0.5281573
0.24145387
-0.060396813
-0.16724135
0.25284925
0.03696379
-0.31690478
0.5132188
0.4685833
-0.0509277
-0.15611891
0.16679944
0.14473991
-0.21458428
0.18689927
0.26998842
0.009848568
0.3289815
-0.22948578
-0.6454195
0.11078646
0.11021518
-0.0035369343
-0.04000797
0.23213646
0.21985127
-0.22304252
-0.28373268
-0.33016917
-0.048796292
-0.061981667
0.38954416
0.023367874
0.014940895
-0.16971378
-0.0018289206
0.033915166
0.43913674
0.32098767
-0.01647911
0.1560666
-0.22955266
0.36422604
-0.065274574
-0.29177347
0.47359404
-0.2957003
-0.20832987
-0.07707306
-0.32171923
-0.09799015
0.066379234
-0.021757673
0.22633864
0.0971373
0.059606124
0.023085326
0.1820427
-0.03148127
-0.10873473
-0.2512944
0.06412658
-0.04896236
-0.107062384
-0.20176953
0.080343455
-0.7611072
0.19064653
0.015957579
0.117416106
-0.06718874
-0.0093256915
-0.22450541
0.25625065
0.08488804
0.2702888
-0.0171882
0.107066974
0.14265998
0.018650018
0.16017213
-0.16997814
0.008986083
0.027184326
0.0772624
-0.22331102
-0.19314693
0.095158
-0.310573
-0.05741971
0.26465812
0.21427298
0.0033019674
0.010895761
0.028503003
-0.048142675
-0.0067587085
-0.10008315
-0.18659246
-0.07263403
-0.14574717
0.108007506
0.1364065
0.083727665
0.3091409
0.2135262
0.13005006
-0.30510083
0.031914007
-0.21675894
0.15714423
0.13225384
0.2874368
0.033900533
0.08894449
0.04267382
-0.02236031
0.061671644
0.03109279
-0.0032891522
0.021469397
0.0043420894
-0.03473849
0.16644321
-0.028907897
0.20259027
0.08787302
0.024514778
-0.085404545
0.026276553
-0.07819035
-0.04973859
0.021814875
0.10228903
-0.118568726
-0.24886218
-0.08151508
0.17466536
-0.12604569
-0.004993429
0.049957618
0.18174842
-0.007927244
-0.026385847
-0.10299945
-0.010625122
0.051482506
0.05687194
0.10879985
-0.034148417
-0.06654833
0.080422044
-5.1749635e-06
-0.065674335
-0.16717601
0.01900515
-0.019082183
0.11586196
0.26102325
-0.062511675
-0.007063414
-0.12382807
-0.018982185
0.062189475
0.08296752
0.14241964
0.008724693
0.26558596
-0.06951088
-0.019826429
-0.022577869
0.09542534
-0.07762464
-0.34408173
-0.061699253
-0.027290028
0.001461141
-0.24488284
-0.039018143
-0.0199167
-0.018993575
0.03426152
0.035833016
0.003637406
0.035255864
-0.16506931
-0.041686475
-0.20902482
-0.015326789
0.13636953
0.10014565
0.042845324
0.07790361
0.15791073
0.12283653
-0.15239236
-0.039964102
0.16749804
0.10728248
0.14639251
-0.009199255
0.06842888
0.038999576
0.0147379665
-0.08852006
-0.24812147
-0.06656683
0.19648507
-0.19071244
-0.014255043
-0.47068503
-0.051771823
-0.06074845
-0.04399707
0.048267264
0.026968982
-0.019004926
-0.08404391
0.13324434
-0.02479309
0.03899392
0.11311616
-0.14556454
0.0032502841
0.102323554
0.029125663
-0.12380673
0.08070261
-0.07821036
-0.033145458
-0.16006233
0.05229371
0.1369056
0.11873639
0.020266507
0.021556906
0.021150652
-0.15534787
-0.089549184
0.04099596
-0.16343145
-0.02041369
0.031109119
0.0779705
0.113582425
-0.12481162
0.023918625
0.066587344
0.19708714
-0.02258598
0.007284324
0.025546217
0.039686702
0.026184201
-0.19499594
-0.033594623
-0.0062976796
0.0932769
0.031238295
-0.0372149
0.007916483
0.11075586
-0.01857139
0.012194392
0.06349375
-0.118609846
0.14855632
0.013844655
0.069611005
0.043095384
-0.1330485
0.06787985
-0.045611568
-0.03304732
0.016435519
0.09227085
-0.034447618
0.15338275
0.116721414
0.050814103
0.1158204
-0.032512113
-0.07824509
-0.0064148786
0.05522685
0.025987707
-0.1158368
0.16688578
0.03043866
0.118722916
-0.10817426
0.0062223775
-0.017369987
-0.055591132
-0.11115773
-0.06241229
-0.059141487
0.012450136
0.07746853
0.016251642
0.26551208
-0.0045129987
-0.05726745
-0.08207542
0.1577627
-0.11423166
-0.050202202
-0.10360628
0.0251589
0.16348976
0.1769897
0.06616544
0.10831828
0.1486926
0.11335413
-0.06272534
-0.019576306
0.014702849
0.05867617
0.046647083
-0.100753956
0.111800075
-0.059488226
-0.0060529243
-0.17790043
0.09220875
0.04670715
0.017578898
0.08415607
-0.044507116
-0.38998502
0.025252368
0.03512466
0.036153194
0.0048776832
-0.06413074
-0.057580594
0.10285768
0.03587608
0.030550584
0.09294652
0.06914395
-0.12572947
0.0013082746
-0.078464545
-0.015915677
0.011049488
0.01909659
-0.019252218
-0.1352468
-0.0681823
-0.04164734
0.070194446
0.14879833
-0.025203357
0.0017131083
0.009289309
-0.06983149
-0.22415195
0.064991586
0.23875841
-0.03686082
-0.014854999
0.06705911
-0.004437962
0.0012560477
-0.31059346
-0.10769639
0.20011011
0.1258553
0.16401963
0.18779124
0.1827968
-0.16235185
-0.018080458
0.033907026
-0.019401211
-0.24550363
-0.078369156
-0.119750015
0.015731625
0.042425476
-0.03808067
0.050177928
0.076536745
0.29333252
-0.032835573
-0.19763266
-0.038680397
0.030091949
-0.19939259
0.122844525
-0.003751751
0.026634963
-0.0846433
-0.13060446
0.005797552
0.10762425
-0.013817475
0.013293822
0.067555696
-0.15486339
0.07074436
-0.1197201
-0.050168373
-0.12913026
0.00396297
-0.10244797
0.037142638
-0.0916564
-0.06238612
0.1701267
-0.062598936
0.03168821
-0.032271553
0.010487408
0.021843929
-0.22866862
-0.06218741
0.16012381
0.23034757
0.03993407
-0.017242473
-0.21472567
0.064020894
-0.032415845
0.008219415
-0.08924091
0.078231
-0.10445564
-0.18243314
0.039483413
0.02881775
0.002049388
-0.019457472
-0.17353678
0.034507938
-0.15011434
0.0071067708
-0.09877786
0.121234946
0.0363746
-0.034532186
0.0042840918
-0.0024904779
0.16506018
0.061700597
-0.18234436
-0.082198754
0.045356195
-0.03310762
-0.071758844
-0.048605923
0.031473782
-0.018525187
0.0065402705
-0.033488598
0.15000495
0.12467566
-0.009913479
0.024554456
0.17589138
0.10789764
0.05381757
-0.08425831
0.0922978
-0.10850002
-0.05234013
-0.061564002
-0.10411918
-0.04548009
0.18969245
0.052547857
-0.055401213
-0.3444457
-0.024848256
-0.015953649
-0.10740062
0.0054253936
-0.068323314
-0.048025027
0.23981225
-0.044330955
0.13091391
-0.12562001
-0.06426388
-0.49156433
0.21645859
0.2893727
0.12520126
0.05177116
0.2713356
-0.2538444
-0.15162425
-0.06823039
0.1437171
-0.08015435
-0.20900157
-0.368389
-0.3504176
0.14565915
-0.3122999
0.017355982
-0.03221788
0.1840227
0.045718353
0.021401796
0.1028552
0.14650835
-0.045098845
-0.10014765
0.29536867
-0.018142285
-0.031884953
-0.13637899
0.26909408
0.01720601
0.076169476
0.005451043
-0.044418238
0.10273339
0.056921016
0.020024303
-0.025177969
-0.104807466
0.11176339
0.01858823
-0.069859855
0.013302657
-0.19067414
-0.03758322
0.057010293
0.008999502
0.031337235
-0.0044000037
0.032688268
0.042575244
-0.04056771
-0.15344657
0.015188085
-0.004654089
0.24824604
-0.0639268
-0.08059572
0.08171289
-0.03553896
-0.16102952
0.0123353945
0.23692566
-0.016255982
-0.07009671
-0.0029518618
0.01318534
-0.14869818
-0.15716198
0.34302336
0.00025615116
0.18893325
-0.174706
-0.26424116
0.29147217
0.12602897
-0.055031046
0.0046104286
0.33804366
0.039115474
0.04260266
0.023719825
-0.12619539
-0.026198227
0.15183118
0.17270917
-0.015313644
-0.055889964
0.05014128
-0.024598785
0.017046083
0.06416555
0.13947248
-0.055958312
0.017243456
-0.00086322986
-0.12759723
-0.16674833
0.06248082
0.19575505
-0.005452725
-0.0012255488
-0.0046865386
-0.05444121
-0.07412472
-0.5186297
0.40308258
0.16632648
0.39573202
-0.04387267
-0.0034562175
-0.83901846
-0.33755496
0.032971796
0.14190227
0.025929304
-0.0075609004
0.50390285
0.48877746
0.20809148
-0.7875083
0.1783474
-0.27666345
-0.047036827
0.32070932
0.43297857
0.0035265358
0.10316442
-0.14152108
-0.15833126
0.024415705
0.22778225
-0.24261478
-0.2584291
-0.18490432
0.056888103
0.04262949
-0.00853024
-0.5998733
-0.021655908
0.17389046
-0.07466384
0.122796185
0.036440395
-0.25640178
-0.17218058
-0.014141115
-0.0012176451
-0.06911095
-0.6034044
-0.035410535
-0.01735585
0.43635413
-0.01856743
0.20384273
-0.2971823
-0.010862093
-0.38780951
-0.13975653
0.034423273
-0.33728057
-0.54729754
-0.07674694
0.10709007
-0.14155175
0.034289632
-0.0092089595
0.02877185
-0.003545324
-0.051088188
-0.040153034
0.17909808
-0.2653465
-0.17867069
-0.13701063
0.18385716
0.017609844
-0.19981723
-0.011261399
-0.25233757
-0.2610875
0.09659924
0.17393517
-0.17961018
-0.092625655
-0.08581566
-0.14107251
0.064994186
0.02426047
0.21398848
-0.04631622
0.1740537
0.009683575
-0.13059166
0.270871
-0.349811
0.010399712
0.0077045225
0.17247277
-0.0041127014
0.0686933
0.20808533
-0.15828057
-0.0057978923
0.21297778
0.21997325
-0.017529817
-0.051496625
0.13569778
0.09269205
0.031485315
0.20829298
0.061892148
-0.0200769
0.13022883
0.31915852
0.090864815
-0.12713847
0.02760466
0.13763513
0.018997453
-0.25322935
0.0043240963
-0.30065462
-0.07974366
