0.028261999
-0.37426108
-0.4884862
-0.3364594
0.19374679
-0.17556806
-0.012462769
-0.012186797
-0.12204065
0.10549032
0.15371487
0.1758003
0.2415194
-0.013892053
-0.10921886
0.16399838
-0.19044484
0.33968067
-0.08779521
0.16181573
0.7356139
0.019901704
0.25326887
0.16655579
-0.43162513
-0.685133
-0.09053144
0.35888988
-0.39437276
-0.12056653
-0.2030466
0.12839793
0.030388787
-0.025233744
-0.7761165
0.28717113
-0.5128825
-0.7052132
0.172461
0.2239534
-0.029549737
-0.11124653
0.01342508
-1.1488832
0.27645153
0.2052257
0.032646995
-0.7989789
-0.057791915
-0.2939089
-0.0059567625
0.07968922
-0.061022907
-0.34012935
-0.32019386
-0.04838701
-0.4463751
0.014918123
0.17438038
0.28271335
-0.0013344538
-0.23800637
0.22272083
0.12453088
0.08889758
-0.1280958
0.020998325
0.14711656
-0.7762571
-0.012224442
0.05923811
0.14324936
0.36916405
-0.12589782
0.0713019
0.38226396
-0.10471742
-0.19773339
0.0075681126
-0.14232206
0.16045797
-0.14660597
0.053644788
0.16397077
0.024070486
-0.2685543
-0.08487179
0.15012799
-0.36644584
0.12995315
0.0014531016
-0.021640152
-0.024222245
0.05832991
0.04894058
0.023241622
0.14439657
0.111525215
0.2590794
0.10472927
-0.02570395
-0.02314391
0.004784294
-0.0510915
-0.017899532
-0.017047748
-0.030576017
-0.10172528
-0.08812274
-0.8207719
0.17205516
-0.23789394
0.0757486
-0.0325295
0.10140905
-0.05890616
0.18596098
0.018423118
0.12171525
-0.11218935
-0.0051267925
0.19865137
-0.15470445
-0.27137953
-0.10223184
0.16826262
0.25658906
0.06610761
0.06932065
-0.1224455
0.27160773
0.090327166
-0.22982095
-0.34822777
0.21444789
0.17046021
0.06797128
-0.050870653
-0.08236838
-0.009143585
-0.28451505
0.007996147
0.24016346
0.29067883
-0.11186782
0.2082389
0.052046783
0.093071476
-0.022816267
-0.17033325
-0.0983846
0.0886646
-0.10477327
0.009083425
-0.21626952
0.04641297
-0.01606781
-0.011016554
-0.18535772
-0.14051461
-0.04157666
0.041888967
0.030790677
0.075302534
-0.05986137
-0.15300766
0.08641725
-0.09806527
0.37442026
0.55776304
-0.15520889
-0.05651963
0.047016997
-0.12981366
-0.07562953
0.119357444
0.473959
0.09154226
0.14028788
0.009899469
-0.0801461
-0.29990953
0.06542911
-0.11031142
0.21682861
-0.0028856632
0.30028602
0.02276968
-0.10178123
-0.04247847
-0.16436389
0.14295387
0.18108721
-0.2900515
0.040282086
0.44076544
-0.33238223
-0.058837947
-0.5485482
-0.2251329
-0.25441095
-0.012826615
0.29923406
0.10707466
-0.2642455
-0.9126386
0.11189275
0.03988349
-0.32575276
0.11256842
0.08118367
-0.16548064
0.006173467
0.2568041
0.04253523
-0.027209312
0.15136431
0.1069951
0.012106579
0.08117428
0.0071264463
0.13861132
-0.0031839942
-0.11314886
0.22467658
0.022257011
-0.15768455
-0.024783313
-0.0851435
-0.07021969
-0.073912665
0.048067153
-0.09821522
0.060847364
-0.019109093
0.09027678
0.06566671
-0.11691792
-0.10140014
-0.17375363
-0.08118827
0.3327562
0.027560445
-0.10319185
-0.0834809
0.08066976
-0.12858303
-0.12618618
-0.12799676
0.17913057
0.2348873
-0.08525954
-0.1413829
-0.22063409
0.21617942
-0.096313536
-0.22967786
0.21252172
-0.043480344
-0.040703695
-0.26726174
0.18787709
0.037750423
-0.18433219
-0.59615403
-0.03064638
0.19139877
-0.6933474
0.21576132
-0.09867814
0.011354037
-0.123683356
0.19861704
-0.00042943732
-0.10093189
0.10691046
-0.091901064
-0.25541103
-0.15218742
0.11874945
-0.0013969037
0.123090744
-0.028812956
0.02694469
0.0473208
-0.11899616
-0.03409833
0.24910027
0.10111216
0.22068712
0.02660286
0.24700463
0.31990492
0.007999685
-0.10659681
0.050200224
-0.034723725
-0.25794837
0.035761517
-0.04578133
-0.006213801
-0.1893716
0.28535923
0.010909407
0.047033105
-0.054936808
0.09189998
-0.16876486
0.26004964
-0.08393403
-0.08369674
0.011384039
0.02556489
-0.025513558
-0.007827453
-0.19841573
-0.15600501
-0.4264996
0.062030073
-0.2538748
-0.11498225
0.12066464
0.036368307
-0.05936074
-0.098632894
-0.10809768
-0.10307422
-0.03436164
0.031037748
-0.15221173
0.30248272
-0.011350417
0.16334899
0.25945637
-0.11864241
0.08444248
0.030357333
0.3275483
-0.12389609
0.12562746
0.037384264
0.36791644
-0.06975518
0.028164715
0.42315578
-0.06720834
-0.22936705
-0.21277055
0.028256753
0.19017704
0.10055779
-0.00796025
-0.004065695
0.013817525
0.20584135
-0.082515225
-0.10658561
-0.079992086
-0.15911134
-0.2494564
-0.004914797
0.3629003
0.29093966
-0.16820423
0.0013255157
0.39798704
0.008491378
0.013906334
0.27317283
0.035512984
0.05897864
-0.08527731
-0.033237103
0.14187494
0.17995359
-0.37247124
0.06558192
0.036357645
0.21028101
-0.307457
-0.39349923
0.20550443
-0.6149636
-0.33740294
-0.32807523
0.1749456
0.02660891
-0.69093794
0.3155658
-0.04338208
-0.050590776
-0.12382464
0.15726934
0.12874277
-0.031210365
-0.27794197
0.4855914
-0.14594318
0.15072843
-0.27016425
-0.058899347
0.38123134
-0.053912416
-0.045916006
0.47840542
-0.017273676
-0.17597713
-0.1442578
0.3557118
0.014219851
0.18372113
0.2944376
0.2794069
-0.28532583
-0.37452698
-0.06560308
-0.5351835
-0.13034512
-0.10997548
0.14887859
-0.04946443
0.015094412
0.39935327
-0.11983042
0.17436719
0.46101457
-0.052658767
0.4530962
-0.0589682
-0.15420349
-0.3710689
0.19062756
0.20220326
0.085443266
-0.18929176
0.056289516
-0.015189226
0.12788492
0.29726583
-0.1468298
0.005291699
0.24378812
-0.10028487
-0.1643754
-0.06820682
-0.0076956423
-0.19274038
0.23606439
0.035247177
0.3319127
-0.28367752
0.13628004
-0.16302487
0.0018193875
-0.21027096
0.111223355
-0.27190164
0.2177474
-0.16253194
-0.16391085
-0.014128824
-0.31448245
0.016815847
-0.17392842
-0.12277869
0.29683793
0.09705746
-0.06313063
-0.061737087
0.16035524
-0.20564152
0.09680601
-0.04296665
-0.20356463
0.05753565
-0.026824497
0.27351725
0.0432285
-0.38409805
0.11658368
0.013771513
0.083287366
0.18262501
-0.035028763
0.2138464
0.40616128
-0.2650473
0.12582469
-0.24345823
0.07113225
-0.42092913
-0.18925694
0.6041823
0.15437838
-0.16865492
0.12507734
-0.08093936
0.20432597
0.24729505
-0.1110051
0.06427484
0.12513
-1.247235
-0.3943425
-0.48035976
-0.038771443
0.4798771
-0.21184309
0.14241081
-0.60494184
-0.41698316
-0.057228494
0.32511708
-0.11733208
0.10536717
-0.014855915
-0.09174776
-0.27996534
-0.10153414
-0.23014542
0.05075688
-0.10627792
-0.047625724
0.37266356
-0.23914339
0.28657284
0.114852004
0.06560998
0.13943522
-0.15482853
0.05620405
0.45745388
-0.19806907
-0.060576722
-0.12912643
-0.572501
0.559768
0.0799005
-0.086416356
-0.08411928
0.0043819216
-0.14716677
-0.07169097
0.13475062
0.54470295
0.48352212
-0.1415375
0.3578711
0.03791122
0.03520131
-0.5833851
0.23897317
0.034903128
-0.16232806
-0.9744854
-0.028336955
0.055531204
0.16309537
0.30889198
0.1243695
0.3188271
0.44362655
-0.35526475
-0.17832334
0.58773357
0.07670792
0.49988878
0.06010799
0.381098
-0.24323778
-0.08029176
-0.036251474
0.20194307
-0.023042222
0.045502245
0.01662907
-0.855443
-0.0049893144
-0.15013283
-0.17362867
-0.05003719
0.123681635
-0.047267184
0.48512384
-0.19035096
0.50740093
-0.841833
0.045534767
0.21589927
-0.11674449
-0.18660627
-0.05840308
-0.17074735
0.011373631
-0.11188957
0.0064652823
0.038731344
0.06545806
0.030857226
-0.38061026
-0.091701955
-0.12782347
-0.2902805
0.14698541
0.1259212
-0.5218804
-0.20138845
0.12258567
0.022654735
0.20047235
0.18052438
-0.04978016
0.24897465
0.018170979
-0.060616944
0.27372766
0.066453315
0.23856151
0.21046449
0.14479105
0.2690819
0.0021609073
0.11066245
-0.024318501
-0.28222248
-0.32994753
0.018252753
-0.071120344
-0.19228615
-0.1474594
0.07569594
0.042235762
-0.053434186
0.0044014473
-0.07481011
0.11553468
-0.17708252
-0.29102874
0.113898166
0.06960287
0.005755285
-0.1811008
-0.043254204
-0.52307725
-0.09337926
-0.21123795
-0.06674574
-0.52407277
-0.28759825
-0.29307327
0.0044021285
-0.07615082
-0.20849273
-0.0651804
0.07307102
-0.19358063
-0.2047153
0.14431737
-0.0034593386
-0.2349543
0.017872918
-0.029516978
-0.27415717
-0.10969296
0.25140122
0.05885288
-0.03780326
0.28735355
-0.1695858
-0.12052726
-0.1129722
0.120852865
-0.13361631
0.15587401
-0.36124042
0.30364454
-0.095033206
0.008498148
0.26532292
-0.0075661833
0.19038282
0.20837715
-0.115769856
-0.095852
0.04898142
-0.1671509
0.20736332
0.24461588
-0.115697145
-0.004642409
0.19314009
0.1263924
0.06456994
0.39118612
-0.05825333
0.13709953
-0.061418463
0.1507222
-0.24371818
0.0286384
0.021539541
0.022361359
0.027191978
0.084665895
-0.21865755
-0.15698677
0.1316444
-0.22942881
0.09137817
-1.0138623
0.10864918
-0.6278598
-0.21355
-0.1025925
-0.13699684
-0.3079169
0.014477593
0.075236015
0.096186854
-0.098704726
-0.08136743
0.13218352
0.08147073
0.072351776
0.008921211
-0.082219854
-0.038316976
-0.029891515
-0.40978286
-0.04818615
0.20974319
0.110534646
-0.03841029
0.09558096
0.23519553
0.20503758
0.034708127
-0.12700826
-0.039168555
0.15840982
-0.049802605
-0.11481161
-0.14421386
-0.17464052
-0.46568713
-0.7891132
0.052195117
-0.13660742
0.019939763
-0.03537826
0.07436135
0.11925292
0.072425626
0.15435313
0.045607183
0.03282403
0.12571384
-0.011120079
-0.109332405
0.07240274
-0.0377388
-0.10590023
0.027502555
0.06347041
-0.04083922
-0.06757617
0.03575356
0.32697272
0.008753307
-0.45940083
0.0055979895
-0.0353241
-0.3871276
0.0057419227
0.13458285
0.13476628
0.40343422
0.037351422
0.071328685
-0.123904705
0.020748306
-0.17010625
-0.17499238
-0.24559283
0.34820744
-0.07220259
0.124714926
0.049945775
0.15445082
0.14689955
-0.51799226
-0.13186641
-0.022644045
0.1770424
-0.23270582
-0.069538005
-0.07398118
0.055641774
0.10052008
0.01042053
0.101377174
-0.20137766
0.0810134
-0.07623023
0.058650576
-0.49996397
0.038211588
0.19626349
-0.02323224
-0.013938777
-0.04495592
-0.10060181
0.21003088
-0.22169285
-0.07764026
-0.017457644
-0.080168076
-0.15132175
-0.13228498
-0.05994304
-0.055586945
0.14764166
0.023874732
0.06723465
-0.031380083
0.32826927
-0.3494056
-0.13713682
0.051479094
-0.33763617
0.18264525
-0.2110732
0.15048425
-0.1434333
-0.14956927
0.116408646
0.13070539
-0.08459933
-0.08747822
0.26699546
0.0037263809
0.08770115
-0.06467499
0.0005251433
0.011930657
0.050354544
0.044084303
-0.071668975
0.056749724
-0.12393965
0.080891505
0.07195942
-0.18766476
0.062481627
0.17271979
-0.26575354
-0.12636441
-0.07605559
-0.32882887
0.09729638
-0.25748226
0.028723761
0.05264079
-0.20211512
-0.18803921
-0.20927387
0.10956068
-0.17877485
0.04829541
-0.04274744
0.13671353
-0.20015113
0.04455
-0.067602515
-0.090358116
-0.0051554195
0.24523103
-0.20794356
-0.07146451
-0.037415814
0.032398432
0.067280576
0.015896937
0.13424447
0.041190173
-0.041527394
-0.03872788
-0.014037099
0.058303095
-0.33805084
0.06889462
0.05678547
0.040349964
0.078642674
-0.063147
0.17933956
-0.015507825
-0.26691806
-0.07226084
0.15014589
-0.06689361
-0.20630033
0.13658074
-0.010685721
-0.058110658
-0.09004604
0.16676436
0.21986645
-0.14283264
0.19599563
-0.54177374
-0.1393225
0.020775845
0.33271652
-0.11395115
-0.020370819
0.05142785
0.115383014
0.56643975
-0.19608663
0.09556123
0.12588905
0.27822384
0.04230151
0.04837578
0.050010096
-0.23830971
0.29738027
0.060854264
0.13279343
0.020174034
-0.13576783
-0.009310866
0.017600983
0.016856113
-0.05050209
-0.07959418
-0.07304727
-0.012279181
0.030236289
-0.07303266
0.14609711
-0.029029742
0.14430434
0.1829958
-0.015990347
-0.15554652
-0.08688014
-0.17455365
0.09475496
0.25535327
-0.048213612
-0.029599426
-0.038369074
-0.32532087
0.0321848
0.08137819
-0.07112634
0.22660923
0.09041662
-0.04685531
0.1747162
0.28874704
0.08309894
-0.1771427
0.00331888
-0.025438685
-0.03460537
0.10955659
-0.026209537
0.09299719
0.07965827
-0.26678154
0.019205447
-0.0043368987
-0.091794394
0.059249785
-0.08149121
0.0014433046
0.04011539
-0.36133927
-0.061347038
-0.16462308
-0.012042264
0.07870775
0.062708735
-0.02892444
-0.14188185
0.031044617
0.043310687
0.18353109
-0.049007375
0.11491858
-0.0072646765
-0.07234514
0.2845014
0.2564431
-0.04699523
0.018083306
0.008114608
0.03938434
-0.011240945
-0.0023265316
0.053191025
0.10601618
0.041869994
0.11841299
-0.089504145
0.06965485
0.12918825
0.090998046
0.015906878
0.15371998
0.13424118
-0.008325621
-0.16608754
-0.30732498
-0.18036753
-0.012513959
0.104515254
-0.08156692
-0.010914083
0.13725093
-0.03777629
-0.1381957
-0.14377694
0.078490846
0.4567382
0.03695283
0.2852154
0.10464468
0.5250042
0.011361583
0.10370387
0.11268139
0.06174072
0.11880118
0.5091541
-0.0025729167
-0.01630849
-0.0074780234
0.028006066
0.038801152
-0.044924665
-0.35370883
0.06658465
-0.4149446
0.14634313
-0.08683419
0.7574053
-0.03282783
-0.12628159
-0.006717424
0.022128288
-0.068884
0.069049776
0.05427217
-0.17155345
-0.07341909
-0.15807612
0.022169687
0.16857566
-0.037019942
-0.09345569
-0.43552652
0.22071284
0.08290897
-0.08506111
-0.17079157
0.0397944
0.22681512
-0.6672828
-0.07448996
-0.28739914
-0.031311832
0.036390107
-0.25419766
0.05443819
0.24149238
0.09808891
-0.10000834
-0.010489087
0.29383564
0.13721538
-0.1538848
0.15623742
-0.0020561991
0.23816442
0.25731772
-0.051601686
-0.054162186
-0.10503466
-0.20013492
-0.11776333
0.0143514285
0.25009835
0.2095766
-0.34495163
-0.032041915
0.2522508
-0.054470405
0.089860365
-0.36239707
0.022238636
-0.08755572
-0.037400857
0.35803452
-0.1443781
0.20296595
0.05196564
-0.2017154
0.03873001
0.15910348
-0.10748696
-0.17199317
-0.15846731
-0.17090829
0.06530342
-0.11780174
-0.30477557
0.024152221
-0.04843771
0.0056669186
-0.03530847
-0.58992285
0.08860184
0.22237264
-0.07582907
-0.21087061
0.11499595
-0.07685295
0.028342422
-0.01059351
0.28194797
0.18443549
-0.28526637
-0.36305353
0.03460645
-0.41942048
-0.14140648
-0.08892471
-0.21151288
-0.2095862
0.13598232
0.59697235
0.08314031
-0.70930195
0.40810716
0.08286742
0.2602098
-1.1582862
0.07265674
0.12525159
0.06490934
-0.59433305
-0.22190851
-0.20194626
0.2541516
-0.23182772
0.18228333
0.19657624
0.49065834
0.14083634
-0.35429966
0.14179543
0.22924605
-0.11435062
-0.33069563
0.27971804
-0.8073699
-0.090427846
0.16518633
-0.17008348
0.07248416
0.19104418
0.30514428
-0.42950526
-0.19442816
-0.019400792
-0.14224336
0.0076553677
-0.025370361
0.00022451718
0.34234682
0.5200633
-0.22519144
-1.2166548
-0.045063455
0.15787503
0.10966092
0.32626024
0.07505166
-0.15460972
-0.050653372
-0.1523565
-0.22654563
0.20135358
0.13859108
-0.51258624
0.018246531
-0.03408488
-0.023422688
-0.02715817
0.07340007
0.01692196
-0.061424553
-0.10677213
-0.055814475
-0.30597782
0.087864496
0.06489242
-0.08067997
-0.075988844
-0.2502564
-0.20871595
-0.05445935
0.06332104
0.21174054
0.10809974
0.018232426
0.071658455
0.044212315
0.23721524
0.15438661
0.040030774
-0.18912978
0.095063224
0.06740248
-0.03366628
0.07251633
-0.1378921
-0.048257828
0.009841955
-0.04267718
-0.31443393
-0.114485465
-0.35717258
-0.15347248
-0.1499773
-0.12177173
-0.040193707
-0.120788276
-0.010076033
-0.09466733
-0.19998783
-0.22953033
-0.084701374
-0.4253675
-0.2826976
-0.7263714
0.17957594
0.059273154
-0.2369751
0.14375228
-0.0047708303
-0.1349817
-0.08789795
0.15678643
0.059284013
-0.0180553
0.026578441
0.12218638
-0.035191968
0.1708697
-0.04722498
0.06697707
0.057962697
0.2090633
0.12140317
0.06515861
-0.46493134
0.29486144
-0.13611484
0.13410951
-0.10956064
-0.0364604
0.044405706
0.2301504
-0.04015815
-0.08553986
0.095884964
0.07837007
0.029042792
0.19887628
0.057907104
0.20383
0.31674218
-0.07172664
-0.2534854
0.014942641
0.21819775
-0.12377108
0.15018058
0.21982923
-0.1471869
0.27043578
-0.12649964
0.057555657
0.043285575
0.005170539
0.009442729
-0.27106208
-0.07921791
-0.10046111
-0.17518257
-0.15130296
0.26709864
0.26184162
0.080776736
-0.54630613
0.07236231
-0.09416727
0.11592924
0.030890672
-0.08777488
-0.5817385
-0.10520469
0.059343953
0.20372258
-0.015673911
-0.007951694
0.0532548
-0.18031521
0.029397724
0.08848249
-0.14572586
-0.06335662
0.09917731
-0.1361009
-0.03165377
-0.11484757
-0.02726454
-0.1958784
-0.048215937
-0.20843023
-0.06197307
0.17200859
0.0018138429
-0.1753773
0.062543176
0.15210794
0.07762245
-0.07896946
0.059036806
0.048776064
-0.41467705
0.07542141
-0.0070354277
-0.04812824
0.02313209
0.027563775
0.16008179
0.05643622
0.019394336
0.21129076
-0.06777574
-0.10579518
0.13746135
-0.1816326
0.08332526
-0.010485271
0.06492088
-0.05996655
-0.11919373
-0.028998038
-0.103035435
0.27146366
-0.19564939
-0.07356641
-0.73936975
-0.0062174844
-0.10790486
-0.43482968
0.1253022
-0.0366372
0.080955215
0.08771779
0.19702914
0.14729203
-0.0717425
-0.08795662
0.028282518
-0.3519826
-0.034556996
0.134645
0.041559614
0.09932134
0.10579061
0.13315749
-0.14075734
0.13721672
0.12983409
0.077749565
-0.053054042
-0.057597637
-0.08495569
0.18134359
0.3604028
-0.08639204
-0.21842392
0.09168927
0.14910887
-0.02356008
-0.0072793635
0.40870902
0.14342454
0.08711874
-0.045957647
-0.07343386
0.078159265
0.042238444
0.13670567
-0.0501442
-0.45982492
-0.099396355
0.013808454
-0.11220393
-0.015953766
-0.07874616
-0.26611912
-0.03320726
-0.3417386
-0.03680387
0.20253825
-0.080111414
0.27058834
0.02581259
0.48170212
0.124542914
-0.42117292
-0.1326068
0.116566844
0.27141342
-0.009256036
-0.10432191
-0.3357471
-0.0070516323
-0.018019916
0.009101823
0.17357647
-0.009098034
0.24471371
-0.0165592
-0.014121639
0.10407013
-0.048113227
0.10692022
-0.0008454771
0.19826548
0.12814602
-0.21739061
-0.15334775
-0.104032435
0.017414559
-0.018256921
-0.2118063
0.21883027
-0.09217024
-0.09242291
0.03191251
-0.046499427
-0.0072218487
0.11381573
0.034652933
-0.28734016
-0.13647951
-0.03945416
-0.0069393264
0.3121658
-0.036236353
0.1840353
-0.040222052
-0.001974611
-0.09088088
-0.079317585
-0.3324374
0.018580096
0.023131099
-0.26968107
-0.10418259
0.045713224
0.030648427
-0.068801634
0.102728166
0.15280303
-0.011127249
-0.012439066
-0.15668342
-0.064802416
-0.28994417
-0.0005798233
-0.03439204
-0.11030773
-0.03768579
-0.04397527
0.02250453
-0.06490106
0.10787166
-0.024763403
0.18154752
0.0031172577
-0.1678254
-0.3250201
-0.004301163
0.075872965
0.1784586
0.3674752
0.15948212
-0.20123741
-0.10380831
-0.5426766
0.28023386
0.26720044
0.09815969
0.08613158
0.082806855
-0.37826955
0.26147822
0.2129766
-0.14052184
0.06911213
-0.21595033
0.02886428
-0.13397083
0.100065544
0.09140547
0.02876977
-0.08690156
0.34110186
-0.30952984
-0.1335868
0.046231408
-0.30506694
0.017327677
0.06063365
0.0063487245
-0.21433216
-0.14711037
0.38151604
0.0073473854
-0.0058090375
-0.02511749
0.0016071746
0.16273013
0.20808385
-0.054346323
0.19228654
0.34366602
0.08251391
0.13238657
-0.11644426
-0.29027763
-0.15537475
-0.11378084
-0.21511093
0.11179719
0.15046367
-0.11439088
0.093546934
0.31613743
-0.09878339
0.24847235
0.19156455
0.13112126
-0.14243788
-0.12710105
0.018178374
-0.022813251
0.0026019493
-0.058817822
0.1318923
-0.15545957
-0.12347238
0.056888565
0.27524504
0.0030795415
0.16550152
-0.15601602
0.06761416
0.035852175
-0.023587268
-0.19047472
-0.17581871
0.013607111
-0.08049597
-0.03173731
-0.18049185
-0.010049854
0.0035574127
-0.010138518
0.094246596
0.1350663
-0.07115614
-0.029745257
-0.03853987
-0.20865141
0.28975773
0.0047429865
0.18375818
-0.087155774
-0.0045769606
0.12513492
0.03502895
0.04799503
-0.22239408
-0.12722723
0.13494158
-0.04734817
-0.123147145
0.13631925
-0.26824453
-0.038747597
-0.09130317
0.20371683
0.13199908
0.051170338
-0.11803752
0.032729264
-0.11156425
0.08239619
-0.0061299605
-0.108619
-0.022053473
-0.06264381
-0.5943213
-0.050415084
0.20620222
0.06738977
0.18696748
-0.01807421
-0.029836446
0.38030544
0.120522514
0.21400242
0.22793373
0.07812578
-0.112710916
-0.01725572
0.20513678
-0.26590338
-0.015841175
-0.12092501
0.19539872
-0.124607354
-0.31032872
0.1592542
-0.7516716
-0.09930972
-0.17740984
0.33237335
0.013341424
-0.16695832
-0.08497167
-0.056899756
-0.19796588
0.11399581
0.092594214
0.0020967857
0.1357996
0.18254355
0.00831985
-0.28561035
-0.006185496
0.020697383
-0.023281708
-0.31158823
-0.68942314
0.21152425
0.2568017
-0.012194925
0.2112549
-0.0067674145
0.114895165
0.0058187437
0.09922008
-0.015490204
-0.12081593
-0.064615235
0.14272188
-0.30129367
-0.017613895
0.2842514
0.13080107
0.25794542
-0.43980607
-0.07359016
-0.23052338
0.11974459
0.24315792
-0.05223556
0.1436268
0.24824257
-0.08037993
-0.060038403
0.17861591
0.22822167
0.15148708
0.09920059
-0.09996662
0.08990138
-0.031988647
0.12949215
-0.2588418
0.043844823
-0.15882608
-0.07427034
-0.21512516
-0.123677656
-0.023847703
0.13804147
-0.104818836
0.07498163
-0.0061653215
-0.15980092
-0.025410369
0.19596185
-0.06524086
0.054172467
-0.13055797
-0.007932081
-0.051660396
0.05870712
-0.06402918
0.00894193
-0.5087998
-0.034827355
0.24526016
-0.032771446
-0.109850675
0.11120807
0.034454178
-0.037345305
0.022183808
0.22172211
0.1549506
0.14463541
-0.25248653
-0.012151791
-0.07212617
-0.17635053
-0.053794056
0.058181196
-0.20977433
0.17771925
-0.36667487
0.0067865835
-1.5213739
-0.075444035
-0.07653731
-0.06683881
-0.49943078
-0.08124828
0.21442953
0.18250358
-0.39926314
-0.09883334
-0.3498408
0.029850079
-0.49933276
0.08558639
-0.11073142
-0.36678657
-0.012353938
0.031464767
0.09426096
0.14821646
-0.22625503
-0.035668723
0.21092461
-0.51687914
0.26476306
0.021362057
-0.07708054
-0.29118982
0.35627943
0.17083487
-0.104253866
-0.049468193
0.28013468
0.0763659
-0.020982647
-0.2692385
0.02794078
0.29676917
0.03319536
-0.327914
-0.69897926
0.20425926
-0.05592248
0.19054373
0.2896518
-0.12488214
0.26359126
0.15289275
-0.088411205
-0.113632776
0.28371173
0.24197057
0.5694501
0.18061426
-0.089729525
-0.13963772
0.029328475
0.103609726
0.020287478
0.08279692
-0.14333123
-0.07723396
-0.14852713
0.09584063
-0.0434569
0.20983635
0.065381505
0.053626254
-0.07608455
-0.08726297
-0.044886798
0.16386099
0.06559584
-0.0018261238
-0.043987863
0.11111134
0.0026218607
-0.03390395
0.01728574
0.15424521
0.015998555
-0.32244682
0.09778004
0.16029796
-0.21722302
-0.010942113
0.0009989968
-0.035943218
0.026081543
-0.023621384
-0.24043064
-0.16242212
-0.15449761
-0.0022798427
0.043542884
-0.18389764
-0.01611472
0.11312422
-0.1458451
0.08964323
0.1440402
0.23696785
0.013398738
-0.6475982
0.185758
0.2949367
-0.5693146
0.006668737
0.15717433
-0.039071765
-0.12708202
0.03538044
-0.08807101
-0.009570587
-0.085938014
0.09494046
0.005835629
-0.0125872195
-0.22472204
0.09458859
0.1390449
-0.23694889
0.07468175
-0.019690083
-0.17821267
0.14162928
-0.19757386
-0.19550626
-0.26323438
0.2628106
-0.33668318
-0.07937902
0.16396542
0.09262057
0.027604634
-0.07448118
0.010576545
0.0874882
-0.31131667
0.21475463
0.024902739
-0.08448977
-0.0734706
0.095347
0.22577368
-0.23279656
0.1813277
0.29137704
0.14542337
-0.12511721
-0.17451045
-0.12596877
0.057767846
0.2838967
-0.011782348
0.00097510824
-0.012021333
0.024478124
-0.16774577
0.051667266
-0.007763009
-0.085101426
0.11230082
-0.026782157
0.18081973
0.2877765
-0.14009127
0.0074500297
0.1444906
0.21032068
0.19339693
-0.09640732
0.14188395
0.018163059
-0.03391662
-0.15099105
-0.24807101
0.20238799
0.03356861
0.13066596
-0.12173139
0.025640411
0.032107703
-0.009629147
-0.06884193
-0.009096786
-0.09064572
0.025386881
-0.039605513
-0.31459302
0.09881343
-0.025326677
0.031071173
0.12092979
-0.19872527
0.12235621
-0.0348516
0.024079494
0.14061703
0.21552674
-0.1628976
-0.014434325
-0.007072005
0.12607352
-0.09825732
0.07009974
0.0371775
-0.15214735
0.1046718
0.11909071
-0.087472826
0.026944965
-0.10550456
0.1011075
-0.045348752
-0.066356406
0.024922771
0.038743593
0.03602844
0.06632294
0.2063234
0.0698686
0.14835873
-0.56780565
-0.29524106
0.18287268
-0.1877326
0.11691077
0.21786843
0.041822158
0.035769153
0.18691592
0.01610912
0.04460292
-0.024317428
-0.09904532
-0.26579723
0.1638156
-0.35230678
0.25238797
0.20894486
-0.07159225
0.014004891
-0.15763143
0.5700184
0.04148651
-0.031259526
-0.0071198405
0.012126069
-0.011408405
-0.45252687
0.011913104
0.14303233
0.016816635
0.21283098
-0.15720107
0.117533125
0.027030211
0.105174385
0.2010822
0.35609952
-0.7212594
-0.13220926
-0.04577264
-0.04582172
-0.05960519
-0.17614022
0.0876106
-0.08154788
0.08257096
-0.03673639
0.018328542
0.31900808
-0.100653656
0.04342898
-0.5812367
-0.046539605
0.17633635
-0.039225493
0.037669323
-0.30955753
-0.099213175
0.003091466
0.15153106
-0.40976727
0.27630526
0.058761265
0.06373153
-0.104993954
-0.6876332
-0.212553
0.022735797
0.18002343
-0.0085794935
-0.027129458
0.00091765926
-0.21643959
0.015521526
0.027968094
0.09739641
0.04477767
-0.18342261
0.10231806
0.046109788
0.047660064
-0.22531427
0.0041912454
0.08425103
-0.04172056
-0.19793873
0.11989813
-0.043078057
0.0059139794
0.01001429
-0.2069988
0.0130870035
0.021757344
0.055557407
0.16107894
-0.04442601
-0.09142568
0.15000504
-0.008860845
-0.046565782
-0.15572473
-0.07179965
0.11446301
-0.21647294
-0.17442223
-0.018756513
0.038595803
-0.049171496
-0.13401577
0.08698234
-0.06886561
-0.06166728
-0.06703546
0.111774094
0.063137144
-0.066059455
0.05605234
0.06722026
0.06277071
-0.19798532
-0.14016111
0.055382878
0.038881313
0.06946018
0.109434724
0.16409588
-0.07360432
0.08005626
0.04715272
0.08819493
-0.018396394
0.13912569
-0.55042374
0.18815756
-0.10505313
0.34877035
0.0054129125
-0.14138366
-0.18536495
-0.22829148
-0.23727092
-0.14824198
0.23597838
-0.120212816
0.06739805
0.19154836
-0.52460915
0.2049558
0.030257575
-0.33617803
0.12190781
-0.40525272
0.017858095
-0.21925806
-0.058950268
0.18190853
0.3538071
0.2084354
-0.22986737
-0.3063434
0.067469046
-0.020778215
-0.45813453
0.43716502
0.118548654
0.17002991
0.063459545
-0.07408837
0.1483074
-0.04181002
-0.03933042
-0.55129236
-0.023047393
-0.042913616
-0.15519439
-0.15579808
-0.8881816
0.22093533
-0.045219555
0.30289268
-0.05333617
0.115558125
-0.23251972
-0.10735233
-0.105311215
-0.28289467
0.008844822
-0.039687004
0.35077676
0.11816767
-0.09764073
0.11501614
0.07334791
0.10051774
-0.0971654
-0.1568333
0.021774322
0.012490751
-0.054767836
0.050840877
0.2929452
-0.2754241
-0.13844746
-0.039916568
-0.24860342
0.13027842
0.16066054
-0.045008563
-0.042208888
0.15419115
-0.0014656269
-0.07721625
-0.14882521
0.037805762
0.019651596
0.010473582
-0.54973555
-0.022349603
-0.26208445
-0.016611582
-0.11073468
0.05805164
-0.06861215
0.021761883
-0.077638425
-0.077260256
-0.06373267
0.0015124452
0.13057369
0.0087094875
-0.0072433786
-0.023236072
-0.09064909
-0.11016679
0.019900719
-0.11284303
0.07782652
0.11235136
-0.04910633
-0.036043946
-0.099301845
0.123092785
0.09460737
0.018123636
0.12196404
0.15504089
-0.37630212
0.077258684
0.013444742
0.0608528
0.027884362
0.3119443
0.0044608708
0.01010209
0.12653764
-0.040741306
0.18579514
-0.07991784
0.23189412
0.07791732
-0.9961305
0.34652442
-0.1345585
0.04379624
-0.13407873
-0.043612763
-0.10855055
0.13113011
-0.1515279
0.07268091
-0.075985886
-0.06934551
-0.07933173
0.12541868
0.08739984
0.1582203
0.08024533
0.079155765
-0.24855056
-0.32272053
0.2711223
-0.21966259
0.3395294
0.020127978
0.027670383
0.100135475
0.09829445
-0.32450113
0.27673995
0.1831727
-0.031497717
-0.22048247
0.032685764
-0.15448382
-0.07584386
0.17854074
-0.16789566
-0.045044158
-0.1374418
-0.017474195
0.48985356
0.5659128
0.13747783
0.04878782
-0.22021496
-0.33595464
-0.031545535
-0.083129756
-0.037583068
-0.1746777
0.01969911
0.0484895
0.07945375
0.21056044
-0.3430439
-0.27516514
-0.22254024
-0.15699302
0.0852972
0.10720824
0.37982616
-0.1092548
0.0055451174
-0.029757807
-0.08623882
0.14340071
0.04618929
-0.19329818
-0.3792172
0.24233218
0.07502497
-0.17845872
-0.1961711
0.061103847
-0.13553156
0.02360457
-0.8503782
-0.05241264
0.01034776
-0.06521068
-0.19477421
0.10299329
-0.06151663
-0.068236865
0.07759449
-0.026151283
-0.20834896
0.062750585
0.16133028
-0.028656568
-0.038704332
-0.03406843
0.0010940086
0.031168751
0.20841484
-0.28134996
-0.23186009
-0.00380194
-0.12203381
0.054322608
0.029116236
-0.071627915
0.13343544
0.16674106
0.19258189
0.23568267
-0.030828606
0.089274675
0.035596184
-0.07420642
-0.05287093
-0.12679173
0.11283024
0.13035542
-0.32948393
-1.3759468
-0.6182235
-0.1852773
-0.14370756
-0.09136015
0.07957994
-0.09747203
0.00853179
0.058595203
-0.38987166
-0.07296064
-0.19884147
-0.19104192
-0.048994172
-0.059334844
0.0066250185
-0.07696673
-0.03166136
0.24932168
0.29631546
0.40499172
0.13223529
0.09809412
0.3528067
-0.47952548
0.059310637
0.017726263
-0.22192316
-0.032199092
0.26089752
-0.107697465
-0.04748157
0.16282277
0.2783185
0.31289917
0.027780559
-0.07960913
-0.057018276
-0.32018387
0.032766562
0.00026964603
0.022641115
-0.013978513
-0.08850074
0.18822831
0.22355638
0.15753047
0.24713337
0.016705893
-0.18564822
-0.10625386
0.18515311
0.5128213
0.06571124
0.040859427
-0.045014143
0.16646588
0.15355903
-0.07452252
0.04294188
-0.0077619255
0.0061059827
-0.18206976
0.061114606
0.16618843
0.095506854
0.1098482
-0.019010887
0.018649966
0.13372418
-0.59129566
-0.007113118
-0.094942704
-0.05070607
-0.022992546
0.27995887
0.02694747
0.00017783945
0.2552895
-0.4155987
-0.11218443
0.113471135
-0.264788
0.23198192
0.13915358
-0.2322651
-0.059821863
0.054474093
-0.22667812
0.37704664
-0.020238793
0.019533895
-0.047031634
0.25078985
-0.18208055
-0.014069097
-0.112295456
-0.06853497
-0.1934974
0.06507848
-0.11842616
-0.19859856
-0.15704715
-0.12730005
-0.7660468
0.1553657
0.17022131
0.27643472
-0.070891164
-0.0014385876
-0.006046451
-0.09464456
0.044170238
0.13417442
0.17572317
-0.04609972
-0.14644565
0.10716407
0.1472534
-0.08698315
0.2129404
-0.21730848
-0.32263413
-0.11204712
-0.0029912211
-0.89672124
0.32918638
-0.2489485
-0.18292397
0.25874144
-0.15358599
0.054016985
-0.41034353
-0.08758165
-0.28960758
0.20786832
0.3316457
0.10269402
-0.025051506
-0.30136338
-0.17253333
-0.102052346
-0.05414921
0.3624894
0.34565383
0.08091219
-0.10427446
0.15230048
0.09414735
0.23713176
-0.19869065
-0.28858912
0.041616064
-0.32336444
0.39512563
0.003759112
-0.27099717
0.018677741
0.20708953
-0.06673506
0.08844306
-0.042992454
0.05430504
-0.21802361
0.09256609
0.38314167
-0.14015621
-0.6023691
-0.07199182
-0.20716499
-0.0059443135
-0.080502994
0.16102332
0.15160161
0.30486146
-0.041409064
0.14337891
-0.03621481
0.12766044
0.058584817
0.20264855
-0.066151306
-0.19826598
0.054367315
-0.14743455
-0.52338856
0.108069696
0.20178004
0.06899876
0.36576205
-0.29740477
-0.022864306
0.1275032
0.089532875
0.011767377
-0.12890528
0.18648063
-0.028723808
0.1657575
-0.2808257
0.14633437
0.10964415
-0.075561605
0.14217411
-0.018850267
-0.13251047
0.13200861
-0.15096983
-0.24410956
0.28846273
0.01429847
-0.00886186
0.124653
0.042338178
0.12155063
-0.07153247
-0.035609763
0.011703824
0.0130265895
0.040553592
0.09348695
0.1453997
-0.029786384
0.14151147
0.16647743
-0.35428607
0.15704058
0.017674405
0.10522861
-0.10396753
0.07489996
0.04383449
0.06627598
-0.022156218
0.0009096978
0.03902958
-0.26430196
0.41677034
0.27099058
-0.053152077
0.20177226
-0.104901806
-0.815981
0.012301253
0.21860898
-0.20585065
0.43552437
-0.12202207
0.13268834
0.09933319
-0.024999768
-0.38931012
-0.10799889
-0.24323891
0.12105877
0.050970096
-0.37719122
-0.057115078
-0.30389997
-1.0110751
-0.19422932
0.35489672
-0.07219392
-0.031415075
-0.4671837
0.030395174
-0.42379415
-0.13497825
-0.5889564
0.24420051
-0.57666165
-0.14492528
0.19794454
-0.082198516
0.35416391
0.0045116325
-0.39208895
-0.05312391
0.0046423366
0.2205523
0.06949632
-0.35475364
-0.4625912
-0.060810953
0.38355497
-0.6901528
-0.081652865
-0.5189471
-0.1130603
-0.1890748
-0.31751892
0.19391805
0.33339816
0.1043325
0.09215709
-0.0345024
-0.048193324
0.05932724
0.010447946
-0.019648336
0.022707958
-0.052877385
-0.23962526
-0.12552565
-0.08355327
0.1250396
-0.13075064
0.16217874
0.117220014
0.15824445
-0.057724822
0.20975547
-0.097694166
-0.05174278
0.14414527
-0.045306
0.061791718
0.08490159
0.16065791
0.082574114
-0.024134394
-0.009318472
0.15664175
-0.13296062
-0.15875892
-0.12133002
0.047821045
0.09402056
0.10285853
0.072854266
0.07762179
0.21917361
0.17675921
0.058847245
-0.008756102
-0.013409542
0.062148478
-0.007425627
0.050723653
0.033923723
0.11345541
0.10667124
0.1401186
0.16609223
0.14982566
-0.52124757
-0.18133736
0.08071877
0.11413222
-0.010853259
0.14164752
0.2423877
0.19077635
-0.11420623
0.008731498
0.08300536
-0.17372389
0.3598764
0.1709493
-0.075343676
-0.40216878
-0.057307657
-1.2102014
0.10756066
-0.15131767
0.31405234
-0.1642205
-0.09967385
-0.065769374
-0.17770909
0.009432752
-0.80747426
-0.0037943535
0.110587835
0.39986292
-0.19716536
-0.33278427
0.00063940044
-0.47426197
-0.56507885
0.04843667
0.16619936
-0.69082105
0.02112373
0.25600028
0.5961618
0.25564474
-1.3618361
-0.53114545
-0.15839207
0.06320045
0.21902104
-0.18921709
0.1977438
-0.5986998
-0.0036537533
0.3652267
0.012609721
-0.25453448
-0.039082587
0.11071992
-1.4462035
-0.32215095
0.08912182
-0.08898716
-0.06156734
-0.18553096
-0.5622589
0.08278773
-0.11826898
-0.3746488
0.19202842
0.1501893
0.31329307
0.15094104
-0.041648198
-0.2946005
-0.024902305
0.0270131
0.018112605
-0.107873775
-0.122481816
-0.3362902
-0.03693942
-0.029859096
0.23629439
-0.41063827
-0.03840498
-0.009047473
0.04622694
0.11309829
0.051479734
-0.13515243
-0.14934039
0.20128614
0.08157168
-0.19526953
0.12817861
0.15529191
0.07658273
0.048113503
-0.12353416
0.11598849
-0.29976407
-0.53102577
0.028470553
0.029626042
0.004713221
0.06583107
0.11542932
-0.07867021
0.11601763
0.19850893
0.29877782
0.011470939
-0.024847122
0.15014236
-0.030315496
-0.1731712
-0.0012289167
-0.016788347
-0.24251103
-0.028433798
0.08042253
0.16972487
-0.19305953
-0.04890575
0.087389454
0.14452833
0.24563563
0.07627509
0.008562112
0.121054575
-0.14296678
-0.21409029
-0.011550875
0.18349266
0.30716273
0.03274015
-0.09502121
-0.56627566
-0.13014844
-0.0822838
0.0356145
0.25157738
0.64307994
-0.057053942
-0.06963239
0.25360566
-0.096252725
0.11867314
0.060390204
-0.024336752
-0.27012977
0.39986062
0.17643334
-0.08758458
-0.06722471
-0.035065427
-0.14396515
0.24965017
0.69746757
-0.06750258
-0.30375764
-0.6766384
0.26386675
0.18119127
0.13909808
0.008251976
0.26220113
0.14700869
0.035805747
-0.17709868
0.21477392
-0.20119607
-0.047254067
0.19144812
0.024149317
-0.45792058
-0.05457842
-0.41649562
-1.1428932
-0.47112122
-0.019837536
-0.35941106
0.35176903
-0.071894385
-0.034100287
0.5332345
-0.15057571
-0.699501
0.05877223
-0.010958472
-0.4740667
-0.8426839
-0.03671386
0.043964576
-0.021087022
-0.0379975
0.04754661
-0.24399279
-0.22685707
-0.44924596
-0.0023713568
0.0058080154
-1.0368359
-0.2681264
0.015693836
0.070162505
0.017463278
0.027269483
-0.15582974
-0.09485347
-0.08413746
0.16554168
0.20654662
-0.43585116
0.29015929
0.32854876
0.13786003
0.14460723
-0.10623062
0.20314752
0.040471334
-0.36482474
0.16366005
0.011556402
0.009553601
0.23812743
0.009767866
-0.060118724
-0.033559937
0.17276888
0.2622572
-0.019859439
-0.0111158
-0.047864713
-0.014811517
-0.39346775
0.054679874
0.012012054
-0.8488699
0.1797977
0.07862956
0.032745987
-0.053880397
-0.10682572
0.23160394
0.07264117
0.089895636
0.21918559
0.113034144
0.300835
0.03820237
-0.51042724
-0.10045336
-0.33945593
0.1003937
0.07598373
-0.009970808
-0.6260226
-0.16679157
-0.1972091
-0.21157321
0.07710119
0.38599035
0.18958697
0.23882808
-0.09312505
0.04311464
-0.011652858
-0.17432605
-0.016058384
-0.37695464
-0.17730246
0.21431558
0.46606845
-0.026398005
0.066412956
-0.04822072
0.112126835
0.315394
0.008102957
0.24996078
-0.02052392
0.1934669
0.08894514
0.33402914
0.106605805
0.32946792
-0.1533804
0.5366724
0.12897733
0.07147317
0.37517178
-0.0509905
0.2900885
-0.06942171
-0.77552557
-0.057140384
-0.7504453
-0.024344536
-0.057725675
-0.11898257
0.13459097
0.18428846
0.32791358
-0.20556518
0.07592248
-0.02253258
-0.2552435
0.08722019
0.27577066
-1.3830457
0.09880747
