0.009953625
0.09299041
-0.18738681
-0.15566124
-0.057908468
0.08646785
0.3058468
0.23324302
-0.19985995
0.2310536
0.54825467
-0.6954834
-0.3105453
0.24917999
0.09086553
0.12328414
-0.48220506
-0.31374022
-0.5876916
0.2526903
0.53644407
-0.075265
-0.40575504
-0.21885327
-0.44131717
-0.32865885
0.38313046
-0.15886049
-0.13655287
0.120110124
-0.13436669
-0.4026384
0.061627768
0.2941337
0.28300744
0.2219254
-0.044645082
0.09857344
0.0919556
-0.24141492
-0.11310063
0.32986492
-0.18692759
-0.3352444
-0.4321014
-0.63620913
0.2688956
0.023908608
0.14052136
0.06656821
-0.2056566
0.22790006
0.35921627
0.28861064
0.020386072
-0.3052303
-0.511265
0.13071454
0.46147045
-0.2146221
0.19279744
0.21251363
0.030733673
-0.0285172
-0.4316385
-0.23112558
-0.16659617
-0.09881242
-0.32671267
0.2551433
-0.26586002
0.87348884
0.061900463
-0.13405319
-0.42496002
0.096037716
0.021861903
-0.5986848
0.007504065
0.05356823
0.2871669
0.3347771
0.268669
0.14922722
-0.11378368
-0.28039244
-0.53519857
0.080664486
-0.40411207
0.11758879
-0.01759736
0.014240577
-0.069954954
0.13140237
0.091560155
-0.0964292
0.28627476
-0.044843856
0.235609
0.11828672
-0.20069541
-0.4518256
0.04021857
0.084287845
0.43874153
0.40598407
-0.6025745
0.15765399
-0.10707592
-0.3163074
-0.66839606
0.16982989
0.4834369
0.015740523
-0.42090657
-0.5253888
-0.17377552
-0.2513825
0.32754362
0.11957294
0.3999594
-0.48637822
-0.011100535
-0.09820378
0.16467799
0.016615411
0.0060433284
-0.6013301
0.20521212
-0.29927748
-0.42202643
0.0035399497
0.14926389
0.13135715
0.08227395
-0.006469185
0.1801869
0.36153254
0.23915336
0.1749302
0.24406335
-0.28960025
0.21460237
0.20477965
0.049375713
-0.46453032
-0.23083457
0.33027434
-1.2455428
0.503728
-0.2154607
0.20844519
0.34250578
-0.020475004
-0.035597984
-0.7199617
-0.5277878
-0.6756621
0.13543402
0.027960025
-0.28741255
-0.09245323
-0.1900692
-0.01894644
0.1505806
0.76381993
-0.19997513
-0.24983338
-0.05539922
0.0076853894
0.32073608
0.084886
0.028318444
-0.35648188
-0.20187755
-0.44263104
0.3048359
-0.12989633
0.4799234
0.038211707
-0.524901
0.68016565
0.13597038
-0.30948707
-1.1179146
-0.49574998
0.42178282
-0.39548248
0.23580766
0.1007367
-0.42337427
0.06231332
-0.19221768
0.06262655
0.18592131
0.043371104
0.06693042
0.25513244
-0.024327233
-0.11084987
0.5426898
-0.5377611
-0.33753768
0.24520813
-0.38077357
0.40567675
0.6464377
-0.022443814
-0.009662671
0.26485044
-0.0031269859
0.47978666
0.29207098
0.04403144
-0.23300974
0.20023385
0.08172153
-0.0030484018
0.24626383
-0.17238429
0.8228045
0.07391321
-0.6396953
0.047822315
0.051588327
0.38865045
0.12120865
-0.22807673
-0.29045683
0.34577176
0.25574026
-0.22915994
-0.32264104
0.118130304
0.055780657
0.28084
0.16578671
0.0872665
-0.090831615
0.2593032
-0.15876727
-0.05592047
1.0225949
0.46071777
-0.3330262
-1.0361224
-0.271597
0.10836307
-0.8866321
-0.65958667
-0.1536861
0.2693754
-0.809084
-0.22285034
0.057803143
-0.6723442
0.46946076
-0.9702196
-0.09519342
0.18296207
-0.34816635
0.5158279
0.021855786
-0.1215697
-0.3076425
-1.1657829
0.4710418
0.4612508
-0.34783107
0.1843394
0.61433244
-0.0069325687
-0.72780085
-0.42392644
-0.12128239
-0.58409333
0.34166774
0.5347708
0.078325525
0.2291573
0.31456396
-0.49097535
0.10758615
0.34730738
0.091701515
-0.42707565
-0.5905394
-0.48040906
-0.50001884
0.26175013
0.2891431
-0.109731495
0.22858933
0.26151285
0.16811566
-0.63459665
-0.6331458
-0.12731929
0.17159149
0.24607918
0.20630932
0.2028021
-0.08621489
0.44777146
0.0069273296
0.10572495
-0.8216579
0.16460657
0.022351887
0.26785612
-0.20789765
-0.051558975
0.09148554
-0.1175437
-0.021933846
0.16040678
-0.0346899
0.09349373
-0.02038044
-0.1693743
-0.28799784
0.03989564
-0.008153044
-0.29014012
0.18065555
-0.16028278
0.28845137
-0.28033015
-0.21529062
-0.050070487
0.21860175
0.32810053
-0.33733067
-0.048783172
0.18703817
-0.016931675
-0.55145687
-0.39454797
0.21834256
0.581713
-0.16284159
-0.2821877
-0.17468871
0.08495507
0.13263036
0.35388842
0.2840124
0.22366223
0.11392828
-0.44896805
-0.38178706
-0.0073339366
0.25699466
-0.22524074
0.13007101
-0.12639192
0.038656514
-0.19268501
0.013454328
-0.35137874
0.21679276
-0.051155187
0.23713152
0.29738173
-0.62364036
-0.4820442
-0.15672448
0.2662158
-0.9182942
0.35972437
0.37847504
-0.38285282
-0.048305247
-0.09849481
0.15193208
0.3944139
-0.05989813
0.37565
-0.07879097
0.019720687
-0.9246045
0.13545701
0.41922885
0.2071753
0.109119445
0.39441678
-0.29810017
0.019408738
0.03899244
-0.3992225
0.10389455
-0.35684773
0.010856311
0.24203785
0.116230816
-0.45883793
0.049647845
0.051277522
0.11864952
-0.06316068
-0.04005369
-0.123664305
-0.02528438
-0.24733476
0.059810348
0.22718903
-0.15453951
0.105037846
0.28510004
-0.25316557
0.14390573
0.6235145
0.015685517
-0.7107259
-0.28324726
0.12692557
0.107866704
-0.055220716
-0.28764457
0.29111892
0.10657215
-0.15930891
-0.16833115
0.044475906
0.016055357
0.27388558
-0.022072406
0.16105111
-0.27679968
0.27657723
-0.6528056
-0.12454408
0.28999892
-0.097238846
-0.14456159
-0.8747803
0.0055880276
-0.2931157
-0.15680873
-0.09265995
0.14003174
0.42169353
-0.2869151
-0.43180063
-0.13154
-0.45674872
0.4021331
-0.21446455
0.7830732
0.1402442
-0.34526688
0.24662682
0.07047746
0.05886638
-0.10988551
-0.041124158
-0.0720335
-0.6427753
0.21111062
0.2869695
-0.0995441
0.0033586416
0.24740909
0.4178203
0.07598396
0.6481093
-0.59420276
0.35675853
-0.28374895
-0.05960847
-0.4382203
0.51521784
0.1449049
-0.32133368
0.05084723
0.05256663
0.38507223
-0.684368
-0.023991266
0.24977581
-0.22794007
-0.026524132
0.05700642
-0.11079476
0.19012147
0.19970395
-0.44478092
-0.016031584
0.11946853
0.13016117
0.4691656
0.7217761
0.19563657
-0.3998911
-0.22175056
-0.43113244
-0.18208624
-0.53602356
-0.340751
0.47743535
0.21317169
0.34140468
0.6160607
0.33441016
-0.17111059
-0.94301593
-0.4502655
-0.6089244
-0.2305043
-0.1412764
0.29757327
-0.04939826
-0.14372787
-0.7646705
-0.3948693
-0.4802436
0.28769138
0.512446
0.5677101
-0.36340952
-0.43834516
0.48721468
-0.31961495
0.14191681
-0.59548366
0.0781216
-0.5580981
0.13592409
0.012854602
0.6141759
0.049211763
-0.33842617
0.08518942
0.25258103
0.36734614
0.2613654
0.21679206
0.30050033
-0.17653768
-0.12922017
-0.062425356
-0.51874423
-0.31938276
-0.0997707
0.24600795
-0.10061162
-0.36619943
0.03815478
0.03836036
-0.22175068
0.48748896
0.4226688
-0.15145811
-1.2538853
-0.64769393
0.15867461
0.6398317
0.27091426
0.17214902
-0.17064157
0.61767805
0.62429374
0.5834156
-0.59807557
0.13816194
-0.1612024
-0.037528757
-0.26266938
-0.6960663
-0.16892819
-0.45982543
-0.4502802
-0.27803138
-0.103404015
0.12171437
0.37311476
-0.06448534
0.13329239
0.10714895
0.057313398
-0.03415842
-0.38860843
0.19876258
0.034543674
-0.18496384
-0.78210104
0.14632885
-0.18455459
-0.021803554
0.13867255
-0.06688767
0.24710926
-0.008101795
0.22392957
0.049916457
-0.71883005
-0.25509068
-0.50528
-0.11264617
-0.10934267
