0.17690626
0.39236546
-0.29593718
0.16766946
0.0071173236
0.2321574
-0.067669205
-0.8136791
-0.021895917
-0.17635849
-0.057989627
0.2030154
0.19242112
0.30449918
-0.32495254
0.18616238
0.052914076
0.10697436
-0.51790845
-0.018938433
0.13332754
-0.112084575
0.12158781
0.098818846
-0.009653631
0.043141387
-0.006575633
-0.07540818
-0.041004892
0.0190236
-0.04852914
0.30510157
-0.15139922
-0.32291782
0.08391059
-0.07479081
-0.06626493
-0.0706838
-0.10317336
-0.6046347
-0.041446928
0.026252868
-0.043523557
-0.31369323
-0.057519056
0.06903347
0.04903079
-0.032743193
0.27041093
0.1749979
0.11805917
0.106326155
0.009987641
-0.33704734
-0.0009146924
0.0029411635
-0.10134439
-0.3276692
-0.08799932
-0.09169549
-0.3955282
-0.32855624
-0.15300184
0.25339967
-0.01644948
0.5814936
-0.45017958
0.011467851
-0.059754744
0.17607838
-0.005699437
0.5180768
0.08135217
0.24759944
-0.06354851
-0.7872797
-0.0839124
0.41686594
-0.1859007
0.018269198
-0.18032788
-0.47969443
-0.6498723
0.5145346
-0.01153941
-0.033617217
-0.054505765
0.025793752
0.036970332
0.30844024
-0.05113475
-0.9902499
-0.3879923
-0.16885792
0.24487202
0.50339186
0.054783188
-0.12878992
0.42840916
0.049015045
-0.17111214
0.039860345
-0.025123863
-0.11846305
0.02599828
-0.049530607
-0.04831943
0.18114161
-0.4235864
0.06976688
-0.35798216
0.11778911
-0.4481048
-0.6476015
0.1061032
-0.6413649
-0.07951528
0.6793352
0.002382595
-0.7022921
0.053082936
-0.11436512
0.019482194
-0.23361547
-0.054201793
0.1445681
0.27295408
-0.34318945
-0.07661749
-0.06776476
-0.03015642
-0.22286658
0.043359596
-0.025372997
0.09867844
0.010858752
0.018350875
0.27777013
-0.12766504
-0.07100367
0.19478302
0.17772418
0.111293666
-0.296115
-0.042283453
-0.028744392
0.0100477105
-0.0032714219
-0.04550673
0.118936285
-0.06907824
-0.08523756
0.2675673
-0.17918693
0.12840842
-0.23213717
0.027329126
0.17073198
-0.15303735
-0.24433407
-0.11161987
0.027781866
0.030269107
0.11558931
-0.019733826
0.16428046
-0.056882683
-0.24437048
0.22176073
0.37904063
0.07176433
-0.18577394
0.21821241
-0.09988551
-0.01158055
0.15861307
-0.063644506
-0.3219284
0.029801978
0.24836712
-0.39827114
-0.031416044
0.43662155
-0.06555672
-0.06803694
-0.18546084
-0.21474639
-0.22600953
0.04318163
-0.54175633
-0.037392497
0.36508232
0.106985986
0.3739094
-0.3419569
-0.08462727
-0.08711413
0.27678618
0.029166475
0.040514074
-0.008380616
-0.48162737
-0.41432422
-0.70931304
-0.04356713
0.050289545
0.031537123
0.0047100787
0.028385155
0.13091503
-0.01581832
0.0052628675
0.07115243
0.36083052
-0.41258833
-0.112714
-0.049941953
-0.3130483
-0.33440232
0.58030456
-0.33526233
-0.06770198
-0.0054294905
-0.1969562
0.022808835
-0.2796146
0.26682678
-0.49399388
0.41671538
0.42599875
0.15933068
0.019739484
-0.84158057
0.4433239
0.41784275
-0.08230722
-0.42241943
-0.271597
0.03862068
-0.63192433
-0.00039246195
-0.2604137
0.052588467
-0.2644827
0.052697327
-0.07286969
0.30633315
-0.10214795
0.02533476
0.06026069
0.017848002
-0.3939697
-0.08223008
-0.14477079
-0.13292675
0.12524168
-0.0486279
0.1836078
-0.013060618
0.011296888
0.1388249
-0.08733633
0.45318323
-0.31775495
-0.07531244
-0.013317044
-0.02231942
-0.037801385
-0.029115938
0.11718275
-0.015810875
-0.04665994
0.23960905
0.06923642
0.2869841
-0.3691596
0.021043904
0.15373214
0.17210375
-0.26443473
0.10078566
-0.0060634385
-0.059234403
0.04678343
-0.021229673
0.15044871
-0.005875584
-0.18300787
0.4692141
0.05501395
0.12995926
0.14893715
0.1736513
-0.054345693
0.26984066
0.16054454
0.12444531
-0.08575954
0.0018762889
0.01815334
0.041677486
-0.34079272
0.5041333
-0.21846576
-0.058971487
-0.24711996
-0.12857959
0.32187733
0.019355025
-0.006571814
-0.0035100435
0.6340133
0.11235774
0.10344081
0.038450606
-0.23249114
-0.01577514
-0.18420252
-0.06553803
0.01899307
0.07520768
-0.46594197
0.27084205
-0.93142223
0.016569464
0.027165713
0.0476702
0.010206405
-0.05906274
0.051636055
-0.0009867949
0.39730105
0.44026536
-0.26568824
-0.063835666
-0.07037088
-0.059465237
-0.027826445
-0.27505085
0.29573315
0.2568544
-0.05288859
0.041373003
-0.11175695
-0.009884473
-0.024423258
0.030335981
0.43247402
-0.018784782
0.16937415
0.24424367
0.16694818
0.09087094
0.40704498
0.12510104
0.072162256
-0.52506137
-0.36411074
0.03693081
0.70908463
-0.47981754
-0.25921726
0.025545925
0.25075176
-0.023070592
-0.16825554
0.17602439
0.16082534
0.043477993
-0.08379604
-0.07097925
-0.35889372
-0.038442276
-0.11688807
-0.025594607
0.14904852
-0.07964501
0.35163444
0.34549615
0.037450716
0.09515189
0.15150657
0.31272638
-0.34225917
0.03581337
-0.030443676
-0.0068264166
0.0417126
-0.04698426
0.23187177
-0.031654865
0.058960114
-0.06517739
0.2992701
-0.31662044
-0.039589398
-0.004334554
0.30688792
-0.026659822
0.007993516
-0.12945259
-0.049801808
0.031956304
0.21413891
0.030654602
-0.014108301
-0.13064884
0.14823943
0.040823463
-0.18611911
-0.060226887
-0.103252165
0.31616715
0.027851295
0.021367265
-0.42389026
0.12679552
0.1152045
0.027679348
-0.30048195
-0.3869678
-0.11618453
-0.18708286
-0.10397877
0.006499617
-0.6766231
-0.13141932
0.43471926
0.028618561
0.3973963
0.02764793
0.41923523
0.6818891
0.07061154
0.050148718
0.18402149
0.0020152046
0.121049866
0.30434403
-0.013327174
-0.35316014
0.02188518
0.65318036
0.026347293
-0.043530773
-0.033055767
-0.008923337
-0.067803755
-0.015395228
0.08791404
0.04235219
0.20118602
-0.20384806
0.18364017
-0.4141791
-0.062402487
-0.017207041
0.008975929
-0.34548655
-0.27494153
0.5825315
-0.058046803
0.05212241
0.24293911
-0.0033576651
-0.40079513
-0.053947516
0.95253074
-0.312369
-0.42023128
-0.74493355
0.063794665
0.6487696
0.14171986
-0.07722793
-0.26952127
-0.28177097
0.56130046
-0.015069247
-0.016110066
0.042780638
-0.042240437
0.021045754
-0.096852146
-0.023021124
-0.624815
0.012225513
0.008309199
-0.049789585
-0.09307452
0.04909067
-0.25611565
0.13863248
0.08879303
-0.2573106
-0.10179689
-0.05492001
-0.1287814
-0.031234961
-0.022348966
-0.20562337
0.41676232
0.13491823
0.15109493
-0.034175392
0.002891909
-0.0074140606
-0.025104873
-0.05992621
-0.19802986
-0.031592786
0.010294436
0.18020986
0.4162342
-0.01631682
0.30932117
-0.06529786
-0.077055246
0.29889753
0.003223683
-0.008028935
-0.03307338
0.027990522
-0.15152997
0.0013916829
-0.28377464
-0.018567301
0.05704589
0.034524713
0.805872
-0.24588558
-0.08359108
0.16638654
0.02121025
-0.29805633
0.36683044
-0.063187316
-0.32400545
-0.03781556
-0.32241637
0.76309866
-0.045023955
-0.39375612
-0.28379837
-0.023382897
-0.45316607
-0.10954118
0.2517232
-0.043346863
-0.40490657
-0.05700879
-0.20135207
-0.06974423
-0.03761937
-0.12318342
-0.17339678
0.0010275503
-0.05022162
-0.1680976
-0.051688273
-0.05065318
0.20096777
-0.35990778
0.68125385
0.037898224
0.04409263
0.0029176266
-0.075810954
0.052016996
-0.39706385
0.033018406
0.46783596
0.4822339
0.6207104
0.16303948
0.24534035
-0.055029456
-0.2484014
-0.578898
-0.8525805
0.13570084
-0.030014455
-0.032257102
0.31072202
0.019723663
-0.30550405
0.04772774
0.6239463
0.0005450934
-0.4696788
-0.5872853
0.076423
0.92207646
-0.48252663
-0.6328306
-0.035073053
-0.17078802
0.6141266
-0.0077466043
0.035032053
0.12294864
0.0523469
-0.30978945
0.23288773
0.035467315
0.17726922
-0.43054596
-0.74893856
-0.042091057
-0.11973812
0.03030434
0.106444374
0.08573375
0.14364131
0.03196889
0.018423274
-0.04011065
0.05709051
-0.10641588
-0.0514103
0.0693091
-0.03511221
-0.049930427
0.101099625
0.030769859
-0.055601895
-0.037818518
-0.020408615
-0.031054748
-0.1138247
-0.013017977
-0.27563417
-0.016616704
-0.26928034
0.07385203
0.16373526
0.035309732
-0.1087695
0.031144593
-0.4357553
0.102233276
-0.08074442
-0.07045457
-0.025649337
0.017896187
0.04479974
0.027204806
0.034526978
-0.14378235
-0.04948401
0.1600961
0.19970253
-0.099444464
-0.10780368
-0.1339236
-0.17031436
0.11553502
0.0025088815
-0.02027427
-0.110983625
-0.020283915
0.039760407
-0.4212571
0.03256206
-0.066807784
0.45512784
-0.37529284
0.78274655
-0.023059573
0.1911777
0.029652223
-0.52064824
0.29473573
0.41048953
-0.20660292
-0.6583136
-0.10371995
-0.015438498
-0.10044089
0.06836378
-0.048803687
-0.6593831
-0.6212541
0.2737225
-0.021964295
-0.047790278
-0.033156168
-0.08722336
-0.040645175
0.24332446
0.022711521
-0.64986527
0.47008368
0.19334455
-0.12738614
-0.09424079
-0.041191332
0.17962866
-0.2555333
0.63851595
-0.16736688
-0.04455308
0.044279628
-0.6265912
-0.040727034
0.46871698
0.16920733
0.20862246
-0.12117655
0.04486279
0.28641227
-0.11261944
0.050283562
-0.20750137
0.6727815
-0.07161884
0.42877513
0.41763285
0.025013098
0.13935468
-0.018740416
-0.09416709
-0.035794333
0.122485146
-0.030579066
0.10254339
-0.10500094
-0.35941252
0.012894629
-0.08380205
0.04195438
0.050621543
-0.0800295
-0.08393568
0.11281845
-0.27846992
-0.027735282
0.06856757
0.003869289
-0.003521009
-0.08406637
-0.07354172
-0.1483508
-0.16903724
-0.050095163
-0.026915383
0.049021658
-0.013360356
-0.044348456
-0.006420323
-0.07399102
-0.27441603
0.13390128
-0.27234015
0.14122738
-0.0062111295
-0.033225164
0.33677235
0.15773432
-0.102632426
-0.0769731
-0.077687785
-0.022616478
0.014098337
-0.052607615
-0.14003368
-0.015317752
-0.052253425
-0.18130627
0.118966885
-0.012979708
-0.10851731
-0.074821755
-0.16337752
-0.067619085
0.16563594
-0.10844794
0.12129577
0.010710207
0.2972641
-0.015321418
-0.6261405
0.17454281
0.048818145
0.04219622
-0.6128713
-0.47685912
-1.03834
-0.06417806
0.16416676
0.003998499
-0.21440053
0.30305842
0.19162469
-0.26440606
-0.33985433
0.013126163
-0.19762371
-0.22945072
0.035419457
-0.13689189
-0.67855704
-0.20239934
-0.0925636
-0.036426492
-0.021968367
-0.017348368
-0.012102968
-0.05623176
0.226203
0.05092315
-0.1114623
0.04577829
0.5243182
-0.56660855
0.10750761
-0.0257504
0.033599887
0.20244381
0.11237863
-0.33639872
0.035505835
-0.00042911334
0.043792617
0.05419878
0.24423979
-0.15926184
-0.07979936
-0.15397568
-0.3908454
-0.09755152
0.1112496
-0.45641378
-0.05745531
-0.9838862
0.2990268
-0.35479906
-0.31965688
-0.023487866
-0.17583625
-0.1639994
-0.15249687
-0.17987423
-0.015622028
0.0038292275
0.16713871
0.15643542
-0.12632813
-0.06533434
0.2597143
-0.061104435
-0.065741576
-0.044999864
-0.13942523
0.0755749
-0.029013403
-0.07573067
0.20449576
-0.06744075
0.014260184
0.07799298
-0.04448114
-0.10903177
-0.014113449
-0.073721655
-0.018656174
-0.065825425
-0.06584751
-0.04709057
0.10100539
-0.058434684
-0.2459917
-0.015688756
-0.08756727
0.014047548
0.047648136
0.047702342
0.01937544
0.1396815
-0.02919852
-0.08992334
0.013740861
-0.016110929
0.11664154
0.034310028
0.075775795
-0.12666634
-0.18743542
0.037198003
-0.1409125
-0.066707924
0.042346768
-0.067696296
-0.07573362
0.16289824
0.07122415
0.081624106
0.027374243
0.0028112286
0.1263667
-0.122704156
-0.0394142
0.047377605
0.01702362
-0.05700509
0.027204027
-0.38661465
0.19154099
-0.031306624
0.3969265
-0.00017502975
0.030235078
0.47839534
0.00638946
0.1323516
-0.58210087
-0.0028480676
-0.5964708
-0.1548432
0.01743849
-0.16514683
-0.43605942
-0.33078852
-0.37611654
-0.005789822
0.0416566
-0.05183033
-0.048840303
-0.002647698
-0.1764708
0.013058884
-0.024007551
0.16484617
0.23280422
0.1281116
-0.23189701
-0.053305063
-0.122949414
-0.023823846
-0.8663104
0.08891602
-0.06303103
-0.06284196
-0.17877063
-0.022952456
-0.008914304
0.19653675
0.048173856
-0.0059080124
0.27347806
0.47330868
0.15602012
0.052458268
0.123590454
0.37386596
0.09771111
-0.16609956
0.4018395
0.026733685
-0.020378983
-0.26798585
0.08503465
0.010233756
0.38690323
-0.035990816
-0.036286704
0.2794759
0.11047236
-0.035129555
0.062756926
-0.06367781
0.12294303
-0.17440535
-0.13574368
-0.1881065
0.19861014
0.03364768
-0.024352234
-0.20207171
-0.039910916
0.24131659
-0.10183917
0.16763082
-0.33095154
-0.04413861
0.016769597
0.05127029
-0.008124309
-0.0153272
0.04141215
0.049322538
-0.07398616
0.09383016
0.30194563
-0.105647996
0.2119658
0.025683736
-0.06732775
0.22918941
0.07854854
0.041804664
-0.030850299
0.0324406
0.01670059
-0.060387105
0.07903608
-0.014653388
-0.39926547
0.17101915
-0.29670653
0.21657309
0.13804744
0.03235327
-0.046634816
0.23797776
-0.2733678
0.13533299
0.14005426
0.0018196965
-0.05824671
-0.6600114
-0.059762523
0.08326035
0.12071225
-0.03260884
-0.22813259
-0.124107
0.29653594
-0.06547822
0.21857263
-0.0017965947
-0.00652353
0.3653301
0.055648524
0.29797986
-0.32660004
0.014061865
-0.14217947
0.16839924
-0.06715688
0.031452466
-0.0038723613
0.033650696
-0.24757376
-0.042052448
-0.016825825
0.015783533
-0.101189636
0.049040392
-0.046056975
0.019063663
0.12431929
0.2332706
0.2834918
-0.16538331
0.19367918
-0.07043468
-0.16270748
-0.20641512
-0.12688208
0.23313598
0.0075798575
-0.01676586
0.3285885
0.0056120637
0.28421617
-0.087700635
0.44755673
0.33233902
-0.51277167
0.03493702
0.2560624
0.22558998
-0.15062518
0.242901
-0.33303964
-0.31683275
0.4246471
0.040573608
-0.7855222
-0.23402008
-0.09147493
0.19099203
0.35721228
-0.012491895
-0.41471377
0.16642559
-0.10617859
0.017478524
0.2737624
0.052396566
2.0996476e-05
0.4496019
0.35894924
-0.31800666
0.20809698
-0.025989145
-0.22752501
-0.15728736
0.018094014
0.14636731
0.5404504
0.32368037
-0.29000384
-0.011695903
0.0034845513
-0.015930317
-0.031987038
-0.007819638
-0.07572811
0.036170907
0.19711392
-0.38715592
0.092066705
-0.6007569
0.76274586
0.02440073
-0.46447322
-0.22383554
0.34837756
-0.16394366
-0.07788211
-0.07797849
-0.3290823
-0.030707669
-0.08146807
0.28084895
0.083070815
-0.15047234
-0.88333225
0.040747408
-0.297741
0.23165579
0.17684281
0.094808444
-0.13875724
-0.1547546
-0.37705043
-0.092146285
0.13722113
0.30320436
-0.1773767
-0.013578055
0.104189634
-0.009445763
-0.008810092
0.107083015
0.2634397
-0.041438196
-0.10817288
0.0065386216
-0.133592
-0.059822302
0.23275667
-0.05745682
-0.04880099
0.018722935
-0.29480642
0.189456
-0.06176193
0.09294937
0.43244985
0.13575077
-0.17778926
0.020119216
0.05371396
-0.031159801
-0.035002366
-0.060159873
-0.13734548
0.04521526
0.3393505
-0.011676793
0.20166986
0.013401499
0.4965356
-0.015289821
-0.22510041
-0.14724286
0.16358946
0.07246301
0.0032519465
-0.060094174
0.008274125
-0.04319488
0.12833558
-0.02522473
0.11892771
0.12965636
-0.9394891
-0.5505916
0.23258378
0.12383632
0.2591327
0.37359053
0.06516524
0.2510011
-0.102682814
-0.041766033
-0.4201628
0.1146007
-0.22941624
-0.06141239
0.05352018
-0.047874957
0.22317643
-0.18449667
-0.26063275
-0.026584893
-0.07886343
-0.033771742
0.08346245
-0.066775866
0.1298978
-0.09477762
0.16210766
-0.0861023
-0.011199207
0.18020883
-0.0033807151
-0.08180857
0.0737498
0.04823896
0.11728205
0.0119023975
0.010721244
-0.055932876
-0.05618831
-0.060430486
0.10275329
0.00044147167
-0.28008097
-0.110079356
-0.070071526
0.19549431
0.26205164
0.0019795063
-0.096342266
0.21344228
-0.37698865
-0.0485187
-0.05311547
0.043941263
-0.06299
-0.05237225
-0.122383244
-0.008438004
0.09227138
-0.039981075
0.047824644
0.055137053
-0.106857136
0.13348027
-0.009014894
-0.13160177
-0.15086386
0.038655367
-0.015604356
0.0051132496
-0.1906959
0.5269978
-0.40041566
-0.6255434
0.12575999
-0.011312758
-0.03065016
-0.25134215
0.16116388
-0.07644458
0.21802956
0.06058508
-0.5205706
0.37032613
-0.25645232
-0.25877655
-0.27574158
0.032311432
-0.8152442
0.28431466
-0.028450932
-0.40020868
-0.093715176
-0.011129033
0.68071824
-0.00034432532
-0.06842056
-0.026482984
-0.0015598694
-0.04199786
0.5230225
0.013639585
0.5560297
-0.15667136
0.22054866
-0.3165566
0.30662787
-0.0068283454
-0.34690842
-0.6532509
1.0119964
-0.25850707
-0.020771591
0.005291188
-0.09682221
-0.021171905
0.03696512
0.031175304
0.14048578
-0.03640891
-0.08149403
0.4384046
0.33391863
0.6877254
0.52501357
0.036054526
-0.4896125
-0.38019586
0.753092
-0.031623404
-0.15833403
0.14098632
0.016920162
0.20036523
0.13970527
-0.023476234
-0.05919828
-0.0010385963
-0.052912295
0.009912929
-0.03860912
-0.0047641457
0.12201274
-0.10618436
-0.08511694
0.080083095
-0.09386474
-0.0039330213
0.089916386
0.259515
-0.0380512
-0.06216863
0.16884439
-0.11482939
-0.098117016
0.021041729
-0.05685955
-0.036667768
0.014760632
0.002348788
-0.2581496
0.010264455
-0.119207464
-0.0014943102
-0.08707171
0.12099627
0.115836665
-0.06476697
0.1619172
-0.021234121
0.051725574
-0.012991321
-0.0072940113
-0.07251223
-0.075020134
0.0012949372
-0.16307196
0.06113393
0.031589378
-0.07346102
0.00013600443
-0.0766917
0.14646688
-0.16570868
-0.014612417
0.044791624
-0.06804264
0.090472765
0.10925953
-0.018220345
0.24655896
-0.27336636
0.3166205
-0.6495381
-0.17794587
-0.016097208
-0.29119083
0.19337729
0.06897521
-0.063034736
0.6950738
-0.015694272
-0.8469587
-0.12643808
0.45433846
0.7048764
-0.5764157
0.014758339
-0.08813654
0.074134044
0.05642829
-0.37007108
-0.05569289
0.090957105
-0.06791948
0.015895389
0.021102013
0.049936004
-0.033752423
0.017410211
-0.8691778
-0.05947185
-0.19632776
0.008550196
0.43340194
-0.54028106
-0.012578836
-0.05331861
0.1167905
-0.39024398
0.60922986
-0.2862009
0.042902686
-0.06116129
0.05838922
0.013182737
0.3938548
-0.35652182
-0.072885185
-0.49394196
-0.29704186
-0.23784612
0.37990502
-0.57878095
-0.02581511
-1.353524
0.016092096
-0.1260197
0.16118254
0.0044030533
-0.20297994
-0.20513628
0.24702838
-0.0019816838
0.124015294
0.012766206
0.1515538
-0.0014708571
0.22487405
0.0054787626
0.2148941
0.020749556
0.12828234
0.03935142
-0.27983478
0.033539888
-0.052849002
0.0075303377
0.021596
-0.025211027
-0.010056556
-0.0028615408
0.04622764
-0.2323915
-0.018673109
0.030951634
0.01830557
-0.03485398
-0.048806954
-0.007031951
-0.10974216
-0.048807327
-0.14496337
-0.09452805
-0.06489683
-0.0047761225
0.00951552
-0.06936221
0.06002689
0.05503171
0.16345821
0.0042526335
0.034556013
0.026822483
0.025546806
0.014065669
0.017247088
0.10641253
-0.009640425
-0.1586406
-0.20571965
-0.03566364
-0.030408517
-0.1781173
0.0064905826
-0.01881546
0.17601004
0.029118696
0.15074295
0.015399993
0.084323905
-0.014473601
-0.48212138
0.10214422
-0.31388187
-0.051402684
-0.0314257
-0.16679202
0.27274698
-0.034739345
0.4671288
-0.028870894
-0.34972152
0.054042418
-0.15236968
-0.04571382
-0.5749543
0.027872147
-0.09564968
-0.0015069767
-0.07302323
-0.075922504
0.08966761
-0.07524023
0.064397
0.005346228
-0.06849477
-0.060979273
-0.008093949
-0.0099672
-0.47110173
0.05604575
0.09327942
0.048783086
0.37762284
-0.046274386
0.17665958
0.000115280316
-0.05211158
0.0007677617
0.09799895
0.16078019
0.045315076
0.033087566
0.19327167
-0.0013506077
0.14558946
0.032830257
0.2224059
-0.048367508
-0.22750166
-0.08309691
0.41333827
-0.19564535
0.36996043
0.0060911044
-0.035986688
-0.35627913
0.08177933
-0.037172657
-0.34753
-0.25040907
0.15278748
0.020380894
-0.0125765735
0.036014624
-0.04259681
0.19667001
0.2523393
0.007877177
0.13503473
0.020561242
0.09664165
0.16805139
-0.010048092
0.18424831
0.017362595
0.00049918244
0.00880482
-0.1948026
0.002892443
0.032864455
-0.14299393
0.016298955
-0.27811414
-0.01740504
0.007526108
0.01929726
-0.044608165
0.043416835
0.021099463
-0.032248024
0.015112565
-0.07017981
-0.1426821
-0.16982275
0.2750168
0.009306099
-0.18707097
0.20282638
-0.0883854
-0.013029291
-0.010023893
0.04039175
0.09370609
-0.06310485
-0.025323005
-0.16068015
-0.16509207
0.14455006
-0.043450292
0.057685807
0.095790535
0.11904361
0.07508739
0.19995472
-0.001023855
-0.01207182
0.042588964
-0.051897176
0.21388915
0.0808721
0.018458279
0.22449712
0.53131664
0.013269132
-0.24856119
-0.29448736
0.029786132
0.036024556
-0.08615937
-0.028865544
-0.086461425
0.16560054
0.11856961
-0.2763816
0.0022451994
0.008575074
-0.41424468
-0.15639924
-0.02769521
0.1648169
0.21008028
-0.09887379
-0.27926832
-0.066227585
-0.072125584
-0.052232128
-0.10314848
-0.027375676
-0.28951356
-0.024489313
0.32835123
0.15008916
0.16046186
-0.18895842
0.22486283
0.0022779426
-0.026401585
0.20257922
-0.33880478
0.2509981
0.023692615
-0.059552196
0.10724624
-0.018623551
0.14033203
0.18075918
-0.05297334
-0.1828174
0.24714312
0.47064453
0.20667417
0.19307612
0.11700903
0.16922414
-0.025186688
0.088500425
-0.14054093
-0.0021981592
-0.6322932
0.29387435
0.1862093
-0.017820416
0.007009661
-0.03434594
-0.55405444
0.07546162
-0.008615226
0.022062812
0.25097686
-0.06270685
0.04646621
0.28659552
0.2691986
0.02103425
0.2800334
-0.084657654
0.1492838
-0.36744165
-0.042922877
0.33628887
0.096822664
0.15233818
-0.40405613
0.021774728
-0.035540245
0.031122392
-0.06402841
-0.058747258
-0.08384335
0.014433673
-0.043456703
-0.03192631
-0.023935737
-0.3327809
0.59558785
-0.026444722
-0.6759299
-0.54491585
0.052601855
0.14682259
0.0053202086
0.015614688
-0.15719299
-0.043071065
-0.054184265
0.29754943
0.006299622
-0.015604179
-0.1419075
-0.07568878
0.0045833117
0.5813527
0.20226704
0.13591962
-0.30794582
0.090333395
-0.011123728
-0.086504266
0.6958105
0.26294738
0.24305384
-0.029439816
0.06896186
-0.0039464342
0.16552651
0.08763876
0.6788932
-0.014356314
0.29219747
-0.0006938861
-0.2332074
0.18942544
0.31612954
-0.24146593
0.2584863
-0.07040143
-0.4997924
-0.2282694
0.0357307
0.19442065
-0.26093298
0.18091594
-0.046516355
-0.0060574585
0.0025449495
-0.008805227
-0.012169
0.052450716
-0.33888122
0.046109315
0.44541866
0.22715122
-0.17565028
-0.55110335
0.7123283
-0.0050111483
-0.16676083
-0.10372726
0.2095017
0.31773627
0.02355393
0.020093964
-0.21971609
0.028270427
-0.0360842
0.18361925
-0.3898027
0.35787374
-0.89609635
0.1971042
0.1810476
0.47933957
0.37848556
0.5589309
-0.10941007
0.354397
-0.2870657
-0.031738445
-0.10691597
0.082980104
-0.12348386
-0.041267596
-0.08923594
-0.047375172
0.08327509
-0.07328369
0.18963583
-0.044909902
-0.059543565
-0.009370625
0.112889215
0.13501681
0.19824593
0.011009854
-0.032206953
-0.049424354
0.0049482654
0.16634099
-0.07284326
0.08706113
-0.11551037
-0.029215831
0.17958689
-0.06980016
0.023567371
-0.06391646
-0.08203676
-0.05828897
0.1559568
0.023819072
-0.23185073
0.053671107
0.07415188
-0.004440325
0.11833289
-0.021481832
-0.293868
0.08949116
-0.23336318
-0.05656213
-0.023741674
-0.049981553
0.034804877
-0.04644323
0.15037675
0.052908927
0.0805773
-0.090892844
-0.015611461
-0.02578654
-0.23751283
0.16185649
0.18431339
-0.15173754
-0.1056737
0.10564237
-0.16298985
-0.057652175
-0.03207658
0.46141642
-0.15724273
-0.51152635
-0.2519282
0.03751686
0.10097187
0.25357842
-0.52127117
-0.01840746
0.14800847
0.037133027
-0.11136773
0.087516256
-0.0704348
-0.713684
-0.056324884
0.050629906
-0.5707662
-0.5403022
0.054698214
-0.29835337
-1.2797171
-0.2987833
0.5278871
-0.022374725
0.04307699
-0.031161893
0.00097049365
0.051227085
-0.4574061
-0.006752157
0.07919914
-0.06800598
-0.36860782
-0.17445663
0.42076036
-0.015045755
0.11491868
-0.99820983
0.58808506
0.2667103
0.03877364
-0.06789302
-0.33784044
-0.015303853
-0.23512454
0.15612207
0.31847212
0.24575838
0.14984457
8.5583335e-05
0.22695954
-0.10944241
0.46465898
0.38358057
-0.6130622
0.109544285
-0.3694933
-0.027174726
-0.21224009
0.21839988
-0.017955098
0.24653412
-0.03181269
0.010150575
-0.2071307
0.024171123
0.08403789
0.044068962
-0.17340992
-0.033429097
0.099326655
-0.1220548
-0.09527332
-0.008401279
0.08524107
-0.070525475
0.020411376
0.12552316
0.045213517
0.15887986
0.1582884
-0.02154517
0.042910147
0.019248564
-0.034517676
0.053199954
-0.004085614
0.019712105
0.050426617
-0.06377593
0.14751697
0.077806905
-0.08521017
0.20835537
-0.19944362
-0.03430557
-0.029097456
-0.11784252
0.12685151
-0.0028255086
-0.036200445
0.02026976
-0.025332678
-0.058277253
-0.009548499
0.13073444
0.02488045
-0.011778372
0.020894345
-0.010948041
-0.022408444
-0.009928525
0.11600012
-0.020050712
-0.0013672977
0.017511312
0.052453373
0.0001439409
0.07917473
-0.042776562
0.008212855
0.25950122
-0.16870628
0.024712615
-0.0036084068
0.3496742
0.4526463
-6.415346e-05
-0.29339927
-0.03106952
-0.14541765
0.025412384
-0.14141117
-0.43547806
0.02084511
0.053642783
-0.38124305
0.13411567
-0.015386289
-0.12238835
0.33582234
-0.30000615
0.12609947
0.02157862
0.002887238
-0.060119838
-0.05112037
-0.010649331
-0.26633447
-0.0732999
0.09077476
0.10071782
0.040979244
-0.09475971
-0.016922958
-0.0012939615
0.14729427
-0.40755898
-0.035770763
0.05090612
-0.047800243
-0.008584757
0.1643981
-0.012893654
-0.22593264
0.14261274
0.01844311
0.03745944
-0.18368557
-0.06385628
0.07579435
-0.15695252
0.0022678762
-0.69251996
0.08029667
-0.5101974
0.23293464
0.03175271
0.087104715
0.028036958
0.29983875
0.10845289
-0.07110292
-0.05928447
0.059331976
-0.07257549
0.12670831
0.016838083
-0.13896959
0.038855482
0.13579871
-0.11107702
-0.1688802
0.058778223
0.15528068
-0.02747055
0.003678286
0.10941939
0.0095378645
0.16731592
0.08270805
-0.07373944
-0.1472784
0.008899804
-0.04796618
-0.01974247
0.01957037
-0.016470212
0.09627198
-0.07770713
0.08742222
0.057644248
-0.06798358
0.053981647
-0.25884277
0.042049523
0.106678165
0.013342357
0.25545815
-0.035158157
-0.078104466
-0.022405464
0.102784924
0.049864408
0.0040800534
0.1487121
0.012325774
0.031547796
0.039858047
-0.051717885
-0.09713037
-0.053227685
-0.04748176
-0.18062383
0.1607402
0.112292185
0.12842858
-0.056228545
0.09203138
-0.03104792
0.14394583
0.31788653
-0.23593354
0.043850314
0.26121542
0.13301904
-0.20061865
-0.044809528
0.28321847
0.028170003
-0.08876184
0.1326356
-0.05472986
-0.15269841
-0.40027535
-0.0731119
-0.13581808
0.22714598
-0.018174797
0.27597567
0.28193098
-0.43260145
0.30029452
-0.01765989
0.050701216
0.03915292
0.024371885
0.041695356
-0.058431678
-0.035517782
0.34637567
0.050511293
0.20290965
-0.43106198
-0.22058545
0.021672292
0.28390527
0.034894653
0.9672373
0.25337452
-0.051950965
0.015926868
0.21203756
-0.014795262
0.15530694
0.06416797
0.2367343
0.16632722
-0.14622831
-0.3173989
-0.00033908506
-0.41485372
0.1547719
0.12617894
-0.010723238
-0.24077204
-0.043632828
0.037272524
0.15228799
-0.061753508
0.029712075
-0.17547977
0.0045777047
0.024558976
0.055126723
0.07424591
0.092973135
0.036670625
0.11286586
-0.07456757
0.058836818
0.042294618
-0.116371475
0.16607966
0.059511777
-0.013589963
0.37937728
-0.06949698
-0.048344016
0.2372821
-0.26410508
0.12586825
0.019899642
0.0006208945
-0.027928956
0.04556765
0.0374995
-0.025058132
0.07560306
-0.049623623
0.05834132
-0.298066
-0.4737516
0.2184915
-0.25452954
-0.053004257
-0.42856753
0.08023354
0.053223986
-0.047032434
-0.0046677045
0.00039609155
0.02002249
0.036906086
0.111487195
-0.15041177
0.091628864
0.20092538
-0.22203127
-0.14317721
-0.03778305
-0.07566912
-0.112214446
-0.16997181
-0.002557819
0.047499754
-0.0715006
-0.05593845
0.13154237
-0.14210826
0.002830177
0.3391358
0.08539249
-0.054781817
0.24333568
0.14446367
0.5496323
-0.019564284
0.20115809
0.03458498
-0.32927206
0.053390298
-0.09088251
-0.3376557
-0.18938509
-0.05317678
-0.2401891
-0.15881316
-0.06723881
0.092064
-0.40479994
-0.049082793
-0.060033362
0.048440196
0.012582219
-0.048007015
0.0027332918
0.040587455
-0.15880543
-0.022765333
0.45445314
-0.353197
-0.0048007327
0.047512405
-0.26009834
0.047899406
-0.051698204
0.35820597
-0.094844684
0.07034913
0.0005481923
0.0035987557
-0.03892696
0.01319167
0.16868348
-0.23517871
0.08098137
0.34093645
-0.37883618
-0.057140253
0.16971849
-0.19122308
0.023337087
0.16273046
-0.06857287
-0.32182238
-0.036700647
0.05069435
-0.23700497
-0.15032925
-0.088345334
-0.35827166
-0.1672165
-0.008653997
-0.9475727
0.10829591
-0.01505421
-0.023840362
0.051859546
-0.0021557882
0.0467287
0.04540461
0.03087633
0.24215981
0.31526187
0.014016409
0.22835302
-0.2994941
-0.053217128
0.44292936
0.119748175
0.10356243
0.16513471
0.042538255
0.030767174
-0.058726087
-0.02855906
-0.021239638
-0.08729954
-0.03749836
-0.652197
-0.6669276
0.054308914
0.1339495
-0.07579402
0.0038512894
-1.0583956
-0.4327349
0.040081214
-0.122566596
0.016055014
-0.056217175
-0.2770348
-0.038013477
0.17866041
0.36998457
0.122591116
-0.082781754
0.16428092
-0.057096913
0.09699429
0.28802207
-0.07393715
-0.24859706
-0.001963294
0.2606673
0.13987096
0.005444952
0.14672258
-0.14268917
0.5301007
-0.10121821
0.09356483
0.0032081944
-0.10144749
0.35681313
0.70414895
0.04037168
0.4636529
0.026422905
-0.20785452
0.14467485
-0.1041279
0.13302061
0.20670713
-0.05898129
-0.6505999
-0.089897
0.028361844
-0.015476896
-0.3072473
0.09179314
0.2856986
-0.07631579
0.022926493
0.036887415
0.016020231
-0.022477258
-0.15827492
-0.037680656
-0.21451811
-0.5484449
0.13950564
-0.1046598
0.13287248
-0.06605939
-0.97357833
-0.106312506
0.10743277
0.04185742
0.040863317
0.026392905
0.13436526
0.01364599
-0.054160997
0.17472883
-0.10334121
0.25434923
0.14554816
-0.036430534
0.0368261
0.30778188
0.13885938
-0.022802448
0.06820682
0.09862678
0.0931947
-0.080818646
-0.14430514
0.01666024
0.03738209
0.074416816
-0.045662086
0.051517565
0.01272652
0.23571336
-0.14472272
-0.07800403
0.1623787
-0.045653533
-0.20015381
0.0369439
0.20738512
0.22144441
0.04795002
-0.018754957
-0.15592949
-0.15760984
0.032757863
0.12049325
-0.1305001
0.21629164
0.14583904
0.03827068
-0.009356392
-0.0006123818
-0.044539183
0.004382059
-0.09097319
0.020122992
0.19369344
-0.39371553
0.13055977
-0.20983824
0.19410467
0.007661349
0.07030223
-0.06501552
-0.1733104
0.11792807
-0.018567665
-0.005337941
-0.17449574
-0.06396067
0.13310517
-0.116472
-0.04900161
-0.047347747
0.19896986
-0.04831671
0.12108293
-0.08807549
0.38757423
-0.0105196545
0.25782916
0.15045568
-0.253043
-0.012263115
-0.02987651
0.39205045
-0.36500004
0.14748566
0.11025928
-0.018730246
0.10793606
0.25196695
-0.56625193
0.040648922
0.033065524
-0.016933123
-0.485984
-0.12592712
0.2887946
-0.044089142
0.55365556
-0.06575472
-0.28908917
-0.21721104
-0.06180192
-0.16086228
-1.1466423
0.0565741
0.4511908
-0.029980568
-0.017847463
0.0466289
-0.090787224
0.06196051
-0.05760752
-0.037536938
0.82489955
0.17868634
0.43440476
-0.5522131
-0.051518746
-0.030975293
0.057747453
-0.23738553
0.18976766
0.15589541
-0.013176274
0.06000619
0.09385044
0.035937414
-0.10511405
0.0764353
0.02380811
0.09079972
0.11254224
-0.46513444
0.07258527
-0.29682475
0.5964565
0.27031434
-0.21135299
-0.112805605
0.4931286
0.024014136
-0.4495617
0.049350068
0.04387521
0.08179676
-0.37910962
-0.04294826
0.024522495
-0.08004733
0.04029619
-0.07591161
-0.17945284
-0.03498467
0.05138119
0.020425307
0.24086812
0.14307092
0.078821234
0.011158078
-0.22043838
0.11491722
-0.008538589
0.15138541
0.005546043
0.17960973
0.18873116
-0.016788376
-0.032516956
-0.061047923
-0.003587496
-0.05799559
0.025517581
-0.06518858
0.22665286
-0.22761874
0.22223666
-0.10573061
-0.10353731
-0.071802646
0.23682877
-0.09579646
-0.080530554
0.025871314
-0.076573275
-0.032129567
0.051574625
-0.0048458953
0.1286265
-0.14977258
0.19041513
0.021726146
0.06751008
0.0934751
-0.0756063
0.021329576
0.14140852
-0.071683414
0.085753016
-0.025132606
-0.07967682
-0.035364278
-0.08946276
0.23211873
0.07675883
0.29374504
-0.01765852
-0.027028218
-0.23553216
0.30895677
0.6645409
-0.044603124
-0.4302908
-0.008778301
0.1906735
0.049931515
-0.0030767424
-0.42093733
-0.011817985
0.026804594
-0.09870031
0.28106844
-0.06694332
0.026213273
-0.039713915
-0.4811247
0.2544714
-0.030533642
-0.05836017
-0.027107615
-0.012033028
-0.043286763
0.043114662
0.043219995
-0.35127681
0.3173002
0.2873049
0.034885265
-0.39170364
-0.002848494
0.32020208
-0.38571793
-0.18100081
0.05418654
0.01321202
-0.016833354
0.07489165
0.042783216
0.17574413
0.044687126
0.008010112
0.13878012
0.26493484
-0.22343247
0.058696643
-0.19246782
0.25513375
-0.29516223
0.18227942
-0.19554573
0.2910104
0.022169154
-0.20610029
0.10532219
0.103828855
0.17545623
-0.19704321
0.03861103
0.047795724
-0.23483963
-0.014041199
-0.009420682
-0.3422809
-0.014197008
0.008493593
0.07537799
0.10905453
-0.03591065
0.15250793
-0.101679556
-0.23240393
0.08634634
-0.036396027
0.15861161
0.07981827
0.14542441
0.16624312
-0.006478342
-0.008467486
-0.03675661
-0.021204852
-0.05028264
0.1225431
0.014414179
0.2477859
0.15182318
-0.059017487
-0.18942894
-0.31307992
-0.041649632
0.08122983
-0.013428083
0.0139147565
0.059170026
-0.050168216
-0.048904397
0.055057324
-0.037433617
0.12919688
0.085953094
0.15070601
-0.025984734
0.027146734
0.19647916
-0.03329933
0.07483658
0.09590592
-0.15067951
-0.038018204
0.05140047
-0.082692936
-0.028901605
-0.20967972
-0.09855423
0.35257247
0.20917909
0.07286589
0.044510398
-0.080557875
0.035180658
0.29433328
0.015334308
0.026300417
-0.013553475
0.16758783
-0.18993479
-0.12842327
-0.2574948
-0.03086233
0.043410614
0.021448607
0.10385196
-0.07432216
0.18694367
-0.013626328
-0.38738552
0.12129278
0.0015543788
-0.0032613233
-0.031053517
-0.06411163
0.022860415
0.35587955
-0.034534886
0.25004467
-0.0027702737
0.12142464
-0.09219247
-0.17141643
-0.014971807
-0.007256345
-0.005378573
0.04681731
0.30102634
0.025590912
0.006563192
0.20368864
-0.059313446
0.052603293
-0.027670372
0.06374503
-0.069629416
0.0049448144
-0.3739478
0.18491217
-0.46072748
-0.13444275
-0.45301136
-0.0179065
-0.18386261
0.42124423
-0.021312995
0.0021678456
0.31356966
-0.19931524
-0.45925158
0.26942098
0.002496268
0.17068169
-0.32918018
-0.075344585
-0.0054645054
-0.069824375
0.02289957
-0.0001495423
-0.09449933
-0.07767152
0.21788128
-0.11830749
-0.009973146
0.09203793
-0.067571744
-0.04891111
-0.117578894
0.26292455
-0.096379995
0.30817878
-0.028430715
0.047259416
-0.051154073
0.017347578
0.016124703
0.33198377
0.0091707045
0.24338996
-0.021676272
-0.059571058
0.15620969
-0.5353101
0.0020264497
-0.4133546
-0.12508224
0.024730517
0.0029818418
0.023857327
0.0252459
-0.19585185
-0.04183702
-0.13698694
0.20963383
0.3029704
-0.57257104
0.36024985
0.063186474
-0.4327327
-0.16887301
-0.23383008
-0.017772522
0.2648894
0.11067845
-0.0968398
-0.013909315
-0.20697653
-0.16220354
0.27563128
-0.2850119
0.12839895
0.039935354
-0.13419448
-0.47436723
0.33450583
-0.05388921
0.08227559
-0.039210178
0.18964
0.2568031
-0.11066615
-0.08578527
-0.19021004
0.007896002
-0.018023875
0.2956987
-0.02653641
0.04809298
-0.057672486
-0.10723214
-0.20991048
-0.043780267
-0.060517132
0.00079800934
-0.07888681
0.024186961
-0.16937265
-0.0005714805
-0.20843041
0.1842562
-0.5067762
0.0010014775
-0.10158215
-0.003875653
-0.22723669
0.19042552
0.09250821
0.03556755
0.044202056
0.018132683
0.17033902
-0.0070018126
0.14328377
-0.008933416
-0.046196632
-0.18626928
0.015069947
-0.19431628
0.15247557
-0.056415327
0.04286349
-0.10196372
-0.17533265
0.36390644
-0.0039720894
-0.006562707
-0.25126433
-0.13808827
-0.3179823
-0.31778637
-0.37740627
-0.036125872
-0.62991595
-0.46025673
0.06845061
-0.055518042
0.28089643
0.018159317
0.5701795
-0.09227617
0.22934999
0.35957167
-0.22274075
-0.09228869
0.6020395
-0.05599353
-0.05796501
-0.0657101
0.1840508
-0.03256655
0.8404045
-0.0067753745
-0.0101921875
-0.01321915
-0.009912982
0.05491261
-0.20924479
-0.03274085
-0.10435859
-0.32952473
0.2561106
-0.0058672717
-0.44456288
-0.025325445
-0.39123365
-0.45523447
0.061461788
-0.093434155
-0.012383655
-0.079627044
-0.3353963
0.030114597
-0.05912592
0.16500048
0.39419875
-0.52997273
-0.28417906
0.1722308
0.07453374
-0.088915415
-0.34143764
-0.4149064
0.020564027
-0.18780075
-0.37641552
3.9721644e-06
-0.3945691
-0.2910069
0.22257912
-0.3808477
-0.09791245
-0.056075662
0.13518043
-0.37469456
0.63482565
0.03685746
-0.18307218
0.02289412
0.5343617
-0.179075
-0.18898001
0.11843169
0.14847463
-0.032985825
0.20112199
-0.05586997
-0.06115139
0.016532658
-0.19911683
0.44695005
0.71069103
-0.039653946
0.0011165964
0.040729403
-0.03534434
-0.05761048
-0.05285193
-0.007612913
-0.035899017
-0.16539644
-0.2420647
0.07812537
-0.124202564
0.008036414
-0.324438
-0.112019606
0.07146766
-0.115662746
0.036067378
-0.066577904
-0.013080441
0.0059481817
0.15156406
-0.04787088
-0.27694088
0.12027724
-0.27225518
0.3086609
0.415168
0.2946948
-0.022837827
-0.086435616
0.08987652
0.15145436
-0.24858733
-0.0014543124
-0.4498237
