0.5370641
0.017851036
-0.6904731
-0.37832892
0.11195253
-0.55119914
0.29399267
-0.0076892404
0.11783042
0.13344093
0.10488462
0.15913986
0.21501651
0.56514657
0.117044486
-0.51312876
-0.06311916
0.10625411
-0.7752801
0.30969203
-0.02100729
0.2979511
0.33878994
-0.06570349
-0.5217231
-1.0944617
-0.472871
-0.4820896
0.4305257
0.23018599
-0.23892355
0.79424673
0.13852134
-0.1749559
0.15414271
0.049331248
-0.23689601
-0.51517135
0.5658798
0.48837984
-0.2860167
0.27691698
0.14300174
0.15383467
0.120887585
0.11586107
0.11302482
-0.07294869
-0.06884186
-0.19071035
0.18001078
-0.043930653
-0.4491727
0.13814734
0.1987543
0.7811829
-0.07276973
0.007761875
-0.47872558
-0.15448014
0.22580044
-1.7586156
-0.36192214
0.52670455
0.3964598
0.28850973
0.5154251
-0.6705477
-0.12785788
-0.41881818
0.3201016
0.89376885
0.39831883
0.16233803
-0.49856773
-0.6681626
-0.5913883
-0.48454824
-0.29054588
0.53980476
-0.12518306
0.01418621
0.055629656
-0.16857296
0.17763594
-0.24390419
0.23010603
0.12630273
-0.22871381
-0.28184974
0.26487958
-0.570611
-0.22141822
0.08305901
-0.22306658
-0.87655187
0.28699595
-1.0158315
-0.3605463
0.34709582
-0.25869587
-0.1967406
-0.23827425
0.06440899
0.24110046
0.23900583
-0.30451757
0.26201457
-0.17546962
0.21692607
0.18331769
0.020773586
-0.87798876
0.63976806
0.45605615
0.14666769
0.22689964
-0.057246454
-0.14844914
-0.104319334
-0.5702179
-0.091100946
0.14339055
0.28023204
0.0433987
0.26326105
0.1384342
0.102468275
0.2647461
-0.05011296
0.15550843
0.36462206
0.37738845
-0.07398009
-0.7140848
-0.13659394
0.36504248
0.013053165
0.3922533
0.020598905
0.10964742
0.62899166
0.2403986
0.031907905
-0.47969058
0.049511522
-0.004605451
0.14977479
0.26277065
-0.23200028
0.4351732
-0.06730456
-0.210592
-0.122821696
0.35647336
0.4732733
0.19029766
0.09824067
-1.0491142
-0.66855514
-0.035486337
0.17508398
-0.1245407
0.1835141
-0.00047733687
0.0038032143
-0.15669432
-0.28613463
0.045832187
-0.21929899
0.0995454
0.34032527
-0.66239357
-0.8358644
-0.19871262
-0.31295317
0.27598643
0.25878394
0.28783172
-0.12576817
-0.17426088
0.5556666
0.20499943
-0.12897179
-0.49811196
-0.68058187
-0.20607686
0.08379522
-0.04060725
0.34216693
-0.07542101
0.080332205
-0.0907698
-0.21155217
-0.03466306
0.09437387
0.12686224
0.046882257
0.2524922
-0.027674329
-0.0973985
-0.39808658
-0.2165678
-0.09067617
0.2947873
0.2882196
0.25539142
0.29682824
0.23234403
-0.11307021
-0.6853151
-0.40837255
-0.06373749
0.10335211
0.07884799
0.43376046
0.43314397
0.09788893
0.3829054
-0.6762986
0.13545318
-0.8440081
-0.15291628
0.23501629
0.27224836
0.30858678
-0.63658446
-0.07641681
-0.88329685
0.5452106
0.8247229
-1.1235799
-0.2450452
0.2041895
0.5665436
0.6471385
-0.014372873
-0.1538987
-0.05267848
0.20404202
0.0041698623
-0.10268987
0.1640029
0.092179224
-0.26674262
-0.14680395
0.11603605
0.21616171
-0.28777197
-0.0923496
0.017644737
0.15561324
0.0458611
-0.21753086
0.14855303
0.14736386
-0.21954252
-0.079324156
-0.3010467
-0.20119585
-0.12325211
0.14299995
-0.27714112
-0.27007705
-0.22273731
-0.24347031
0.15897632
0.008641134
-0.122442074
-0.19764142
0.016579276
0.20376241
-0.24993715
0.26414397
0.23006517
0.024280354
0.17663285
-0.14519896
0.013533327
-0.017974801
0.049640954
-0.16228336
0.050253034
-0.22051609
0.07477337
0.26576227
-0.018358916
-0.14659832
-0.00026372075
0.27602887
0.68127435
0.0820881
-0.28248364
-0.18421431
-0.3406588
0.1355712
0.3462335
-0.28060532
-0.20377472
-0.079819776
-0.19819185
0.20103107
0.0061579063
-0.009508444
0.11124984
-0.31854096
0.14258252
0.10115592
-0.09036115
-0.06913116
-0.4221319
0.66119736
0.383076
0.30348805
-0.20026302
-0.83672106
-1.030293
-1.1523372
0.64567584
-0.004298501
-0.123156756
-0.5469134
0.08732183
-0.25519407
-0.1141606
-0.45330432
-0.07163525
0.23605901
-0.06850369
0.64395595
0.49869394
0.24775857
-0.44735345
-0.14609458
0.4012551
-0.036365047
0.6393492
-1.0989283
-0.6962196
-0.50554127
0.5364115
-0.046083447
-0.9635276
-0.15105705
0.3102343
-0.476636
0.2245982
-0.19093435
0.2536736
0.2225742
-0.44794527
1.0757979
0.3704817
0.004831466
-0.65015423
-0.5804736
-0.358665
0.027446365
-0.34810752
0.43439394
-0.20852032
0.13432729
-0.104674116
-0.15610164
-0.16594672
0.0035829225
0.14787333
-0.2593527
0.10028828
-0.30232158
0.43548438
0.36217523
0.29323816
0.19063507
-0.20355658
-0.18982407
-0.81977546
-0.13969313
-0.7415006
0.51793325
0.45163953
-0.34339654
0.18330003
0.48145986
-0.16985609
-0.024410456
-0.49433577
-0.17370652
-0.6869315
0.32759452
0.51751643
0.2525628
0.20741145
-0.4365105
-0.63994265
-0.6261315
-0.1329869
0.2688882
-0.41303423
0.7653652
-0.14913554
-0.13353555
0.11463647
0.02180793
0.0759618
-0.13471836
0.23379701
0.12600623
0.049213555
-0.25322944
0.043388512
-0.25350595
-0.025229786
-0.02043211
0.20159586
0.16644755
-0.08278827
-0.3015463
0.21286586
0.26530632
-0.24307056
0.20106664
-0.23241661
-0.27227396
-0.06767522
0.19835351
0.22117051
-0.10619678
0.27675566
-0.19474755
-0.075393975
-0.026119895
-0.27516088
0.02180947
-0.15183051
-0.24541081
0.061557416
0.28744265
-0.22553638
-0.11108731
-0.21593317
0.027128987
-0.013600264
0.15560998
0.044011842
0.28260562
0.0027107866
0.12031206
0.04121908
-0.14143007
-0.064202145
-0.60899204
-0.1908025
-0.091806136
0.057673726
0.37137303
-0.07655479
0.21275963
0.17623208
-0.12289052
-0.2896809
0.17725785
0.023543976
-0.16885641
0.18049242
0.047538955
0.40575022
-0.1316429
0.31083715
0.15572955
-0.6690204
0.49865913
-0.19323488
-0.28569925
-0.27350515
-0.019697767
0.26586404
-0.2674609
0.23993824
-0.3082281
0.19862737
-0.5425136
0.08870345
0.20361261
0.10357232
0.09594877
0.09989352
0.06840062
-0.5335851
-0.5868667
0.27029553
-0.42205092
0.20240848
0.61171913
-0.048550542
-0.22476332
-0.15638392
0.1571938
-0.92723477
0.48607665
-0.11101884
-0.20872688
0.25001195
0.026869794
0.03683659
0.32854196
-0.47019285
-0.30528343
0.15629004
0.2720059
0.14611217
-0.33347538
0.3824948
0.24107587
0.22922759
-0.2120387
-0.024891147
0.13303812
0.17591362
-0.25082824
-0.45504272
-0.48756018
-0.041924253
0.21438637
0.15702125
0.3307913
-0.6247756
0.18614696
-0.190149
-0.8736986
-0.66162276
0.14495726
0.4502081
0.09754242
0.31689897
-0.068035305
-0.07714456
0.17799027
0.3534218
0.066655256
0.64391077
-0.67163295
0.21119742
0.10079892
-0.36312753
-0.26373336
-0.26913807
-0.66486627
0.41996178
-0.39212003
0.005879999
0.19544962
0.6995279
-0.06766883
-0.045149747
0.13873532
0.28993648
-0.18430538
-0.55500966
-0.14668024
0.30703872
-0.405132
0.114238724
-0.21354611
0.038031235
-0.013558997
-0.24803156
0.3590906
-0.27266702
0.17535989
0.3513245
0.3964603
0.37138364
-0.05514653
-0.45651048
-1.1833748
-0.17234604
-0.18152866
0.39967707
0.51709634
0.005418103
0.10566606
-0.2951649
0.2093081
-0.2714481
-0.25666508
-0.02973004
0.23685402
-0.22472833
0.2621763
0.041263737
0.84053296
-0.4075327
-0.42152005
-0.5901374
-0.39418918
0.77479714
0.09153182
0.8628944
-0.23041454
