0.37104365
-0.5200474
-0.065938115
-0.36341727
0.0064824685
0.37133285
0.38242808
-0.12178991
-0.16278082
-0.069544315
-0.25596064
0.58656275
-0.05121297
0.27478093
-0.31539354
-0.031113444
-0.60090816
-0.18939549
-0.164847
0.02935617
0.5361896
-0.020376114
-0.23845842
0.3154718
0.05400012
-0.3530917
-0.71336794
-0.70743316
-0.37468126
0.5643552
-0.37471944
1.0483077
-0.15310593
0.30264443
0.065685935
-0.35125983
-0.32550973
-0.06645719
-0.27603373
0.46954072
0.23883232
-0.101178385
-0.20818768
-0.11584171
-0.27538747
0.1852595
-0.18596955
-0.27092686
-0.1624246
-0.2420652
0.27448812
0.06142708
-0.058031254
0.1282283
-0.08354913
-0.083784714
-0.2564609
0.26724043
-0.23370428
0.26406386
-0.12928374
0.1633902
-0.318915
0.42006156
0.52490586
-0.53255147
-0.44055918
-0.6731819
-0.5351373
-0.054917544
0.24385491
-1.194398
0.29211044
0.21659651
0.043761224
0.12815236
0.4072217
0.021995563
-0.19018388
-0.5408664
0.048551384
0.48364133
0.43576097
-0.27655804
-0.30837074
-0.795149
-0.65204483
-0.73678297
-0.020627744
0.4114568
0.1629077
0.014915848
0.13222495
-0.906836
-0.27279967
-0.87528956
0.17529038
0.24524471
0.4770114
0.29346052
0.047204252
0.030673305
-0.43771014
-0.26121312
0.22561465
0.21713166
0.17975141
-0.16910529
-0.013881574
-0.071135804
0.12011856
-0.050753083
0.20153996
-0.20078602
-0.25011644
0.019534122
0.097183965
-0.21003966
0.25455716
0.2656164
0.17721727
0.4345096
0.26503068
0.36654842
-0.14851883
0.21068616
-0.86688334
-0.26964676
-0.1921358
-0.26504317
-0.7080254
0.2438973
0.19211406
-0.265147
-0.12079899
0.27320927
-0.21479166
0.18245058
-0.11229254
0.18128337
0.18984386
0.16391866
-0.4550686
0.42093697
-0.41600385
-0.44772193
0.23499736
-0.26833135
0.40969092
-0.52913135
-0.095862865
0.31070516
0.15815678
0.3991901
-0.17344224
-1.2695961
-0.592997
-0.53694296
-0.23790924
0.8602097
0.4782745
-0.17811781
-1.1854657
-0.055875417
0.013598769
0.22767682
0.34527323
0.08326048
0.0671659
-0.24840385
-0.2694261
0.22436754
-0.95975524
-0.24021359
-0.43321797
0.48745745
0.24407823
-0.03254853
-0.040032562
-0.36453322
-0.1791623
-0.10276276
0.10030522
0.07548083
0.121207915
0.3387147
-0.4323427
0.2208086
0.16844831
-0.5532851
-0.29265797
0.43454155
0.09776781
0.21155839
0.2165897
0.11076822
-0.79232466
0.27355662
-0.25937113
-0.37552962
-0.80710846
0.044678207
0.23498909
-0.07911493
-0.11336464
0.20704052
-0.6360774
0.15069595
0.11139458
-0.75848454
-0.28687438
-0.32475975
0.23233242
-0.20707487
-0.10546454
-0.24014701
-0.59121627
-0.3866847
0.35682422
0.3945768
-0.99622196
-0.05104107
0.049935244
0.24162318
0.17390922
0.16682184
-0.45885238
0.32837978
-0.30698708
0.22659075
-0.09766889
-0.53730404
-0.08932465
-0.17902625
-0.098962285
-0.033119496
-0.20397684
0.24947953
0.17397735
-0.091933094
-0.20249875
-0.15761624
-0.3213077
-0.2717627
0.47164443
0.38693935
-0.3650738
-1.0168585
0.5978368
-0.09170575
-0.20060042
-0.24138682
0.13057889
-0.23797287
0.044307563
0.07088044
0.097914964
0.044808347
0.17709023
-0.18011989
-0.3993982
-0.14381579
-0.3997191
0.18447737
-0.08214181
0.50374067
-0.49393034
0.1140672
-0.7722373
0.17927219
-0.31576303
-0.6039677
0.37653086
0.05365865
-0.022565825
-0.25207928
-0.18554597
0.14114442
0.18848129
-0.090889506
0.0122643
-0.32292455
-0.15957189
0.2302541
0.006802407
-0.20877339
-0.3602313
0.25850272
0.113150015
0.23381701
-0.18714553
0.100062504
-0.3231285
-0.6293595
0.38869807
-0.035869125
0.46944964
0.24178505
-0.23907395
0.048298907
-0.8050659
0.084631346
0.3668318
0.10270141
-0.054454986
0.24363567
-0.45858538
-0.3790975
0.42686415
-0.2630837
0.04239249
-0.2926909
0.24668832
-0.20931716
-0.25508794
0.17147036
-0.14515682
-0.2980398
0.0028818226
-0.22194906
0.2690588
0.15545768
-0.00030057886
0.0568807
-0.053798337
-0.17962138
-0.013769839
0.2271694
-0.18283308
0.047081534
-0.74460363
0.5225288
0.035282306
-0.11350831
0.22853115
0.38034305
0.44978246
-0.23610954
0.60071516
0.03372269
0.3041644
0.091602765
-0.12216191
-0.56674904
-0.42946026
-0.751383
-0.34268314
-0.0134100355
0.035952315
0.50939405
-0.20800991
0.15658657
0.36076978
0.21364951
0.00892934
-0.52641875
0.12761503
-0.35450017
0.11507818
-0.32796955
0.04109113
0.34768164
-0.12563734
0.32314578
0.42861035
0.32891685
-0.12093838
0.29235238
-0.4683986
-0.28926203
0.28644195
0.37679398
0.3191918
0.11243607
0.050102595
-0.48146376
0.0069669164
-0.08672443
-0.2770771
-0.26148802
0.1840903
0.23678336
0.19703458
-0.13889825
0.11895852
-0.2023351
-0.1671409
0.051239792
-0.17651187
-0.031218437
-0.21279432
-0.60108155
0.4115231
-0.6313886
-1.2158961
-0.065104276
0.31978714
0.021155138
0.57870066
0.43239936
0.18633372
0.634466
-0.02547616
0.08689251
-0.7402908
0.6736973
0.6040406
-0.21692242
0.15258235
-0.97049445
-0.044519413
-0.09940823
-0.06520986
0.027145289
0.2846797
0.15109468
0.19074193
-0.11387455
-0.22829136
-0.06226768
0.15933506
-0.09031288
0.012471326
0.05811866
-0.12766981
0.15617539
0.24228182
0.22730488
-0.21656002
-0.13454615
-0.21323875
0.14158645
0.21318167
-0.067431144
-0.046869554
-0.331119
0.3824634
0.22622392
0.10193243
-0.5659765
0.41636863
-0.20483392
-1.261436
-0.005622619
-0.027712611
-0.24607344
0.35946208
0.07919453
-0.26015562
-0.064114265
0.010662002
0.2755035
0.2171492
-0.1663122
-0.19797312
-0.032394644
-0.28403154
0.25700927
-0.047971085
-0.2341324
-0.23429397
0.33467457
0.014653241
-0.11705196
-0.9560565
-0.45823336
0.26253846
0.19339505
-0.04855717
0.3411214
0.4272901
0.20513275
-1.5647284
0.45003882
-0.28287655
0.20237347
0.37245688
-0.81911933
-0.19844678
0.28960758
-0.07173574
0.13463719
-0.27980337
0.076787315
0.17899369
-0.2469102
0.038144078
0.25858998
-0.26383978
-0.21022159
-0.20279516
0.33192852
0.114463
-0.43988267
-0.3933248
-0.12494427
0.34140387
0.20623937
-0.14156047
0.16244233
-0.06864779
-0.2555479
-0.051439937
-0.039990567
0.29168886
0.08199324
0.14824086
0.4089963
-0.11750472
-0.05262632
0.36080357
-0.2463134
-0.5902774
-0.31134868
-0.1619409
-0.034457155
0.038698066
0.31448725
0.21863851
0.30775538
0.30491066
-0.83891445
0.13778725
-0.072548285
-0.093154944
0.23106134
0.018916598
0.21755913
0.28094155
0.07332212
-0.416361
-0.86250067
0.0998108
0.6070041
0.22198497
-0.04306725
0.18063128
-0.08367808
-0.07382206
-0.27824828
-0.21901265
-0.18173747
-0.6706871
0.03917476
-0.10960239
0.074656084
0.4179574
-0.14266361
0.107453234
-0.25568408
0.22222365
-0.30679053
-0.22856133
-0.19625668
0.35065192
-0.025581606
-0.28611678
-0.14806081
0.071277976
-0.22964226
-0.13316402
0.041573886
0.052010696
0.32002693
0.15626295
-0.51356953
-0.68374944
-1.0219201
0.4328895
0.2394591
-0.000829722
-0.090413116
-0.28074172
0.12156043
0.2459339
-0.20518972
-0.23731731
-0.033011664
0.027337685
0.2647333
0.2562536
0.6907078
0.31104013
0.29999527
-0.17932875
0.04093973
0.29078567
-0.71950644
-0.68280745
0.21649905
0.41256914
-0.7544345
-0.3303667
-0.10381091
0.313531
-0.084228896
-0.1545555
0.012114546
0.2173815
0.0638562
