0.26092282
0.102663405
-0.5617842
-0.4071388
-0.30892032
-0.60692114
0.579819
0.011004282
-0.065994605
0.5134636
-0.082643725
-1.0075256
0.17776087
-0.08863745
0.3152283
0.67604685
-0.056623567
0.4307334
-1.0453377
0.27953532
0.124652624
0.47376224
0.38831586
-0.27708435
-0.9869854
-0.55114174
-0.04349667
0.23114118
0.23477764
-0.09708138
-0.03369337
0.8167348
0.07128741
-0.9581777
0.21836168
-0.637237
-0.17460936
-0.1887317
-0.7532455
0.029960029
-1.2809517
0.47606254
-0.0500879
-0.20901021
0.011492256
0.8990421
-0.11460457
-0.97866964
0.4591403
0.09497367
-0.007326742
0.0036710403
-0.6668209
0.3664103
-0.057392925
-0.049116533
0.77576286
-0.08907567
-0.31861457
0.14831585
-0.5308767
-0.21471335
0.4116605
0.017333252
-0.09138824
-0.15130891
-0.12874687
-0.097241886
0.14752252
-0.4852967
0.7603737
0.68636924
-0.22829282
-0.9072174
-1.2166415
-0.4531881
0.5569066
-0.25972015
-0.561601
0.73867613
0.26155475
-0.43351284
0.11460822
-0.3847625
-0.27783227
0.1993332
1.2181869
-0.5165132
0.6777214
0.5635821
0.28655687
-0.34509528
-0.62662816
-0.88385683
-0.17896412
0.60442805
0.52023023
0.6207302
0.051205836
0.046581738
0.8420443
-0.10412404
-0.5586025
-0.3396563
0.047834504
0.660623
-0.21241851
0.11900357
-1.1132929
0.33461666
0.10979104
0.31011835
0.58646804
0.92338675
-0.33013526
-0.66772044
-0.93098503
-0.722644
-1.1906351
0.5248722
-0.6668132
-0.6823132
0.21594757
-0.024682416
0.23160233
0.23267193
-0.63678
0.13868842
-0.3972646
0.016256163
-0.97597903
-0.40856495
0.16371584
0.38300005
0.2201505
0.24094604
0.19650342
0.12762116
-0.44258314
0.3218862
-0.24482891
-0.13989954
0.02839761
-0.02876364
-0.13867442
-0.21361765
0.21768817
-0.15020011
0.13208841
-0.14783047
0.7713962
0.6401281
-0.2589962
-0.8903577
-0.11626934
-0.5949412
0.5908939
-0.97123605
0.41352415
0.28335917
0.456883
0.52430737
0.03268429
-0.22675437
-0.8795385
-0.15634945
0.047270436
-0.11625626
0.28252637
-0.0035561374
-1.3157296
-0.38085204
0.29961625
0.30718037
0.42850956
0.18595333
-1.2787408
-0.28217748
0.03331281
0.5452895
0.16493566
0.017838368
-0.2523768
0.01736459
0.25033742
0.07752768
0.1502766
-0.031655125
0.0026603194
-0.18123788
-0.37503538
0.45773873
0.9703504
0.32235953
0.0784621
-0.92781854
-0.85999036
-0.36611566
0.5307594
0.10471339
-0.071155064
-0.31127733
0.20617393
0.25517792
-0.14891993
-0.58018845
-0.023417678
0.4360996
0.13877532
-0.24297225
-1.0078496
1.0897267
0.5325777
0.053688735
0.100835815
0.14565091
-1.594341
-0.6464469
-0.49675015
-0.11429368
0.571473
-0.5484584
-0.63281775
-0.19740672
0.55245775
-0.3952873
0.5114502
0.4138197
0.32436103
0.11548197
1.4968652
-0.47158602
-0.0745861
-0.7826574
0.29967913
0.584757
-0.8416997
-0.6408721
0.013288939
-0.35404807
-0.90188795
-0.30884877
-0.23399556
0.120027035
0.25556558
0.43631974
0.3847406
0.19386731
0.11133359
-0.32183754
1.1880156
-0.57764596
-1.0244453
-0.32566038
0.12021346
-0.24546501
1.0023657
-0.08632532
-0.7210532
0.672019
-1.6072162
-0.36447197
0.4363811
0.39782998
0.7515418
0.07178072
-0.72078884
-0.62168354
-0.0057718046
-0.2266147
0.8730542
0.3293452
-0.009081143
0.07114225
-0.8841869
-0.30823576
0.39723092
0.024120426
-1.058263
0.38543203
0.34153798
0.19659083
0.5495038
0.005123416
-0.13538334
-0.9090565
0.37118885
-0.68350685
0.41103974
-0.08454877
-0.4399209
0.71579015
0.18248576
-0.0037626775
-0.54993355
0.08300114
-0.6972657
0.38722834
-0.352134
0.060004942
0.69894356
-0.027639681
0.35042566
0.1718296
0.18028906
-0.9025742
0.12996925
-1.2816978
-0.058801018
-0.050034497
-0.029317573
0.47178844
0.012299869
0.27815333
-0.932054
0.24332976
-0.008595017
-0.5891996
0.4470814
0.5785785
-0.47509566
0.9135494
0.41566962
1.0533812
-0.23029445
-0.64760673
-1.6816628
-0.37758425
-0.6234045
0.08487523
0.5121349
-0.28535026
-0.5413854
0.033495747
-0.060672633
-0.06417742
0.8022411
-0.32416078
-0.49898854
-0.40530664
0.2536887
-0.0074099014
-0.20768483
0.1565341
-0.23493141
0.08413969
0.11627071
0.24627529
-0.19545631
-0.14592159
0.008236104
0.25133556
0.37245178
-0.16316433
-0.22178108
-0.14347501
0.18562482
0.06555468
0.26550412
-0.027005568
-0.5487037
0.04998004
1.1703562
0.47436267
-0.857282
-1.3684572
-0.7455988
-0.17166556
0.3820605
0.3136052
0.49957028
0.69361
-0.5609312
-0.6086277
-0.38715655
0.26544872
-0.8357223
0.31052068
0.0035435313
0.42921498
-0.51608366
-1.1727618
0.29042238
0.19461901
0.33888245
0.523038
-0.12883842
-0.02399539
-0.6241245
0.018872106
0.68682534
0.24701773
-0.051600873
-0.23205234
-0.81029963
-0.9958845
0.115031466
0.24004339
-0.072666675
0.08901055
1.0457836
0.063298754
-0.7599009
-0.78002936
-0.11631264
0.21749014
0.7968515
0.06803584
-0.15914044
0.33893305
-3.72725
-4.167865
-0.61290514
0.603897
0.13553847
-0.3691771
1.0830755
-1.6147316
-0.5609223
-0.6374803
0.61964
-0.6240122
-0.46260262
0.23137452
-0.1264121
0.20351258
0.12594663
-0.04186802
0.0044328356
0.16870524
0.70357394
0.17652638
-0.11691689
-0.10128145
0.4148898
-0.6275055
-0.10397218
-1.2164515
-0.3725751
0.24852392
0.694993
-0.2376954
0.030596955
0.030731857
-1.1905661
-0.47887042
0.6603015
-0.073176734
-0.3027329
0.72543937
-0.7991373
-0.05751914
0.11989134
0.49173564
0.12355982
0.121996686
-0.18194643
0.18065338
-0.41944215
-0.68948364
-1.1357254
-0.08221946
0.122539066
-0.17885081
0.21502054
0.11114182
-0.30358222
0.19044621
-0.29515782
-0.28175417
1.2891294
0.113212004
0.010426682
0.36896217
0.19829944
0.10281775
-1.2627606
0.010131272
-1.3131754
-0.6536554
-0.5952464
0.22007088
0.0113371005
0.07538289
0.045101058
0.06072264
-0.027089326
-0.017158944
0.3516264
-0.23390478
0.008692877
0.083335675
0.04352467
-0.123362936
0.24051356
0.25293684
-0.017066436
-0.096127294
-0.22209464
0.14821035
-0.3189659
-0.46552932
0.016150115
0.23073803
0.09767251
-0.07916787
-0.4523663
-0.13794127
0.40071622
-0.17590491
0.28709853
-0.06429575
0.25094366
0.51834863
-0.0057193516
0.23865654
-0.626367
-0.17193988
-0.3205233
-0.04324526
-1.0144714
-1.0175568
-0.14585312
0.32773745
0.09923313
0.27551103
-0.8404423
0.34911826
0.37786934
0.16014934
0.15070319
0.9001074
0.23230048
0.13198487
-0.6545721
-0.8495928
-0.38732502
0.11622091
-0.11097247
0.18730998
0.28886274
0.046141595
-0.44082355
-0.28220433
0.44746023
-0.2686638
0.16836616
0.38100448
0.43447194
-0.27425018
0.013820799
-0.30579913
-0.6840322
-0.55611944
-0.17094626
-0.04966026
0.55868244
0.12766786
0.6326686
0.27750194
-0.74859595
-0.5333499
0.015017669
0.008466997
0.2163464
0.19254364
-0.31709862
0.17747514
0.42739457
-0.2454158
-0.47042128
-0.26674452
-0.5963936
0.08175392
0.17069139
0.18811135
0.24327417
-0.09812721
0.62356144
-1.07845
0.4921278
0.607262
-1.9978273
-0.35285565
-0.19318913
0.15807575
0.21338552
-0.12489631
0.26325715
0.04733674
0.06552626
1.2934172
-1.0760764
-1.0210611
-0.112430766
1.1308274
0.19704767
0.56972647
-0.7500864
-1.1212542
