0.17821485
-0.34799474
-0.70633984
0.5756116
-0.38053837
-0.99557614
0.36315742
0.21121746
-0.26920256
0.7098506
1.0364468
0.23439458
0.8192493
0.3686521
0.25832537
0.46536517
0.35990232
0.024539856
0.049229242
-0.54495525
0.4982453
-0.64576423
0.032882497
-0.3185669
0.08343402
-0.39849764
-1.0586292
-0.057359733
0.4425662
-0.7394713
-0.53136533
0.5532689
1.271779
0.89033836
-2.6695278
0.5191029
-0.008713805
0.25111875
-0.42012474
0.2873258
-0.7634366
0.8759591
-0.13493015
0.4749973
0.3450467
0.19427349
-0.575404
-0.42486697
0.2892793
-0.14945224
-0.79456896
0.4620999
0.040901296
-0.18942136
0.12971012
-0.14559382
-1.4632283
-0.13491374
0.054939326
-0.66720927
0.81429917
0.05688736
0.46289185
0.37121886
-0.016322397
1.0798506
-0.23956552
-0.06806356
-0.806453
-0.10490666
-0.2910131
0.13388832
0.40192235
0.7472773
-1.4166228
0.6414649
-0.094783105
1.2658362
-0.09068011
-1.6576706
1.2674253
0.058050696
0.38939476
-0.942368
-0.60533273
-0.35546628
0.70351774
0.2737496
0.6939944
0.99097234
-0.022939
-0.27844715
0.22477323
-1.3273486
-0.30476707
0.468132
0.6359041
0.74104124
-0.007265498
-0.191943
-0.24513496
-0.09073734
0.52991176
0.16985838
-0.70199555
0.7603522
0.04690345
-0.21511012
0.17987803
-0.84218043
0.8903392
-0.3861971
0.09339641
0.6859195
0.08942109
0.08681516
-0.18978216
0.7043299
0.24042559
1.0392503
0.8421552
-0.3216508
0.5654745
-0.2619968
-1.7134408
1.0739086
0.51425534
0.10396149
-0.25931638
0.25599054
-0.7795234
-0.8722512
-0.03946202
0.112484135
0.5881399
-0.15809113
-0.54898334
0.19805774
0.20285876
-0.4363468
-0.19604461
0.47397876
0.22882353
0.21108744
-0.6494975
-0.15783677
0.112826884
-0.24887435
-0.12960708
-0.44362602
0.7368705
0.04504704
0.3123039
-0.49729937
-1.312588
0.15738669
-0.34392905
-0.46656233
0.1195762
0.12953584
0.03755712
0.19050188
0.6745118
0.36080524
0.070127375
0.44720322
-0.025685458
0.32385787
-0.37510934
-1.5202171
0.43614987
0.4502082
-0.8379109
0.5699198
0.08102731
-0.21836606
0.3674906
0.009588192
-0.18604243
0.9439144
0.37106812
-0.55658185
0.62398446
0.5948001
-1.5601519
-0.38954145
0.10053245
0.4176844
0.27436528
0.3167794
0.056989033
0.12893182
0.7242731
-0.10772193
-0.4452329
1.3456082
-0.3082248
-0.8367055
-1.2279983
-5.5983677
-1.0895036
-0.09986047
0.10323824
-0.27100587
-0.35760182
-0.23041035
-0.2733407
0.17307512
0.016242262
0.94519037
1.0251902
-0.7239331
-0.56048995
0.7412528
-1.6076093
0.23531553
0.9845947
-0.29293206
0.16542815
0.36392492
-0.23955399
-0.1609839
-0.44041452
0.07324649
-0.14161079
-0.60123754
-0.087513894
-0.38387102
-0.75544536
-0.14548384
-0.5013158
0.4128734
0.20843478
-0.4136685
0.3748642
0.698705
-0.4231809
-0.32820708
-0.14367603
0.4999577
-0.08391373
0.07371616
-0.033218216
-0.54164904
-0.07089399
0.2831298
-0.21775886
-0.16629249
-0.54507893
-0.25503647
-1.1564201
-1.0929137
1.0320439
0.19697668
0.17071185
0.31876788
-0.79879236
0.10813325
0.9461882
0.31863073
-0.19508435
0.08642415
0.39667907
-1.4320215
0.15878275
-0.27510464
-0.17945226
0.76203513
0.4778962
0.66159856
-0.3499502
-0.22422783
-0.074062735
-0.70133305
-0.14700317
-0.096315265
0.35205147
0.21719867
0.22081205
0.72469413
-0.07084719
-0.67875123
-0.22109643
-0.28583932
-0.22321327
-1.2771349
0.054242954
0.24460289
0.18482496
-0.03913879
0.5258729
0.067376316
-0.04779291
-0.36578804
0.34598756
0.14507002
0.73335636
0.28815243
0.11502626
-0.009680843
0.16897613
-0.13436836
0.5591014
0.028449792
-0.74259675
0.6026205
0.14814274
0.27746043
-0.29549268
-0.029820886
0.65707505
-0.40464866
0.62420154
0.25600561
0.5021113
-0.029632876
-0.006561961
-0.31029198
-0.32061273
-0.5534337
0.25438327
0.62329704
0.33254808
-0.115313664
0.8026761
0.25559586
-0.45426333
-0.29799291
-0.2251498
-0.46847054
-0.23449749
0.015654298
0.017059172
0.38385126
0.06155939
0.29015443
-0.14985693
-0.2788841
0.17912684
0.15600823
0.41402572
0.1528927
0.3924261
0.10092872
-0.04376621
-0.32110593
-0.2302282
-0.5800863
0.06917084
0.35628444
-0.18003833
-0.3378014
-0.3582353
-0.10786674
0.058626268
-0.18547526
-1.22967
0.3140812
-0.37286112
0.78301346
-0.3161068
-0.13958447
0.70722365
-0.47731534
0.12519492
-0.31513235
0.59148127
0.29010957
0.30835977
0.32783103
0.10880045
0.659779
-0.008249726
-0.058126755
0.32895455
-1.1995964
0.21850543
0.16858463
0.22311804
0.07061875
-0.021087317
-0.11695518
-0.54578406
0.09599811
0.39350227
0.09118591
0.1148166
-0.1967556
-0.18414553
-0.5233912
-0.4189992
-0.19328558
-0.3663738
-0.654129
-0.1647765
-0.05230403
0.19758822
0.032392655
-0.007499437
0.34318954
0.092595905
0.17924236
0.097205244
-0.0994124
0.33929688
-0.40938726
-0.060660325
-0.19249687
-0.49806115
-0.39045936
-0.701732
0.8749265
0.07411493
0.45950586
0.97030574
0.11241205
-0.19679607
-0.076169
-0.25911906
0.09843178
-0.95233756
-0.3724929
-0.9823922
0.8794907
0.7277153
0.3208261
-0.2058782
-0.33655676
0.72436976
0.39012116
0.6046071
0.5856338
0.56162804
-0.4231949
0.18931922
-0.33788165
0.20745385
-0.110661305
-0.39587295
-0.38758984
-0.14245254
-0.31921437
-0.4552076
0.19702958
0.22648837
0.043511536
0.14389482
0.0380106
-0.46359518
-0.38667715
-0.37030384
0.2606221
-0.3721408
-0.543749
0.2510422
-0.21574163
-0.16051301
0.4536127
-0.13188724
-0.12738043
0.48251018
-0.7707306
-0.6168563
0.40527648
0.061020732
-0.5744955
0.057234827
-0.3486951
-0.061526693
0.0661735
0.086894184
0.20700155
-0.079882
-0.17629763
0.06470829
0.07027823
-0.79676706
-0.73862803
0.060171332
0.12775975
0.68087846
-0.06538898
-0.3601651
0.942865
-0.48070443
-0.19387308
-0.015907045
0.37333632
0.22583234
-0.029401686
0.7659459
0.114754975
0.47442195
-0.33252868
0.65217686
-0.13769582
0.021549953
0.100410365
0.12405224
0.07831463
-0.15489487
0.56096876
0.19859816
0.42900345
0.0640142
-0.51385516
-0.522461
0.28797734
0.07179425
0.33271754
-0.038145095
0.3546628
0.0066610193
-0.2406879
0.011317894
0.19405544
-0.38782227
-0.21466546
-0.022419017
0.30303335
0.27061158
0.16824648
-0.031614244
-0.17987834
-0.2435471
-0.70223135
-0.16920646
-0.08504455
-0.34058726
-0.44931778
-0.98998106
-0.4473441
-0.04911099
-0.37938672
0.5176793
0.27161658
0.4759588
0.6730947
-0.61035603
0.15355352
0.40151295
0.34015828
-0.068434365
0.69095474
0.3008301
0.3365884
0.16987926
0.21340445
-0.26325086
0.3560575
-0.30696043
-0.12501931
-0.06697243
0.26831847
-0.4731053
-0.27759308
0.17395182
-0.07919101
-0.033697598
0.44144058
0.28964105
-0.26724762
-0.16099781
-0.0597471
0.02892033
0.241806
-0.10613721
-0.50823176
-0.07749894
0.33903793
-0.2981869
0.23746039
-0.13540924
-0.2968264
-0.11558767
0.41449925
0.22305003
-0.10360139
-0.0008026047
-0.45629716
0.07808732
-0.36879304
0.2974395
-0.21327704
0.37778634
0.061902434
-0.035186723
0.5810255
-0.44855097
0.03794439
-0.19742408
0.05353099
0.10343059
-0.19639595
-0.20991847
-0.34413186
0.2693968
-0.33036906
0.045678724
-0.3343831
-0.13603826
-0.05601559
0.34770572
-0.22282016
0.3553345
-0.01864073
-0.29445922
-0.38060984
0.23300065
-0.053060867
0.26684558
0.5737781
-0.32903126
-0.28267318
0.06563491
-0.078128584
0.2243731
-0.20104364
-0.047735225
0.1807819
0.09037626
-0.2448715
-0.48988923
0.23405708
-0.13323897
-0.054041244
-0.31618437
0.16605644
-0.02028396
0.15647578
-0.018683285
0.5931089
-0.25440356
-0.40942487
-0.086028665
-0.39169505
0.34404302
0.25946814
0.61070824
0.1664699
0.38381258
-0.016853724
-0.03179339
-0.104633585
0.2089817
-0.53209746
0.48919365
-0.7542283
-0.4081959
-0.047670953
-0.2864878
-0.104959086
0.42815015
0.05591914
0.11525142
0.009717385
-0.0790404
-0.2189386
0.19784561
-0.05146164
-0.41236994
0.42215198
0.011006478
-0.057423428
0.2639013
0.30162165
-0.31804633
-0.0027788617
-0.00092801795
0.05570326
-0.20340046
0.36844793
0.46442053
0.18832013
-0.10084513
-0.014037757
0.49150193
0.9037571
0.047567215
-0.03025648
0.6286711
-0.34233677
-0.24978945
0.020208245
-0.010773191
0.03961519
0.2688177
0.29291615
-0.09527013
0.18337159
0.046210427
0.16158685
-0.43773904
0.17888163
-0.06502703
0.26884502
-0.25422552
0.25678378
0.15963179
0.047411546
0.11318905
-0.20795238
0.184044
-0.3198005
0.49459952
-0.8361871
-0.4155029
-0.072515324
0.05166003
0.5537733
-0.38948464
-0.5730255
0.33662137
-0.24779762
0.55169725
0.326909
-0.097203374
-0.11532857
-0.037677817
-0.15673281
0.22747628
0.39617947
-0.06697509
-0.20893878
0.37968382
-0.15638874
0.31015176
0.5298672
0.23998418
-0.23088808
0.2728139
-0.36866328
-0.033339735
0.5295374
0.11753499
-0.33562174
0.03457992
0.06561073
-0.41469127
0.16338025
0.29650995
-0.21151769
-0.27802348
-0.09129226
-0.11625949
-0.110168725
0.09375115
-0.29916272
0.037203074
-0.13104641
-0.14479218
0.18800855
0.1532287
0.32597098
0.23146793
-0.17965396
-0.17469558
0.015674133
0.55064976
-0.16461895
0.9066742
-0.6088597
-0.42680737
0.09183915
0.61006033
0.5613878
0.34090775
-0.18632422
-0.029025968
0.07606187
0.19766083
0.07053331
0.14302401
0.22746773
-0.2908892
-0.0114035765
-0.32817337
0.10721763
0.023564348
-0.013185557
0.30510604
-0.3224611
-0.12042883
-0.38135397
-0.14284539
-0.102764495
0.22587512
-0.7668249
-0.047389947
-0.11585769
0.054147765
0.46488947
-0.3240216
-0.36217332
0.079481475
0.3038931
-0.2831271
-0.0038223844
0.72973084
0.103082165
-0.5882424
0.1533017
-0.15381181
0.20695505
0.7466664
0.44406673
-0.99797463
0.08799121
0.005119011
0.1144536
-0.07437636
0.23897626
0.1344491
-0.0065940567
-0.18490104
-0.03455499
-0.042282835
0.16896638
-0.10983578
-0.21070406
-0.017140895
0.20053558
-0.23547715
0.059158556
0.06191678
-0.07163066
-0.06928973
0.12337007
-0.27846342
0.114294596
-0.21617754
0.010861696
-0.3921508
-0.0019406026
0.03292228
-0.009355992
0.24829344
-0.15203154
0.1726449
0.076624066
-0.09709957
0.32756293
0.23373532
0.34224266
0.01912546
0.2398715
-4.982989e-05
-0.15192738
0.2449318
0.020801717
-0.12484859
-0.0169769
0.22501759
0.15571575
-0.03785618
-0.314987
0.77890235
-0.03671727
-0.4522588
0.3444744
-0.5028623
-0.21989538
0.20141536
0.42672527
-0.16537078
0.5724077
0.1208597
0.17465758
0.18022123
0.036889758
0.19604702
-0.03592271
-0.28974688
0.04988926
0.31872326
-0.0910875
-0.44189367
-0.03627013
0.040357802
-0.31426758
-0.5029464
-0.016268585
0.07216443
0.19664934
0.22093038
0.058118444
-0.33458075
-0.27433613
0.2537548
0.26165956
-0.3308841
-0.27918324
-0.011427769
-0.23765323
-0.15590698
-0.22420001
0.21735732
0.21408258
0.04586076
-0.10081837
-0.1087294
0.32648292
-0.07259749
-0.1613665
-0.12968847
0.39876148
0.6532601
-0.1642512
-0.104708806
0.15886074
0.2607239
0.43783835
-0.398817
-0.44004235
0.41696057
0.48121446
-0.09717381
-0.069214225
0.22214174
-0.5943076
-0.6614989
-0.6032113
-0.32103863
0.6509927
-0.07501176
-0.16323861
0.46861723
0.17145762
0.10843821
-0.8661068
0.40492475
-0.851759
0.49000958
0.9265656
-0.0752004
-0.424685
-1.244914
0.83593047
0.7090993
-0.5401407
0.3501815
-0.694437
0.9528945
0.021252993
0.009591838
0.30673936
0.10633676
-0.54915947
0.35061345
0.30187166
-0.31286296
0.74411196
-0.022516243
0.6961944
0.5002327
-0.7475253
-1.0221308
0.5280579
0.6634178
0.012661785
-0.08338213
-0.012673628
0.23305723
0.199939
-0.2625641
0.124239855
0.2499274
0.40177488
-0.32482338
0.50091004
0.573218
0.53411865
0.008754221
0.2803915
0.039951585
0.44523448
-1.1806757
0.119184405
0.60961676
0.57532346
-0.65789753
-0.3525891
0.14616394
0.2764932
-0.2800214
0.84449685
-1.6271644
0.09580663
0.627496
0.17159824
0.042371724
-0.69724786
-0.23624945
0.42046508
0.37510934
0.09869464
0.040019464
-0.015378297
0.052148808
-0.16634038
0.20363045
-0.41438654
-0.004654494
0.2311219
0.1591808
-0.02980294
0.025129862
0.27522168
0.1247087
-0.08847734
0.6055814
-0.055899356
0.21771637
-0.34176207
0.12369262
0.021120014
-0.0010246015
-0.010208361
-0.09070723
-0.3048033
0.43130505
-0.4045647
-0.29787195
-0.034562416
0.6210403
0.40423885
-0.22742955
-0.47884825
0.249548
-1.0591551
0.2782377
-0.53545755
-0.16407423
0.13865656
0.031516407
0.19810168
0.14073291
0.39600924
-0.11937533
0.27065766
-0.22523129
0.033738583
-0.3395138
0.08754627
-0.57365733
-0.1828365
0.6408709
-0.057872426
0.26890504
-0.24697652
-0.061640345
0.24975488
0.13059355
0.01421762
-0.34197494
0.52920663
0.10870185
0.46628568
-0.23956221
-0.19531648
-0.016070222
0.00769209
-0.21745524
0.028575778
0.13373539
0.13086024
-0.14149569
-0.035760943
-0.21725659
-0.35459343
-0.04741163
-0.27975604
-0.4912713
-0.10257477
-0.7230509
-0.3027574
0.24150449
-0.68817097
-0.7220033
-0.19425704
0.44242573
-0.7613898
0.18265522
0.38893867
0.32969975
-0.30289382
-0.04804665
-0.07226142
-0.56596136
-0.43769422
0.5359966
0.45928758
0.54198414
1.0156115
-0.017552843
-0.093637444
-0.353541
-0.49151465
0.43772393
-0.16549757
0.2902076
0.075899325
0.60696757
-0.6660861
0.19494186
0.13957794
-0.28854114
0.15515402
0.49901733
0.04900964
-0.044943426
-0.056250956
0.09809179
0.21748047
-0.21327421
0.18614413
0.1556063
0.18727024
0.16907392
0.014035255
0.116962604
0.33193222
-0.24611826
0.16938592
0.076234
