1.255623
-1.5364553
-0.11747367
-0.18367992
0.30129835
-1.9438802
0.8258512
-0.84005183
-0.70494825
-1.1110857
-0.06438094
-0.83504224
0.15648279
0.3953291
0.49779403
-0.2736299
0.53945446
-0.9219646
0.7995344
-0.12197093
-0.50055796
-0.018268468
0.14006674
0.077024974
0.52153844
0.5011669
1.3120478
-0.021552287
-0.23577699
-0.71311605
-2.1426013
-1.178526
0.22002397
0.42083642
0.21160449
-2.4857218
-0.2727282
-1.7828864
0.9145226
0.17160138
1.2858107
-1.042934
-0.9973009
-0.82778376
0.14126651
-0.0052092723
0.21254186
-2.5155394
-0.8376531
-0.24753103
0.22840957
0.87788284
-0.1733732
-0.298339
-0.659432
-0.5854988
-1.0110375
-1.4891301
0.10754559
0.83849293
-0.64033604
-1.011239
0.33452478
0.53984857
0.5273636
0.75333285
-0.80399513
0.233308
-0.4049185
-0.54279804
0.38465706
0.35009623
-0.03444916
0.068043806
0.79178035
-0.7385354
-0.5732353
0.503601
-1.049054
-0.78684866
-0.12082002
1.2480397
0.04607984
-0.17980981
-0.22655798
-0.0311127
-0.6590711
0.27961996
-0.29771984
0.74293464
1.1342751
-0.42384133
0.3187639
0.20905095
-0.08008776
-0.49319115
1.0960971
-0.36519924
-0.5211527
0.33081147
0.01221822
-0.70770484
-0.6687506
-0.46387693
0.27526194
0.97885484
0.19500548
0.4554654
0.42876157
-0.72385114
0.08705705
0.41721302
0.27020058
0.29294825
-0.59047484
-1.0949769
-1.2288135
-2.158081
-0.4002964
0.7324521
1.0368798
-0.93881166
0.16632907
0.43839186
-1.4788622
-0.012892396
-1.4496528
0.07850715
0.94341654
-0.81103987
-0.8153066
0.52052546
0.26375228
0.0115241725
-0.6220224
0.042865057
-0.03844026
0.929873
0.2688537
0.18190843
-0.065147206
0.51679903
0.59919083
0.4641123
-1.1357383
-2.469078
0.70489347
-0.8031746
0.07491713
0.1512908
